tree
version=v4
num_class=1
num_tree_per_iteration=1
label_index=0
max_feature_idx=1460
objective=regression
feature_names=aarsd1 abhd14b abl1 acaa1 acan ace2 acox1 acp5 acp6 acta2 actn4 acvrl1 acy1 ada ada2 adam15 adam22 adam23 adam8 adamts13 adamts15 adamts16 adamts8 adcyap1r1 adgrb3 adgre2 adgre5 adgrg1 adgrg2 adh4 adm afp ager agr2 agr3 agrn agrp agxt ahcy ahsp aif1 aifm1 ak1 akr1b1 akr1c4 akt1s1 akt3 alcam aldh1a1 aldh3a1 alpp ambn ambp amfr amigo2 amn amy2a amy2b ang angpt1 angpt2 angptl1 angptl2 angptl3 angptl4 angptl7 ankrd54 anpep anxa10 anxa11 anxa3 anxa4 anxa5 aoc1 aoc3 apbb1ip apex1 aplp1 apoh apom app aprt areg arg1 arhgap1 arhgap25 arhgef12 arid4b arnt arsa arsb art3 artn asah2 asgr1 atf2 atg4a atox1 atp5if1 atp5po atp6ap2 atp6v1d atp6v1f atxn10 axin1 axl azu1 b4galt1 b4gat1 bach1 bag3 bag6 baiap2 bambi bank1 bax bcam bcan bcl2l11 bcr bgn bid bin2 birc2 blmh blvrb bmp4 bmp6 boc bpifb1 brk1 bsg bst1 bst2 btc btn2a1 btn3a2 c19orf12 c1qa c1qtnf1 c2 c2cd2l c4bpb ca1 ca11 ca12 ca13 ca14 ca2 ca3 ca4 ca5a ca6 ca9 calb1 calb2 calca calcoco1 camkk1 cant1 capg carhsp1 casp1 casp10 casp2 casp3 casp8 cblif cbln4 cc2d1a ccdc80 ccl11 ccl13 ccl14 ccl15 ccl16 ccl17 ccl18 ccl19 ccl2 ccl20 ccl21 ccl22 ccl23 ccl24 ccl25 ccl26 ccl27 ccl28 ccl3 ccl4 ccl5 ccl7 ccl8 ccn1 ccn2 ccn3 ccn4 ccn5 ccs cct5 cd109 cd14 cd160 cd163 cd164 cd177 cd1c cd200 cd200r1 cd207 cd209 cd22 cd244 cd27 cd274 cd276 cd28 cd2ap cd300c cd300e cd300lf cd300lg cd302 cd33 cd34 cd38 cd4 cd40 cd40lg cd46 cd48 cd5 cd55 cd58 cd59 cd6 cd63 cd69 cd70 cd74 cd79b cd83 cd84 cd8a cd93 cd99 cd99l2 cdc27 cdc37 cdcp1 cdh1 cdh15 cdh17 cdh2 cdh3 cdh5 cdh6 cdhr1 cdhr2 cdhr5 cdkn1a cdkn2d cdnf cdon cdsn ceacam1 ceacam21 ceacam3 ceacam5 ceacam8 cebpb cela3a cep164 cep20 cep43 cep85 cert ces1 ces2 ces3 cetn2 cfc1 cga cgref1 chac2 chek2 chgb chi3l1 chit1 chl1 chmp1a chrdl1 chrdl2 ciapin1 ckap4 ckmt1a_ckmt1b clc clec10a clec11a clec14a clec1a clec1b clec4a clec4c clec4d clec4g clec5a clec6a clec7a clip2 clmp clpp clps clspn clstn1 clstn2 clta clul1 cndp1 cnpy2 cnpy4 cnst cntn1 cntn2 cntn3 cntn4 cntn5 cntnap2 col18a1 col1a1 col4a1 col6a3 col9a1 colec12 comp comt cope coro1a cox5b cpa1 cpa2 cpb1 cpe cpm cpped1 cpvl cpxm1 cr2 cracr2a cradd creg1 creld2 crh crhbp crhr1 crim1 crip2 crisp2 crkl crlf1 crnn crtac1 crtam crx csf1 csf2ra csf3 cst3 cst5 cst6 cst7 cstb ctf1 ctrb1 ctrc ctsb ctsc ctsd ctsf ctsh ctsl ctso ctss ctsv ctsz cx3cl1 cxadr cxcl1 cxcl10 cxcl11 cxcl12 cxcl13 cxcl14 cxcl16 cxcl17 cxcl3 cxcl5 cxcl6 cxcl8 cxcl9 dab2 dag1 dapp1 dars1 dbi dbnl dcbld2 dcn dctn1 dctn2 dctn6 dctpp1 dcxr ddah1 ddc ddr1 ddx58 decr1 defa1_defa1b defb4a_defb4b dffa dgkz diablo dkk1 dkk3 dkk4 dkkl1 dlk1 dll1 dnaja2 dnajb1 dnajb8 dner dnmbp dnph1 dok2 dpep1 dpep2 dpp10 dpp4 dpp6 dpp7 dpt dpy30 draxin drg2 dsc2 dsg2 dsg3 dsg4 dtx3 duox2 dusp3 ebag9 ebi3_il27 ece1 eda2r edar edil3 efemp1 efna1 efna4 egf egfl7 egfr egln1 eif4b eif4ebp1 eif4g1 eif5a eloa enah eng eno1 eno2 enpp2 enpp5 enpp7 entpd2 entpd5 entpd6 epcam epha1 epha10 epha2 ephb4 ephb6 ephx2 epo eps8l2 erbb2 erbb3 erbb4 erbin ereg erp44 esam esm1 ezr f11r f2r f3 f7 f9 fabp1 fabp2 fabp4 fabp5 fabp6 fabp9 fadd fam3b fam3c fap fas faslg fbp1 fcar fcer2 fcgr2a fcgr2b fcgr3b fcn2 fcrl1 fcrl2 fcrl3 fcrl5 fcrl6 fcrlb fen1 fes fetub fgf19 fgf2 fgf21 fgf23 fgf5 fgfbp1 fgfr2 fgr fhit fis1 fkbp1b fkbp4 fkbp5 fkbp7 fli1 flrt2 flt1 flt3 flt3lg flt4 fmnl1 fmr1 folr1 folr2 folr3 fosb foxo1 foxo3 frzb fst fstl3 fuca1 furin fus fut3_fut5 fut8 fxn fxyd5 fyb1 gal galnt10 galnt2 galnt3 galnt7 gas6 gbp2 gbp4 gcg gcnt1 gdf15 gdf2 gdnf gfap gfer gfod2 gfra1 gfra2 gfra3 gga1 ggh ggt1 ggt5 gh1 gh2 ghrhr ghrl gkn1 glb1 glo1 glod4 glrx glt8d2 gmpr gne gnly golm2 gopc gp1ba gp2 gp6 gpa33 gpc1 gpc5 gpkow gpnmb gpr37 grap2 grk5 grn grpel1 gsap gsta1 gsta3 gstp1 guca2a gusb gys1 gzma gzmb gzmh hagh hao1 hars1 havcr1 havcr2 hbegf hbq1 hcls1 hdgf hebp1 hexim1 hgf hgs hk2 hmbs hmox1 hmox2 hnmt hnrnpk hpcal1 hpgds hs3st3b1 hs6st1 hsd11b1 hsp90b1 hspa1a hspb1 hspb6 hspg2 htra2 hyal1 hyou1 ica1 icam1 icam2 icam3 icam4 icam5 icoslg idi2 ids idua ifng ifngr1 ifngr2 ifnl1 ifnlr1 igf1r igf2r igfbp1 igfbp2 igfbp3 igfbp4 igfbp6 igfbp7 igfbpl1 igsf3 igsf8 ikbkg ikzf2 il10 il10ra il10rb il11 il12a_il12b il12b il12rb1 il13 il13ra1 il15 il15ra il16 il17a il17c il17d il17f il17ra il17rb il18 il18bp il18r1 il18rap il19 il1a il1b il1r1 il1r2 il1rap il1rl1 il1rl2 il1rn il2 il20 il20ra il22ra1 il24 il2ra il2rb il32 il33 il34 il3ra il4 il4r il5 il5ra il6 il6r il6st il7 il7r ilkap impa1 ing1 inhbc inpp1 inppl1 ipcef1 iqgap2 irag2 irak1 irak4 islr2 ism1 itga11 itga5 itga6 itgam itgav itgb1 itgb1bp1 itgb1bp2 itgb2 itgb5 itgb6 itgb7 itih3 itm2a ivd jam2 jchain jun kazald1 kcnip4 kdr kel kifbp kir2dl3 kir3dl1 kirrel2 kit kitlg klb klk1 klk10 klk11 klk12 klk13 klk14 klk4 klk6 klk8 klrb1 klrd1 krt14 krt18 krt19 krt5 kyat1 kynu l1cam lactb2 lag3 lair1 lair2 lama4 lamp2 lamp3 lap3 lat lat2 layn lbp lbr lcn2 ldlr lefty2 lep lepr lgals1 lgals3 lgals4 lgals7_lgals7b lgals8 lgals9 lgmn lhb lhpp lif lifr lilra2 lilra5 lilrb1 lilrb2 lilrb4 lilrb5 lpcat2 lpl lpo lrig1 lrp1 lrp11 lrpap1 lrrc25 lrrn1 lsm1 lsp1 lta lta4h ltbp2 ltbp3 ltbr lto1 lxn ly6d ly75 ly9 ly96 lyar lyn lypd1 lypd3 lypd8 mad1l1 maea maged1 manf mansc1 map2k6 map3k5 map4k5 mapk9 mapt marco masp1 matn2 matn3 mavs max mb mcam mcfd2 mdga1 mdk med18 megf10 megf9 mep1b mepe mertk mesd met metap1 metap1d metap2 mfap3 mfap5 mfge8 mgll mgmt mia micb_mica mif milr1 mitd1 mln mme mmp1 mmp10 mmp12 mmp13 mmp3 mmp7 mmp8 mmp9 mnda mog mphosph8 mpi mpig6b mpo mrpl46 msln msmb msr1 msra mstn mtpn muc13 muc16 mvk myo9b myoc mzb1 mzt1 naaa nadk nampt nbl1 nbn ncam1 ncam2 ncan ncf2 nck2 ncln ncr1 ncs1 ndrg1 ndufs6 nectin2 nectin4 nefl nell1 nell2 nfasc nfatc1 nfatc3 nfkbie ngf nid1 nid2 ninj1 nme3 nmnat1 nomo1 nos1 nos3 notch1 notch3 npdc1 npm1 nppb nppc nptn nptx1 nptxr npy nrcam nrp1 nrp2 nrtn nsfl1c nt5c3a nt5e ntf3 ntf4 ntprobnp ntrk2 ntrk3 nub1 nucb2 nudc nudt2 nudt5 nxph1 obp2b odam ogfr ogn olr1 omd omg optc oscar osm osmr oxt p4hb padi2 padi4 paep pag1 pak4 pam pamr1 pappa park7 parp1 pbld pcdh1 pcdh17 pcolce pcsk9 pdcd1 pdcd1lg2 pdcd5 pdcd6 pdgfa pdgfb pdgfc pdgfra pdgfrb pdlim7 pdp1 pear1 pebp1 pecam1 pfdn2 pfkfb2 pgf pglyrp1 phospho1 pi3 pigr pik3ap1 pik3ip1 pilra pilrb pklr pla2g10 pla2g15 pla2g1b pla2g2a pla2g4a pla2g7 plat plau plaur plin1 plin3 plpbp pltp plxdc1 plxna4 plxnb2 plxnb3 pm20d1 pmvk pnliprp2 pnpt1 podxl podxl2 polr2f pon2 pon3 ppcdc ppib ppm1a ppme1 ppp1r12a ppp1r2 ppp1r9b ppp3r1 ppy pqbp1 prcp prdx1 prdx3 prdx5 prdx6 preb prelp prkab1 prkar1a prkcq prkra prl proc prok1 prss2 prss27 prss8 prtfdc1 prtg prtn3 psg1 psip1 psma1 psmd9 psme1 psme2 psmg3 pspn psrc1 pten ptgds pth1r ptk7 ptn ptpn1 ptpn6 ptprf ptprm ptprn2 ptprs pts ptx3 pvalb pvr pxn qdpr qpct rab37 rab6a rab6b rabepk rabgap1l rad23b rangap1 rarres1 rarres2 rasa1 rassf2 rbks rbp2 rbp5 rcor1 reg1a reg1b reg3a reg4 relt ren ret retn rgma rgmb rgs8 rhoc rilp rnase3 rnaset2 rnf41 robo1 robo2 ror1 rp2 rrm2 rrm2b rspo1 rspo3 rtbdn rtn4r ruvbl1 rwdd1 s100a11 s100a12 s100a16 s100a4 s100p samd9l scamp3 scara5 scarb1 scarb2 scarf1 scarf2 scg2 scg3 scgb1a1 scgb3a2 scgn scly scp2 scrn1 sdc1 sdc4 sele selp selplg sema3f sema4c sema4d sema7a septin9 serpina11 serpina12 serpina9 serpinb1 serpinb5 serpinb6 serpinb8 serpinb9 serpine1 sestd1 setmar sez6l sez6l2 sf3b4 sfrp1 sftpa1 sftpa2 sftpd sh2b3 sh2d1a shmt1 siae siglec1 siglec10 siglec15 siglec5 siglec6 siglec7 siglec9 sirpa sirpb1 sirt2 sirt5 sit1 skap1 skap2 slamf1 slamf6 slamf7 slamf8 slc16a1 slc27a4 slc39a14 slc39a5 slit2 slitrk2 slitrk6 smad1 smad5 smarca2 smoc1 smoc2 smpd1 smpdl3a snap23 snap29 sncg snx9 sod1 sod2 sorcs2 sord sort1 sost sparc sparcl1 spink1 spink4 spink5 spink6 spint1 spint2 spock1 spon1 spon2 spp1 spry2 src srp14 srpk2 ssb ssc4d ssc5d st3gal1 st6gal1 stambp stat5b stc1 stc2 stip1 stk11 stk24 stk4 stx16 stx4 stx6 stx8 stxbp3 sugt1 sult1a1 sult2a1 sumf2 susd1 susd2 tacc3 tacstd2 tafa5 tank tarbp2 tbc1d17 tbc1d23 tbc1d5 tbcb tbcc tbl1x tcl1a tcl1b tcn2 tdgf1 tdrkh tek tff1 tff2 tff3 tfpi tfpi2 tfrc tgfa tgfb1 tgfbi tgfbr2 tgfbr3 tgm2 thbd thbs2 thbs4 thop1 thpo thy1 tia1 tie1 tigar timd4 timp1 timp3 timp4 tinagl1 tjap1 tlr3 tmprss15 tmprss5 tmsb10 tnc tnf tnfaip8 tnfrsf10a tnfrsf10b tnfrsf10c tnfrsf11a tnfrsf11b tnfrsf12a tnfrsf13b tnfrsf13c tnfrsf14 tnfrsf19 tnfrsf1a tnfrsf1b tnfrsf21 tnfrsf4 tnfrsf6b tnfrsf8 tnfrsf9 tnfsf10 tnfsf11 tnfsf12 tnfsf13 tnfsf13b tnfsf14 tnni3 tnr tnxb tp53 tp53inp1 tpmt tpp1 tppp3 tpsab1 tpt1 traf2 trem2 treml2 triap1 trim21 trim5 tshb tslp tspan1 tst txlna txndc15 txndc5 txnrd1 tymp tyro3 ubac1 ulbp2 umod uso1 usp8 uxs1 vamp5 vash1 vasn vat1 vcam1 vcan vegfa vegfc vegfd vim vmo1 vnn2 vps37a vps53 vsig4 vsir vstm1 vstm2l vta1 vtcn1 vwa1 vwc2 vwf wars was wasf1 wasf3 wfdc12 wfdc2 wfikkn1 wfikkn2 wif1 wnt9a wwp2 xcl1 xg xpnpep2 xrcc4 yes1 ythdf3 zbtb16 zbtb17
feature_infos=[-4.7301862131831944:4.4388232532851717] [-4.4667179547861089:4.4699718989085815] [-4.6028682973738535:4.1803659750223012] [-4.1844656326292045:3.9339921519694054] [-4.5019338212136137:4.5604277213208642] [-5.2449954239503622:4.9174808912642742] [-4.3347068648420564:4.2414608612406521] [-4.6124884390477678:4.6482117410299422] [-4.0091904837088688:4.2636216298105438] [-4.9967070318904714:5.9722795614616615] [-4.30512033064071:4.2698425513926574] [-4.3160591596011981:4.1508272853722437] [-4.6763455698881682:4.6486973772432147] [-4.1993554570801184:4.3267575047085955] [-4.1678743091056276:4.1960594473623276] [-4.5501635767023823:4.0385073888650718] [-4.0616565151491573:4.6126432888725457] [-4.2128671477571968:4.1571494798938176] [-4.312141028513234:4.3057302679832903] [-4.2282065590969999:4.4267477653565033] [-4.0494935444979205:4.2410505450213885] [-4.7583997585206328:4.974158917541371] [-4.2567342201912277:4.3034464942577344] [-4.0706533664351863:4.1973050957725624] [-4.1232934342241752:4.3247775776233617] [-4.1332053679631979:4.4542898757349967] [-4.2188548081471104:4.2747013993572649] [-4.4508731655150005:4.4471486535311575] [-4.4995798334661545:4.749186078769295] [-4.0970381132837694:5.1149804490510578] [-4.4948095465344542:5.1335599599532395] [-3.8675371605553011:5.3812537645557548] [-3.7544137952843268:4.6917281567500151] [-4.064284466884561:4.7390479413002238] [-4.0179279182755225:4.192952402446994] [-4.8166427110738628:4.164909648058754] [-4.196719675060387:4.5377708307045825] [-4.5495214808552875:4.435658650297821] [-4.1799471601771776:4.5272460250843238] [-4.4879713589752024:5.1458869452523315] [-4.1663632948920375:4.1731792655712896] [-4.3577757285143113:4.5567391820222403] [-4.096302587570162:4.3107871366048913] [-4.5201763524643184:4.4377126889621543] [-4.293073853012622:4.0313277454060348] [-4.4646231748788328:4.20830792253056] [-3.9540906117797374:4.3766894270145063] [-5.1007004428015517:4.8013756487341457] [-4.7310424026736326:4.5610010472626676] [-4.5985676955628438:4.4031173421257961] [-4.5580703261320767:4.4658995714705121] [-4.2967356220909219:4.3870161305445166] [-4.8970983272886937:4.6128730079284894] [-4.4088144309400015:4.1736451331336539] [-5.0794712666747923:4.4831560908415442] [-4.0468661148105909:4.3678380520403675] [-4.3385985621473857:4.5440517873537072] [-4.3019442208554466:4.4370868107124872] [-4.5388010868742494:4.680599323697713] [-4.0901360522497425:3.8272128162425814] [-4.0616168558270607:4.5526352725757677] [-4.1389335315090552:4.2081787472463636] [-4.64469901235333:4.6811438970717756] [-4.675401285346747:4.402087076755353] [-4.0624384303908361:4.263884487787819] [-4.3709176919321013:5.338726475525732] [-4.0675798783736026:4.3013888246853229] [-4.2794794884542382:4.373693021542584] [-4.4828229221047433:4.4127587205738186] [-4.3462060988109918:4.2433010253995906] [-4.2119735118817738:3.9843326412214308] [-4.4816470968710664:4.1235720799128845] [-3.8749392373959011:3.8620215211218163] [-4.1035185453169003:3.9592619624669578] [-4.7838114198634312:5.4859988247720963] [-4.1811773288327849:4.5104779564583843] [-3.9486133079309989:4.4392150082945143] [-4.3193599146425044:3.7056441986931774] [-4.2577614445916705:4.2571500018039989] [-4.5709616180897843:4.3356981604607618] [-4.2662089901352651:4.2206522951879322] [-4.4096658578400456:4.1376472909495199] [-4.6685238883893536:4.1191051820803661] [-4.5647159387225749:4.6050274626182013] [-4.3992028912784402:4.0748692320362343] [-4.3716393803880056:4.1505473305376857] [-4.6034390050135263:4.1534920003957838] [-4.113035600875536:4.2518968074465828] [-4.2191666417960327:4.1699412201032926] [-4.573911246110141:4.6346222068044813] [-4.2087222325722156:4.3651494162618825] [-4.7705818393617978:4.7665419670388962] [-4.4265985807793697:4.0034923404946179] [-4.5434343191915776:4.3697122283850236] [-4.3605538500335266:4.2071138979685454] [-4.0649393040718822:4.3857278430702689] [-5.1911993054104171:4.5765853711031088] [-4.220292608683434:4.1762407523532499] [-4.6420364963020342:4.0038425931454542] [-4.1853280760286191:4.2532767267221656] [-4.4594840878812372:4.479305485951663] [-4.2172256844762064:4.2429425398817333] [-3.8812234715200842:4.4907404028735698] [-4.0468185231777785:4.450723121676126] [-4.6050388407286924:3.9215926123048446] [-4.5273131711984664:4.5172192850898005] [-4.5058715987169249:4.3891135958422884] [-4.1178407793470662:4.4938189853115382] [-4.276281687692661:4.3981952669132092] [-4.0973165867477572:4.3415556685461745] [-4.1642022593407031:4.1992165861876263] [-4.3227086320216026:4.0643232938406175] [-4.4742383310620593:4.3919020336926895] [-4.1979164911074909:4.5145385164622018] [-4.2732929393021362:4.0559642018987914] [-3.7408643854796892:4.0012782558463336] [-4.5969513397498991:3.9449633312105279] [-4.6491345653670191:4.2322775884506871] [-4.2582722973003388:4.4411994359445588] [-4.0533843279505648:4.3521636550657901] [-4.04705578828999:4.2924565774070587] [-4.6325323901256432:4.054079010805185] [-4.2881724988786392:4.4113896526855392] [-4.14923804492346:4.5068804941210487] [-4.3939112868076142:4.3421802077336169] [-5.1272023251746504:4.2402689532726257] [-4.4055414017364845:4.0502487199879038] [-4.0495930222076071:4.4706554397377563] [-4.4047753696796033:4.1652539719493209] [-4.4431349264773425:4.5486627458676461] [-4.210725282994372:4.2605938839283253] [-4.5042002407579833:4.8317679996297276] [-4.4388833558710763:4.1018941751836415] [-4.1820814276373932:4.5234870972838674] [-3.8158089440486163:4.1860317487477738] [-4.0670354491173946:4.4433695809365172] [-4.160920012778579:4.4403363504991296] [-4.0867327764828927:4.1918553309953452] [-4.3814808568771513:4.6543833331017543] [-4.091620755178635:4.4323453761775111] [-4.6573243329506964:4.3954566582662427] [-4.0081063983862402:4.218805654278893] [-4.3064278417540036:4.648194623412305] [-4.6096590615322128:5.0844284190732836] [-4.3151643226739242:4.2513901955453886] [-4.4301909056402238:4.1745395841148047] [-4.2753224829784555:3.9907262136665511] [-3.9660516108636492:4.6096857213083799] [-3.7878127352864137:4.4054311108500297] [-4.3621212241924887:4.4787409884433771] [-4.0413629433848843:4.1249713979289231] [-4.3316438580597634:4.725417809007971] [-4.7179487999833398:4.9136753839739198] [-4.0819868445313015:4.3143385543706838] [-4.9054264319363172:4.7201292765261158] [-4.0520342997014138:4.3807046136489012] [-4.5626561389136739:5.3152581447861333] [-4.519113722453711:4.6312074048047025] [-4.0148168650374139:4.0782227889242337] [-4.0985713427435062:4.2633903892341332] [-4.7590714499078821:4.4690625396096211] [-4.3774977412673151:4.5816813458102539] [-4.0888830852318376:4.2475880358211917] [-4.1047786751610804:4.6408966709053532] [-4.5903687332151009:4.2059110502792008] [-4.6895530149288707:3.9754233273786497] [-4.3222107840322135:4.527573453193269] [-4.7629930036604788:4.340887526861156] [-4.226711484628316:4.2698864213432026] [-4.1961875301424874:4.0543597283384667] [-4.376448993804396:5.0262547714477748] [-4.7115311543869858:4.8166128493092151] [-4.0078209287450681:5.0026628832314763] [-4.644561316888038:4.4911948190756341] [-4.4807882993571795:4.4606294419272894] [-4.2692190232482217:4.1194415160687932] [-4.0503401135672386:4.421829724647357] [-4.4491630353192315:4.4740339574429449] [-4.1260892264989675:4.238040694220869] [-4.4360174827245142:4.44840840799022] [-3.5379961169265823:4.3368997863841496] [-4.2371883129157588:4.5273657220719343] [-3.7976664788784342:3.9527611548202253] [-4.1325548608068354:4.6051068919496991] [-4.5775614536822946:4.5526380741141841] [-4.559293408942235:4.3025196507805772] [-4.1623988879181573:4.5290722567162067] [-4.1211455381511737:4.3884086531121334] [-3.9416543782373075:4.4255385948845563] [-4.1429619987273147:4.9915937751057751] [-4.1903985536027806:4.3720113171621984] [-4.1393074355177495:4.3604451222689367] [-4.0320029770604133:4.5233171448362688] [-4.9865824852384417:4.0594553538316838] [-4.1070674628493098:4.5794809734496367] [-4.0325418071136765:4.4505512593213403] [-4.7878099810279471:5.0848785443683111] [-3.9620916583937205:3.8742741286427167] [-3.9313609421740972:5.1259996287922389] [-4.5726980068238667:4.7314037942981919] [-4.4313604271055897:4.4139993392692585] [-4.3463632348254704:4.1593973536413378] [-4.5849452436101314:4.2164738762618255] [-4.4486000034523627:4.2843385033226902] [-4.3575962299957665:4.3115765562796788] [-4.4616654414444445:4.420297713697857] [-4.3298458959796084:4.0336360286533361] [-4.3926896467087344:4.99692277188774] [-4.346940192770262:4.6669620739755073] [-4.1027735258758034:3.9457723834874376] [-4.1423721109761527:4.2977985565006298] [-4.2351036431448188:3.8030946815659457] [-4.2558664955105749:4.546832144083707] [-4.1404163548335928:4.1579486914419936] [-4.6644150375170481:4.1729565938382231] [-3.9239483125324175:4.8157215832441658] [-4.3525343113174797:4.5744774078804546] [-4.2440342806911939:4.1523912536467096] [-3.9302653846966256:4.3134920634925011] [-3.7800735655892437:5.5237440300104099] [-4.2962235190421136:4.3137951396562046] [-4.2551908827140297:5.9720741822594254] [-5.0169620823122081:4.0408269340631948] [-4.1357479556010865:4.9183094072297306] [-4.2049925133068999:4.2871195804081328] [-4.2270780761138074:3.9725947351169797] [-4.887963691451203:6.2181227113569353] [-3.907750271580495:4.8351709633839413] [-4.3487083240199791:4.1579311789584423] [-4.3669384478193845:4.1113814926945249] [-4.3401271956037766:4.8586759651804465] [-4.1544804853198185:4.3517166029302379] [-4.1247828366512911:4.1354050298996166] [-4.1809406513404097:4.7553747128141284] [-4.185213917301061:4.234806659536722] [-5.1439140033369792:5.7712480027950335] [-4.5385008043271116:4.4144818915486361] [-3.9995127709536415:3.9518242291951204] [-4.4592660720032393:4.2207009293144919] [-4.7148988897344672:4.3597150677344327] [-4.2553382696692026:4.2197017621496276] [-4.3515106784374566:4.6287428125296222] [-4.3817792678027114:4.3186132362078453] [-4.4854831081412616:4.050999678645371] [-4.0936046751995301:4.4093786858512294] [-4.3244352848227257:4.4023420106946709] [-5.0066447836327876:4.901835073221263] [-4.2713958067367885:4.1382964675135616] [-4.0287766848882489:4.0688468139427361] [-3.8902458045258337:4.0606686496007347] [-4.2086835905500095:4.8745527909177842] [-4.3242655811759851:4.5509521763455822] [-4.941595496360919:5.2416763853243475] [-3.9516602702921841:4.1005795318647662] [-4.5397204823789181:4.2256536393302957] [-4.0890342524764991:4.5995486951810109] [-4.0473414527043809:4.1050562357853764] [-4.3643061263270901:4.6338370034282796] [-4.440853993653529:4.4237122202404517] [-4.9898822599212558:5.5558076170603279] [-4.2261368201017628:4.2785722949112994] [-3.9677571604469768:3.7791129256239282] [-4.4684390971549846:4.4183407158404213] [-4.5520779004640701:4.555199352967561] [-4.107533373566052:4.3715409199003634] [-4.2842079301068328:4.4828711786185798] [-4.3687225200599764:4.3993015887417402] [-4.1125213556112277:4.4515447247113951] [-4.3055663385009169:4.1504183006518369] [-4.137296409866277:4.0356698682751153] [-3.8801057630950186:4.6958566934461965] [-4.0708203056675751:4.6088014764251533] [-4.245633061224579:4.1957119029591485] [-4.2481212766316334:4.1602343926715761] [-4.0860889585494125:4.5884122496213724] [-4.1590664236085182:4.0696119109852562] [-4.4147213938924565:4.3824356958494359] [-4.2632950925873718:4.4425516428382501] [-4.9267653558301081:4.6634364970282212] [-4.5137237175104703:4.2970167399275567] [-4.3689697763476216:4.0684735233833873] [-4.0574370397462518:4.1233088104791449] [-3.954062856384212:4.0705300946144218] [-6.8017924692637406:7.0075179936371255] [-3.9964859844767133:4.3542462366578381] [-4.2167329672779594:4.1891091093556012] [-4.1367914689128664:3.8822927330358996] [-4.15544209916595:4.7210993557509822] [-4.566453857287315:4.2580792054360685] [-4.2233169744349333:4.7490272725066713] [-4.4070274036483745:4.265603619206785] [-4.8960363111017502:4.3934351899387396] [-5.2717821369492572:5.4490798354999521] [-4.3140981656490842:4.4685710207166265] [-4.5153939348792003:4.2747047647293721] [-4.0338455868846426:4.2238592592962885] [-4.5052327735148827:4.1561909527015635] [-4.5090148893276982:4.2100796061767101] [-4.3994891384035926:4.3077595186413209] [-4.3139165808194297:4.3232693200449051] [-3.9717277961521416:4.0490897126302698] [-4.0786251971056933:4.2871054194341829] [-4.1773510351806138:4.4228267648788462] [-4.3931552558759037:4.2694040219919636] [-4.2779541549055011:4.5526818540549341] [-3.6560594992808149:4.2506493958154534] [-4.2642525608165718:4.5501464504091151] [-4.3740104054567839:4.9436697513610222] [-4.0008199056100056:4.3094521533125851] [-4.5027585023811048:4.3708427817538746] [-4.2052367486340456:4.5951145650816603] [-4.5212930469012509:5.0835510714123489] [-4.3817773552518275:4.2813978147240999] [-4.3724292017108803:4.257598789177707] [-4.0557736937050635:4.0801538461805409] [-4.2524945413443778:4.1476138799667552] [-3.7537402786230101:4.3115330873825162] [-4.0712076475948127:4.4907748066165087] [-4.1878175786762286:4.8714628372703448] [-4.4979936560619649:4.3595491371762956] [-4.2778365503805462:4.3608571673125915] [-4.1642692739775304:4.2273175859897698] [-3.9279724921913641:4.3021615105117244] [-5.0320145798474307:5.2095619631659469] [-4.2749411973769211:4.0657566819356274] [-4.2307350318921664:4.6923209560724395] [-4.621756018187436:4.0766533001319578] [-4.5359373938255301:5.0018081972515098] [-4.1397850997482326:4.8032247324437556] [-4.1950217211899012:4.3516116359779842] [-4.5945567027662522:4.4657639115264942] [-4.0520514062116364:4.2670766942783809] [-4.8969198972573871:4.4042276270977014] [-4.4405536877809801:4.5092053240273939] [-4.7634071934312914:4.5898749922052717] [-4.1093778384365987:4.6908792587082386] [-4.6805147659033182:3.734979782940568] [-4.319384452185739:4.2264054349834126] [-4.4566843178338811:4.6084568969910569] [-4.2578743695900734:4.5274023694345287] [-3.9031973498462631:3.9882497059073203] [-4.3424700191291388:4.2506263910239159] [-4.1288708812005259:3.8212597745419248] [-4.0331991122388864:4.252265830219133] [-4.1109654164938823:4.4942856391673232] [-4.2747124434057735:4.5853406433866697] [-4.1942662822911227:4.3859259101891572] [-3.9455334876269954:4.169628056230243] [-4.1811073267383732:4.4858181073090471] [-4.2115618124176937:4.6103546785641019] [-4.4500326907767676:4.0667378235792233] [-4.518343582366164:3.8785062240472539] [-4.5889224218244546:4.2108926821007477] [-3.8040415127239253:4.538206888693189] [-4.7405318317389078:4.2642053160537845] [-3.8955625318045577:4.1391809324535833] [-4.2233458291734909:5.0802002811194491] [-4.7200361297651723:4.3434029070995015] [-5.0822203166666648:4.5398919290160356] [-4.6883701898383805:4.4315698022442174] [-4.9784204780251073:4.5343982145376991] [-4.994100712745202:4.1117745233231089] [-4.3821070757464158:4.5206537196386334] [-4.4472232223385042:4.2329796541144953] [-4.0503587018473386:4.3187724416541222] [-4.370285942619816:4.2153327960342839] [-4.2132308089274231:4.3001334902714108] [-4.410632634312587:4.1336514507494471] [-4.8858865137435536:4.9430538828409256] [-3.8852923787590892:4.579786951337006] [-4.3475812626797357:4.4914868737322902] [-4.3884026247754839:4.2255715684991042] [-4.0892352328288535:4.5715403911452803] [-4.2494824565905889:4.1436315209037788] [-4.4125049171230328:4.428347818818124] [-4.224494179642738:4.0944599512461153] [-4.1870625377264119:4.1367323786208763] [-4.5358909856934035:3.9517325248042989] [-3.4962758689945561:4.7660233780488337] [-4.099080723218993:4.5514597653411508] [-4.1265666255372633:4.5699940243854398] [-4.4818732428809076:4.4023277738403177] [-4.2419391941168172:4.0517913275125439] [-4.0534253267694051:4.1671516267283364] [-5.3894708141235883:4.7567660810693475] [-4.4463604916418067:4.3314708819850862] [-4.3000095562610721:4.4157806445626706] [-4.4027513467742985:4.101694054251765] [-4.0509094450882088:4.4126015476690688] [-3.7767812121225663:4.4914171276452768] [-4.3823065163342259:4.2955297781892927] [-4.3408216877630617:4.2293590303845727] [-4.2892039695660538:4.4985517738965068] [-4.9624651262130968:6.287211880666236] [-4.4509254001178338:4.5456773182502426] [-4.8705099224383899:5.3525215061657194] [-4.5068337015830364:4.5848033252403457] [-4.3491486580028065:4.413484542464265] [-4.1363607864303367:4.2854552367141725] [-3.8515253972012617:4.3021184594672155] [-4.3378080446098641:4.3648567928736544] [-4.13884431164671:4.1374373709572421] [-4.1570512460445439:4.1664195883218182] [-4.7101003313117564:4.3713095226433794] [-4.6912396446298166:4.1681401947717118] [-4.4120344136192795:4.4606254436523933] [-4.6888225936232111:4.264175743106744] [-4.2009881296580041:4.6821861072998834] [-4.1328710194760427:4.895131177156351] [-4.6269993325315655:3.8461741861232586] [-4.258880724633797:4.3583682890510413] [-4.2283240987621395:4.4148200581984307] [-4.7621659164751966:4.1484511976427036] [-4.6419014014575275:4.4066918637712753] [-4.0478830423497376:4.7244746806690578] [-3.9165403985281304:4.2482423282208819] [-4.704842694162287:5.0157894507581817] [-4.6088100514871915:4.3609340774676166] [-4.5717666693920478:4.3823408987296233] [-3.7612042566591981:4.2950302212112872] [-4.2117534647523485:4.5160582435821031] [-4.3776546304185731:4.1523565043579698] [-4.1115504673982048:4.2716702000001918] [-4.6916207413001798:4.1563804322084552] [-4.18252871816963:4.3328541012743598] [-4.53966898988977:4.4815442873585321] [-4.0871700125393522:4.5196128568036231] [-4.2364913845583256:4.3529082400449086] [-4.6810393342087693:4.7401152171469656] [-4.8731004502340163:4.6812126449018789] [-4.5790848137474525:4.2815773841693332] [-4.2169195422751162:4.560383322749284] [-4.1434731220556795:4.1849456156965825] [-4.3849873430260393:4.6394814526311663] [-4.0255403691946379:4.7574533277719615] [-4.0086621491426229:4.643072380014087] [-4.638621789090756:3.8602145813676234] [-4.0205113109788311:4.518668465435332] [-3.9210852238507479:4.4957533261720819] [-4.5944301973335442:4.6941782246205115] [-4.5560009055794772:4.5061797080925441] [-4.337070042820387:4.3290632897271246] [-4.4276596658726071:3.828750716814409] [-5.0317051899144456:4.6232042211795878] [-4.2640359081346215:4.2503252981854862] [-4.8234271238184823:4.259918510625492] [-4.26454806388878:4.5748924610499255] [-4.6030559205258612:4.4871471685354809] [-4.3201216039821304:4.7855448239335256] [-5.0895498223327946:5.0895631833404122] [-4.455541366053005:4.5914415239869495] [-4.3435030156974808:5.1838738160015287] [-4.0363270597615362:3.8489262132734159] [-4.1165428510014124:4.473363534975535] [-4.578459660875505:3.8481005702684694] [-4.0612274108682307:4.2945920712845629] [-4.0240657163308393:4.23356711052259] [-6.0994956739592183:5.0897949230131427] [-4.028137517907048:4.2707790295407317] [-4.1081633430485729:4.2146515186122455] [-4.760591651689511:4.773853512476399] [-4.3055651687968552:4.2603038194801313] [-4.3793786732417015:4.2868436730861799] [-4.0911082286355276:4.1090668269223425] [-4.8823917579025098:4.5138714347035851] [-4.2565861340146167:4.7145119992867315] [-4.5681144560245013:4.1435337343944809] [-3.8431670856496694:4.2715958303725605] [-4.431083626728638:4.3279086220365874] [-4.3517028315792139:4.2057955229219388] [-4.2668714508055601:4.2799518990880241] [-4.5078244959402571:4.379509409848052] [-4.338747108464525:4.1564054636702625] [-4.1032600063663081:4.3585286495909807] [-4.282715022760585:4.0725189231490075] [-4.2156143952654945:4.138955424087678] [-5.7593654573707429:5.0295978681625009] [-4.4223969602809214:4.1762156654964766] [-4.2644469547758908:4.2747026952599114] [-4.0762176059757618:4.2984628735717072] [-4.6189048099307124:4.3010018162116408] [-4.2969526994696752:4.098662605003879] [-4.5392748135157346:3.9014478000426354] [-4.6078353192307135:4.3753650573568024] [-4.0771694762356239:4.3244552215238796] [-4.6269133247275054:4.6346782155929001] [-4.0717848483465202:4.2439133327561294] [-4.2476531088281835:4.4827428930686635] [-4.3143587869538464:4.092604389912192] [-4.135968590183583:3.8267786150354577] [-4.1430528809754374:4.5682045160872224] [-4.635519638813701:4.2945797583241472] [-4.9903818086207812:4.5372385966463806] [-4.1586243319740079:4.2205894529182908] [-4.5686864767672608:4.3383536625853951] [-3.9660437305889511:4.0939666922043934] [-3.7994792954297618:3.8839092674038467] [-4.3024121276449767:4.5786868504055587] [-4.2609346193363118:4.1644922949321819] [-3.8255084797949563:4.0582440409922835] [-4.2564611556054484:4.4164182849765039] [-4.1967429562805902:3.8455543870899977] [-4.4016682449356308:4.1754679217028006] [-4.4853349109655465:4.2084749685614886] [-4.114690674209859:4.0025129479410078] [-4.1760533576032257:4.6020131195096834] [-4.2058238744232224:4.4227726323958798] [-3.8811409562960253:4.3580843393174717] [-4.3690261335766269:4.2184048004221566] [-4.6863203912087714:4.0485116885747487] [-4.0502313785466466:4.263459541769218] [-4.7352691989239579:4.2345586738514793] [-4.2980558321637519:4.5383122408277732] [-4.335306010441605:4.8004133692621673] [-4.5429659104278128:4.1248656769008232] [-4.4294495017822832:5.141254989090279] [-4.4874116315968342:4.7363044077565242] [-4.2365527167815102:4.3767178730652114] [-4.3382310387205694:4.3537885361679374] [-4.3056219127369308:4.2106312555023306] [-4.2322033757411246:4.2847975548548778] [-4.0751760711263634:4.2446245517055967] [-4.5646532225170739:4.1980220322247499] [-3.9000865995649314:4.4125249664438471] [-4.5219478819169625:4.5657231273235386] [-4.5019412614485645:4.4312461693019172] [-4.1986712585540387:4.2408581530336393] [-5.4610401299022371:4.4173059759358653] [-4.5865034297598957:4.2331020494082452] [-4.0375298205502821:4.5324802095805694] [-4.3222197398152797:4.2551296501382119] [-4.1030733333344971:4.292828941489832] [-4.3287054840597614:4.6240350885867914] [-4.2658843193889835:3.7603888600482165] [-4.1017294522737018:4.0707509346466377] [-4.0877791165423636:3.8956542029033323] [-4.4196464585240571:4.2786389513330203] [-4.2212575562451269:4.8181973737948516] [-4.318422816702757:4.4395518072616946] [-4.9331767146076198:4.3590878493184562] [-4.4941485208797509:4.7577548572748878] [-4.5267568701317922:4.7385672041904199] [-4.2764529545078318:4.0001268552301896] [-4.1250684372022226:4.706464910166777] [-4.2485711664456565:4.1811301351080132] [-4.20298333951619:4.048446014624524] [-4.246966004734384:4.5075320638107064] [-4.3991343973305241:4.1207269869114578] [-4.6377082310878297:4.6389982426680385] [-4.1426624241881482:4.2410213733642612] [-4.2245192059173053:4.3459960603422152] [-4.8963746054220261:4.3055600239033245] [-4.214230003526775:4.4855679127486958] [-4.1847478110888296:4.1226678845279574] [-4.2137686897022872:4.313268181949943] [-4.4624812921398931:4.2849295781277439] [-4.4052604305748:4.5987450751875754] [-4.1217494734849982:4.5086942846212059] [-3.9163227171454467:4.3419445828377956] [-4.0276192719933137:4.4023586936089956] [-4.2386419917174933:4.3003197308787229] [-4.4622785395898674:5.1153376483745001] [-4.3494233837758562:4.7544534888750212] [-4.7706569146170539:4.7325971298540619] [-4.3325708354940202:4.3911206951200921] [-4.2139382430315555:4.1683876356603129] [-4.136175085742205:4.3227194611310695] [-4.1204070899533622:5.4008658526388595] [-4.3198557313469994:4.2125638013199298] [-4.2698548146919082:4.1471578833967113] [-4.3778187047326362:4.3596979718578677] [-4.2787059272759373:4.2320735542738088] [-4.0981217313203171:4.1126280846963557] [-4.3625622290762074:4.3591960346768133] [-4.1384007761474999:3.8263714141956005] [-3.9510549713261609:4.3946405125040453] [-4.1228919425705408:3.9039054962927882] [-3.8967272539018705:4.5141642402912492] [-4.1790200118586505:4.3304101069182401] [-4.2562337702152249:4.3536840655094196] [-4.1563845627457043:5.9019967838285128] [-4.5181685814337103:4.6358306117938444] [-5.132885968467054:6.6351202843906858] [-4.8987114143001298:4.5613342766178269] [-4.7862088199543571:4.5639140615935716] [-5.0820452974578982:4.5268664112394896] [-3.7782758702782693:5.3745634122193762] [-4.0717444952243342:4.2882273951117664] [-4.5121390631987923:4.8570209846307186] [-4.2063062254039387:4.2567675477430429] [-4.2864395681651946:4.3649597563202338] [-3.9544171031370512:4.376633755721449] [-4.3680677178550704:4.4558471819973695] [-4.2345966585991954:4.0321226876619072] [-4.396890588996742:4.3525458402320858] [-4.2428951335950833:5.2466518445470767] [-4.5123483184812487:4.3226484059136077] [-3.9905237705106344:4.0554307594913404] [-4.3535380400034347:4.5069266993525998] [-3.9210763994358042:3.992022620892778] [-4.0808010456180357:4.3777774817682289] [-4.4351930475772505:4.5002098314992081] [-4.1431485701603936:4.5874084196201004] [-4.3601870608750311:4.155708809870152] [-4.0265574235635997:4.274599678842975] [-4.6153540453435316:4.4159964413963815] [-4.227953342710884:4.1052310610476024] [-4.7036920289565884:4.2597619358555345] [-4.3245429744690176:4.2278709123044314] [-4.2979221873115812:3.8302665993652978] [-4.316323389988594:4.3396615139252273] [-4.2799949505468797:4.423005702224307] [-4.1681662215047197:3.9626931599525159] [-4.1306479295578029:4.1941290673756093] [-4.2063729120086348:4.497321891103593] [-4.3300305565437256:4.2822960671580326] [-3.9861758753023193:4.1918746415491501] [-4.1609280677847869:4.285627601297243] [-4.15378165790165:4.298721117636827] [-4.4362302996047198:4.0449533039086978] [-4.1829653664169246:4.4606016942642137] [-4.058621863263121:4.3351719775128759] [-3.8833364910342136:4.3166891860220007] [-4.2690314424273641:4.1566722532713598] [-4.1924434993786699:4.4440640585552194] [-4.0941116820658987:4.2192864606573401] [-4.0596744211211737:4.2830632216510827] [-4.691828718639071:4.521206288773608] [-4.0538501449275861:4.5646402697416537] [-4.3965218630115253:4.0840208258897448] [-4.0486226416040596:4.3274571888304587] [-4.4267844729255108:4.1793726802780684] [-4.3497205006227562:3.9807098849031379] [-4.1255028906093703:4.6567602322985078] [-3.975657607910636:4.4426348961044484] [-4.5420782250784368:3.7828271979311912] [-4.9442480453311619:4.6548389637959096] [-4.3119312201588986:4.5749398828214742] [-4.3679220604067881:4.2933428613636844] [-4.4897388714947226:4.4019698754694163] [-4.2267933382048168:4.2689373922359213] [-4.100794457443282:4.2106922814881163] [-4.2162156211388711:4.3438315661210734] [-4.5416216356831889:3.9441091552279497] [-4.204041460503837:4.3221718940294265] [-4.2566662178557912:4.1030783797977586] [-4.2075252587753527:3.8351122022647197] [-4.3427632324771022:4.7339105695816261] [-3.9908303893090014:4.4646168213844435] [-3.7534907667712187:4.2673063044098685] [-4.5355152889011539:5.1666154426528861] [-4.502529798443585:4.4962637540434329] [-4.3657360905500946:4.3580407340207969] [-4.3765364535460947:4.3740133078922696] [-4.1302415922684981:4.1050134626375474] [-4.006988592056782:4.0236168544875355] [-4.3568529425899358:3.9515627825719046] [-3.9788831193633913:4.2138611331504139] [-4.1666852065456226:4.2358789628101681] [-4.3905548424057903:4.6046505820476762] [-5.2214316687942324:4.8096346547909903] [-4.9240749104933332:4.744654792581219] [-4.5086477254861306:4.1672787849734325] [-4.27637363247407:4.3756796008772296] [-4.321800354351522:4.7250359500844219] [-4.4053259683605619:4.3711444227852203] [-4.3895440803851438:4.327141373143915] [-3.8728412050114751:4.0321000543954302] [-4.4247964172785315:4.2824620384912349] [-4.2802692020458526:4.2030363570925857] [-4.3125248253764097:4.5258280417661787] [-4.1452374067244468:4.2057048895969658] [-4.1040479419387479:4.6277089920532006] [-4.013071818733529:4.2953082311592619] [-4.2315827035368052:4.2661319146410666] [-3.8473133066818046:4.0945670172914053] [-4.6434253415580748:4.4072906404267069] [-4.0414798172420898:4.3246627424219461] [-4.198978549902705:4.2436186456327079] [-4.5222576640968963:4.0656723528236096] [-4.3481406590085054:4.6073423454849269] [-4.269840012234507:3.7946666794467587] [-4.0002907332128128:4.7879606646494262] [-3.8751466034400788:5.0416428708463696] [-4.0245103970886076:4.586536805908092] [-4.3818039152121919:4.8263385812796811] [-5.5817735878258103:5.5349090703628976] [-4.5840514501111196:4.7256587895268449] [-4.5775811285589878:5.1849104365039533] [-3.977835671920706:4.8412545518097074] [-4.2858830684629501:4.4767616681942055] [-4.1192921675667833:4.1299353912175691] [-4.2022971114195506:4.2000719588530027] [-4.3362459263891031:4.3353183137861686] [-4.3381350749875294:4.2598853818941249] [-4.1403095093051361:4.7319455370669425] [-3.97267022513102:4.1904457483356472] [-4.4360577200827764:4.0219687032815017] [-4.4291724646159452:4.2275225805356875] [-4.3082183428805774:4.239438180555454] [-4.294693468114815:4.3832432282604845] [-3.9433625547566553:4.0623508801114703] [-4.3858582406416833:4.3189724540121439] [-4.1472421896467644:4.4296683396998322] [-4.3536992940739392:4.1882809908957146] [-4.0672558881408927:4.2971289746005237] [-4.0291717521077084:4.2603239101954218] [-4.6623063463891574:4.8086101823011926] [-4.2669693372988435:4.3103228882038165] [-4.1481432320164622:4.0107327748975043] [-4.0422863974754391:3.9539665642926516] [-4.4681274992673794:4.192311374347649] [-4.4830360290595292:4.7568376929865046] [-4.0260101322753252:4.1630815787717239] [-4.0804732522808962:4.2768707112417017] [-4.0347655512424216:4.1563928694466261] [-4.1985141388982683:4.2986076362591303] [-4.1606134882976678:4.5836807266478656] [-4.2194285201708768:4.388739521307385] [-4.0947171840286849:4.352069222512486] [-4.2467546828079135:4.4281949024422547] [-4.2311492628249683:4.339076237521212] [-4.1609304463573276:4.3832365749311126] [-3.9105718238238514:4.4709483550670308] [-3.9403270789544456:4.2705849905651228] [-4.2161347502080098:4.2257608394394204] [-4.2762001134908765:4.2569903423744577] [-4.0907312599324985:4.1535505964572632] [-4.174211608468422:4.2606765200935763] [-4.2475929501685901:4.2714526737410345] [-4.1664376262744742:4.3130358285420876] [-4.333933387178778:4.5351214142503498] [-4.2210149805685298:4.4300674086689247] [-4.2865511221706143:4.1536549244267382] [-4.1890870250783223:4.4115288218903563] [-3.9615520489000184:4.2962711725103269] [-3.9331571851779659:4.2804644409054777] [-4.2848149399943027:4.0537024905422907] [-4.0944881381779812:4.06582789397903] [-4.4721351337576722:4.752607936237105] [-4.4667172425703257:4.2584874082192199] [-4.484535327177313:4.2307357695019636] [-4.2530587699808216:4.5775733756823502] [-4.122597421305537:4.4049918424252725] [-3.9089829780503256:4.2299615512966922] [-4.2521284682903868:4.4422355052363836] [-3.9271376572512011:4.2238316169265655] [-3.8940172207334594:4.2266137162698136] [-3.9834524412067052:4.463458133968043] [-4.452920938295561:4.3616248451205699] [-4.1305467312533368:4.2616746493265065] [-4.3049233154898365:4.5514317771893253] [-4.0874990704923029:4.3289087103880899] [-4.2215084003694567:4.1461669022361338] [-4.7234640136436239:4.2194903455137363] [-4.3709183601315456:4.3210748222986677] [-4.3606262939291147:4.6138664717637772] [-4.3098282691936873:4.5179080778620957] [-4.8343112489319093:3.9644703509496559] [-4.2428801179124545:4.2090007118895274] [-4.3381340077246247:4.5469543905640508] [-4.3623571545828774:4.449910048253372] [-4.8860290870246175:4.733388131093041] [-3.8680186976746191:4.2842197393608217] [-4.62491920748504:3.8875455638931711] [-4.2372626384932524:4.6632216561954198] [-4.4079316152060768:4.1441550127599651] [-4.5577512748437679:4.5220102487353531] [-4.0101290617464143:3.9569403969479842] [-4.5762367807845949:4.6536056547817832] [-4.1661709217846177:4.461450232473724] [-4.1389563436227146:4.3647567764688846] [-4.543682442326956:4.4982415816324401] [-4.2723509417331416:4.2376115019929834] [-4.3996553299966052:4.2929521331003313] [-4.1723216468124171:4.1450294905496499] [-4.2260138397990588:4.2641255920019514] [-4.1942703938965638:4.2881866303999612] [-4.4169196092558343:4.3770320476655984] [-4.0809430181617179:4.3797171899777423] [-4.609679839971248:4.2142380719083672] [-4.233596376193435:4.033390816051651] [-4.1978962542008542:4.2587133010217935] [-4.1077017571365451:4.6312815826697795] [-4.1959575278174146:3.8884395354511838] [-4.2588831435938941:4.2255566956638173] [-4.0962939228737119:4.262007039232877] [-4.2269048393838764:4.2506542383835981] [-4.2504397546802641:4.1032272176710167] [-4.2318435112625359:4.4438083420585972] [-4.3586100113712387:4.5604861794102955] [-4.3967775691282078:4.6623276828572688] [-4.3579903796789532:5.2824363056583525] [-4.6880646805592345:4.6399943791073399] [-4.6566313532713366:4.8539063318113644] [-4.3970880467430886:4.0883446635920793] [-4.3238202774932581:4.196187889700604] [-4.3036802441450499:3.8388843277309839] [-4.2805981621172151:4.1604000785771076] [-3.787631047979263:4.1704231415262516] [-4.5527693294125369:4.6159529176991292] [-4.7070132297188962:4.2349364006773111] [-4.3499493068613573:4.3160371978938628] [-4.5802315750036069:4.3056368463548393] [-4.1101953584393103:3.8485548355402388] [-4.1001322197495185:4.9047080397137677] [-4.437498240662471:4.5862654721759037] [-4.3519343839183824:4.2184405703338035] [-4.2484645530887519:4.2864013207897411] [-4.0008324982106735:4.9235907833764383] [-4.3664687463322558:4.6910739722609609] [-4.2530840534651917:4.3174623314148137] [-4.4221312484949529:4.0474349138495125] [-4.1688926352619813:4.2191433696390241] [-4.0133277004604064:4.2535963646824451] [-4.3787786425260524:4.1416004219925551] [-4.4148605025069267:4.3686933884417094] [-4.9133348026378023:5.3182832976764729] [-3.9443300467402911:4.3806194194250185] [-4.1603675133741183:4.5911658878441139] [-4.3713352775654926:4.376004551323434] [-4.3969585683411347:3.986060336776351] [-4.6237231390561444:4.635147069508597] [-4.1009504838544872:4.5881985283364441] [-3.8429942089145146:4.5943299176753589] [-4.5267918967431759:5.1201927205413114] [-4.332009457431786:4.4151370756081452] [-4.1473349223002138:4.4890153578573742] [-4.491494656375667:4.2151546674818023] [-4.0046156408253797:4.9177828525756864] [-4.6574435532730059:4.2014881656179561] [-4.1262164933386272:4.2455621588220884] [-4.3224189964272473:4.3420843103528259] [-4.5574142902021428:4.2878418453918412] [-4.0981438873643885:4.5472786313115803] [-4.6230445934926694:4.4527579234574617] [-4.181198411541212:4.3970641976332114] [-4.3527509015892596:4.2879596334785672] [-4.7153777629848053:4.1950587478402275] [-4.3556157512855211:4.5127340438668568] [-5.513782278825289:5.2250292365597] [-4.4820703517016014:4.1764446281662533] [-3.9970500987527489:4.6915796341378657] [-4.1620337811377839:4.4517021460706632] [-4.7737642972868173:4.3774597425168462] [-4.5936304027170429:4.6336343053788198] [-4.0946400645283685:4.7525187854774691] [-3.9468922906147474:4.4292489998446465] [-3.875686678621856:4.2028393501747878] [-4.3454747141734433:4.1188275153389968] [-4.4633764258192281:4.4295671443457705] [-4.2542235674208548:4.4691050051060532] [-5.0178692086353385:5.4539921685454482] [-4.2028454938108117:4.6938671996186114] [-4.566869578018915:4.8410890956525821] [-4.2739411988671652:4.3448905029390072] [-4.3109258873177057:4.4380356589833161] [-4.6232190402712288:4.5387362303213914] [-4.2833023849178549:4.3020336931018814] [-4.5526423960665348:4.3714974486124056] [-4.244182225133609:4.2852769263530259] [-4.3870129000671474:4.1314819644211784] [-4.5734045188209755:4.006786955356219] [-4.207291169631266:4.2396218972693509] [-4.5899617935785546:3.8718625668853681] [-4.2546776627325169:4.1684492185768081] [-3.874605163606422:5.040035806654549] [-4.0825840725218798:4.2407288628669653] [-4.4203972678727732:4.3669444446327379] [-3.9995263679178792:4.3575297170970559] [-4.3974806106072499:4.6102766900720633] [-4.6818383786543025:4.1629508919757594] [-4.5082578607010575:4.1088046792970356] [-4.3218299022917925:4.3500826647025006] [-4.3041907717117596:4.4599617037196362] [-4.1793783243954987:4.2193934633273003] [-4.2623134441034809:4.1938693002622092] [-4.377142369252887:4.1749325587240476] [-4.7322214566053802:4.2134443160648818] [-3.8746040231632723:4.4129522166272235] [-4.5776110445993892:3.8294079560330005] [-3.9659407924947891:3.9907901472314489] [-5.0498299540975244:5.0189792267263744] [-4.6543324739264902:4.6270908876979275] [-4.2882487416899906:4.1487882714897655] [-4.4597629423143061:4.3988816749851942] [-4.2896962463805739:4.5415976458821987] [-4.3189540511881797:4.118485829848507] [-4.0856373073183567:4.1591471720303286] [-4.2910873815308284:4.2914447082900784] [-4.5177040233312491:4.6563188764345451] [-4.8298919636366824:4.9562106528636347] [-4.8408164448243198:4.8076911499495587] [-4.5038920079825751:4.0026268264440468] [-4.4071099047130593:4.4954929823798047] [-4.1146935976827228:3.9578807876061428] [-4.6505675708498302:4.2565363319311178] [-4.3125034215170039:4.4681911948116966] [-4.2913430068812906:4.3723627273738597] [-4.3764491678606108:4.5921541797757248] [-4.2812536174207487:4.4181965201116098] [-4.4907115118229042:4.421107866717179] [-4.290699893240224:4.4157682346886746] [-4.3228082434323474:4.3381215273001912] [-4.0626866406681765:4.8183334761770968] [-4.5885749228285535:4.3064921698239607] [-4.3708927751768805:4.2101175762756631] [-4.2381654757836902:3.9932505054280432] [-4.0519887465914737:4.0564743374660992] [-4.3113323308174367:4.2128924446073555] [-4.0984884684717482:3.9808173686379225] [-4.3500192962177016:4.0909935274022073] [-4.5485401091893927:4.7591277975042905] [-4.5503087168938325:4.0820561745495834] [-5.3236617888544231:5.5980000357047217] [-4.0258414898758428:4.4218427340250557] [-4.5620768341513118:4.3545019764291668] [-4.1122493205696671:4.1895051004197512] [-4.3543166308184826:5.6220263386668394] [-4.0821695061423764:4.8876886430336874] [-4.0257303335806904:4.1900749313789234] [-4.3377828044528641:4.1623108310918493] [-4.2053321593936399:4.193094697652394] [-4.1844636382975215:4.5413437886238661] [-3.6580466442483202:4.2575068594338328] [-4.2467021044343802:4.2862976140797029] [-4.7440251830930169:4.4824072826959149] [-5.1545943472205771:4.0610754387732779] [-4.2157094670370361:4.3379785468783441] [-4.6015954127780896:5.2407470357118404] [-4.2012622380928546:4.4148827637618027] [-4.2138007325942777:4.4049054502770248] [-4.1517806916371001:3.4766148631984106] [-4.1887606374366131:4.8177285563203611] [-4.2567050648556917:4.3010903005195686] [-4.3280885195452976:4.6283181016155321] [-4.6613606048129013:4.0799737228438993] [-4.6915816339117447:4.3186821522767227] [-4.2511132542571977:4.0188553595866408] [-4.3580057388358018:4.4249117352862806] [-4.0456279595688853:4.0858524576608328] [-4.5061347613229339:4.6535725817628277] [-4.1683342170201092:4.1883550048161373] [-4.4087574318363698:4.822798422780278] [-4.4655579185817871:4.2686329445287727] [-4.3589894213211346:3.9991718945934998] [-4.6415864072254429:4.5825249091402656] [-4.677530232883174:4.1941480844747989] [-4.0560185900462606:4.2051566471988577] [-4.5282022375054387:4.4991586720245991] [-4.4841713596889834:4.3449011107599116] [-4.4533474062531679:4.3052092158655606] [-4.3027808365079547:3.9616863662215906] [-3.9355977980907166:4.3630429370674539] [-4.3915665667142401:4.3784406971638736] [-5.0296371923438654:5.2432740684088897] [-4.2124183977968137:4.2115208194210041] [-4.9718064115881093:4.104991018444621] [-4.596704669111209:4.0674069084850233] [-4.2167837694452635:4.5778640003566915] [-3.9314192730099808:3.9957005103349603] [-4.638001320434892:4.1668954397600242] [-3.9772237482726998:4.2506025360389241] [-4.0814947980987712:4.6469718703897556] [-4.4355138745913001:4.2988022711417644] [-4.0086927432609256:4.3309620923559597] [-4.3576524997074664:4.1735595845990936] [-4.4522677901241297:4.6545406205492457] [-4.5572791304119225:4.533756706396014] [-4.1872991210656298:4.2446476544061253] [-4.0782716031369581:4.8096104988151014] [-4.6199123914999456:4.1527807355419295] [-4.268227677500203:4.541536198926492] [-3.9015208636336567:4.6534458233173037] [-3.8573369917642872:4.2001200099119167] [-4.6560889961325769:4.362016314259396] [-5.6730378095231213:4.7082062255603869] [-4.1405600658512638:4.1547122899966293] [-4.8046725245145838:4.7579400048035616] [-4.3603691844752284:4.1524486250003703] [-4.1049475995166373:4.4123762165282505] [-4.2595310141815617:4.2808278203788479] [-4.2620632333582433:4.2044101516157522] [-4.3851695479656154:4.2619655274032962] [-4.3289928612088184:4.3423428688174504] [-4.4338247970612317:4.3597125634887579] [-4.8319953751892601:4.3385928692970994] [-4.302800984579334:4.2146583788368686] [-4.2731779456886301:5.3336514363816621] [-4.3694253507296361:4.4570627905961171] [-5.0323745907009449:4.3597473691269908] [-4.0752004762218306:4.4450270702111716] [-4.3345503170660651:4.2283231284360481] [-4.6283790441924566:4.1748908769978357] [-3.9421097229229662:4.459063771297763] [-3.9767082978673876:4.4531942239663023] [-4.2474800946018973:4.1884789320692555] [-4.0848940486500318:4.5922864908849244] [-3.9513194756707595:4.3970425661645214] [-4.5794606671763853:5.0544056515437745] [-3.8258861987506392:3.963266665654265] [-4.1787955976165954:4.0667925065124759] [-5.1791801752730846:4.4608215324795468] [-4.6776145843543278:4.0221380588953579] [-4.4353214689102085:4.9210243016347297] [-4.6740268187938927:4.6542146516800216] [-4.4617079532685775:4.4017725027854517] [-4.3769876348392174:4.3608415585930214] [-4.0140632476097711:3.9630782376266809] [-4.630276046788385:4.528263933679197] [-4.291510700719356:4.3527279714313707] [-4.2893394299468097:4.3935414490031155] [-4.7291212207705682:4.3319798336458559] [-4.2961935245488698:4.3035434052622259] [-5.8060080380046815:4.6715814804199649] [-3.9225940043067928:4.3595951758010312] [-4.4087565728810834:4.3494172038101011] [-4.2592514029307944:4.3567216191462963] [-4.1488497220703726:4.2756227774775066] [-4.5655573558836746:4.9695085094467872] [-4.0812749237869808:4.6861818639424344] [-4.1865955098080452:4.3164347132053216] [-4.0993126039087144:4.7731758296854663] [-3.8731811300873784:4.2901176734939392] [-4.5621529826785476:4.2007065650173008] [-4.7701480054087098:4.4393802999645944] [-4.5417643464957074:4.3400377018656275] [-4.5657351267348236:4.1423758444745777] [-4.3512914877280267:4.2196729170148428] [-4.4713918087769606:4.4368540185517329] [-4.1793939343489246:4.183683903799011] [-4.3974395078275288:4.4434310306097347] [-4.3740798815176545:4.3218850045867017] [-4.1521312429922492:4.2220049845819174] [-4.0556324941710313:4.0240764857589548] [-4.0615319831684111:4.0867788079165601] [-4.578035273974427:3.9420709575405808] [-4.2565680173058063:4.2524284087202187] [-3.9346986905239056:4.5174566914152701] [-4.6612807799361224:4.7322944826128364] [-4.1694164752408529:4.9436146929173574] [-4.1307669815718704:4.1954999372916015] [-4.3859415818645582:4.3408639918385337] [-4.4541807985374033:5.6561607351682834] [-4.0703495065457496:4.4564778032217047] [-4.6031637172038016:4.597949881546497] [-4.2739253991420343:4.5737399142671595] [-4.0085515604660547:4.3099469348477797] [-4.0964027225079995:4.2561422745124311] [-4.9752960347979966:4.7701015352217677] [-3.8406969674759917:4.6751424776612218] [-4.3030162193184784:4.5931437938909374] [-4.5118422535276599:4.301398707038417] [-4.4220477694573743:4.978995003013222] [-4.230427538431095:4.4307775853367692] [-4.1729003893184187:4.3336955224431861] [-4.1392272659345748:4.4864858250447641] [-4.5193597382022297:4.402419521244604] [-3.9762366281724701:4.4578706902442873] [-4.7381367401055243:4.5206182378650546] [-4.1248543260036232:4.320698017222516] [-4.473977092295681:4.2459512653513585] [-4.3372833414296421:4.5895979217967398] [-4.2825944376319347:4.3082101097868781] [-4.4314344532596301:4.1049266598871483] [-4.1537167278258593:4.0055238486212978] [-3.9556006089978699:3.9260388574776353] [-4.1345972919211595:4.3785181289175172] [-4.1487682270228685:4.4936382821826122] [-4.0292434680003026:4.3638484295151576] [-4.0557726809526455:4.0502405752015544] [-4.4769390094802413:4.0909193805594581] [-3.9410935460076617:4.3745589627984067] [-4.1668974410707476:4.5409957915531756] [-4.2588395707322304:3.9247885066461614] [-4.1997776922156334:4.2701159802465272] [-4.3576376375143555:4.1979537178383532] [-4.3899920330079381:4.3106367829657746] [-4.1584386281418269:4.4418815620523722] [-4.6379769171812661:4.2413029820400174] [-4.3535765673448905:3.9812199925713876] [-4.0421651826533882:4.3749521877102957] [-4.4489362520873366:4.7105034954687142] [-3.8612092643870612:4.6272782532424479] [-4.693356966102594:4.0026242758657844] [-4.2332474325905149:3.9741447338947911] [-4.450579315767941:4.7498904423781187] [-4.6800669930963492:4.364559797950613] [-4.1668238699795905:4.3942305990851089] [-4.5116118824036446:4.5979020589200532] [-4.3120403136881658:4.0630667349384604] [-4.4752120329884209:4.1232309216295251] [-4.6896831270711692:4.3748094302249569] [-4.2778600222109642:4.0750922424212694] [-4.3783897601153559:4.3603602779498187] [-4.5514567425819976:4.0651328087366396] [-4.0067829592762827:4.158642370986918] [-4.62770394058888:4.009359623049968] [-4.3219363249927758:4.0952675065740998] [-4.4409676334722281:4.5652007098696306] [-4.1526117762071442:4.3966764128166034] [-4.6821917904880932:4.2042783398831389] [-4.7938800241256168:6.163751016332256] [-3.9299856256548611:4.4834231538525655] [-4.2835526492185645:4.4592354571242501] [-4.0577187201182126:4.5867112484136952] [-4.6774559972110303:4.3602710134168046] [-4.3037674836972251:4.3772261640804198] [-4.024689874975472:4.4594989023187415] [-4.8059539519314542:4.759208291446031] [-4.580255820647178:4.5270408373599897] [-4.3869616459479728:4.229803396446294] [-4.6227370103673593:4.8485295579747412] [-4.0632217009357303:4.526424904374184] [-4.2994650831800394:4.3610266013711048] [-4.245030844444952:4.6141087284029574] [-5.1703453372410797:5.4588430926989666] [-4.1428678303978428:4.2970084460850932] [-4.1226541839037472:4.2747738244978084] [-4.2473712104580601:4.8996827572712869] [-4.0707200560662251:4.2892249371512259] [-4.2140078137544172:3.7777499639466301] [-4.63141990885173:4.8526212849102661] [-4.1415559268245037:4.2579855921644763] [-4.8339135638077106:4.0506178899507201] [-4.4242316510401283:4.6008234384851514] [-4.4916408732543349:4.5565977624832463] [-4.4032884028712385:4.6865566395450644] [-4.3238885028150449:4.5297845719540035] [-4.166529948090532:4.2597201552247839] [-3.9426582887865189:4.4145681720286829] [-4.0992093449853462:4.4112685847512543] [-3.8859199727178275:4.4549132936493772] [-4.0675657637262903:4.23881018042667] [-4.3283135512232604:4.2419261314040879] [-4.576449419784181:4.3513493401306436] [-4.372671536207851:4.1800121252726639] [-3.9475312515526282:4.4336733943693964] [-4.1814884039673261:4.0916170486655714] [-4.022648953002113:4.3506672428721327] [-4.0789211992171026:4.2698228518559374] [-4.169612813309544:4.4881052167362707] [-3.9473656989898309:4.2254506151623339] [-4.3886323774003673:4.2609450320702251] [-4.3316855705508788:4.5439981214892589] [-3.9393642761883916:4.231311031587996] [-4.4939537334005628:4.5758831498049686] [-4.9253689574715356:4.6880077924810797] [-4.0036649154250368:4.3829728233696716] [-4.2940190672517335:4.6637603764769811] [-4.0640555915074383:4.2915452303472028] [-4.2655976227203576:4.5173768620131121] [-4.1959957844217426:4.5121538909189729] [-4.1300568712646575:4.492709694318477] [-4.1434718777874915:4.5668829880384934] [-4.6639034724637991:4.8180287049673263] [-4.6694039058533736:4.4244780283631275] [-4.0864819669909345:4.1480260415259904] [-4.5276676154050817:4.3442833768208278] [-3.9548210087373281:4.1520638704796422] [-4.2330921506688695:4.7174447146154854] [-3.7889996757447988:3.9544618655919153] [-3.9323668374820033:4.3406789228319989] [-4.9056455257983274:4.5437315496528763] [-4.7406402182386431:4.5620360631584056] [-4.7065278748122177:4.3579457183669801] [-4.4739365943921436:4.42840211434235] [-4.1276168461029004:4.7093454548857059] [-4.5875969057001624:4.8072661755993424] [-3.8684737684304178:4.6148092923701638] [-4.1794944206411193:4.5438209095662225] [-4.0569200568823733:4.2186335949758149] [-4.617767635533121:4.6347438883849925] [-4.6718158492545294:4.5950974220210945] [-4.3550601616760112:4.9148984624494201] [-4.4250041300453766:4.2112484551525391] [-4.5292375508392793:4.13920680631667] [-4.2083696670492898:4.2482236191967182] [-4.587045586941878:4.2652958922349464] [-4.410250527413913:3.9385778220339138] [-4.5755333945318917:4.0106954374525623] [-4.2122163000820834:4.3545443425097741] [-4.3739934944283458:4.3252006409060639] [-4.4359890554945132:4.4816144886764642] [-4.4308705623356408:4.2712724683896575] [-4.1965492014044798:4.4174149951313355] [-4.459020562586077:4.618948777001278] [-4.2592593141946109:4.253724644850986] [-5.032314802730645:4.6504389950277991] [-4.2506024569022527:4.1443614003555371] [-4.9086834893256182:4.8011497815725397] [-4.2100623314793229:4.411002519441988] [-4.14829484292102:4.2826803348178908] [-4.5516869159580189:4.3023149629257826] [-4.1621361457543857:4.0853642058395208] [-3.9242907930579705:4.4729757711446005] [-5.103794796703804:4.3861916433755397] [-4.1860829911631106:4.3107265791231368] [-4.175584488416975:4.06646218495555] [-4.3087087425197401:4.6754948651528636] [-4.4284129465928119:4.398924443651719] [-4.3151646420405605:4.2091220568068666] [-4.4645761835358124:4.5897982343603827] [-3.6242556975232274:4.5150282380463462] [-4.5292355822931123:4.5183951400574012] [-4.1472708412375541:4.6231263553040511] [-4.0096878376423524:4.4123137184184626] [-4.2979307922371532:4.3789064642471738] [-4.3078733325435659:4.3267926550029276] [-4.6386330066734605:4.3560462021263993] [-3.9915766867316296:4.3832698855146024] [-4.3360692190668004:4.3671269149421645] [-4.5856710396549225:4.4177055423528007] [-4.4558959524026269:4.4194479551614689] [-4.3379312663434559:4.5096446548364568] [-4.3209265656357658:4.1410453455814835] [-4.0387922669937719:3.8858752078801553] [-4.2281100351260408:4.3478455176667197] [-4.2807150136094902:4.3508154560754786] [-4.6400351974273288:4.5052739764067669] [-4.6129815402336432:4.2531743714149393] [-4.3693798574152058:4.9070498590761016] [-4.0648513383676654:4.1777695403090638] [-4.3688835926345941:4.8584775925142472] [-4.4322017915519227:4.4212021358592786] [-4.4169422021184923:4.2483347541976695] [-4.1658499802938413:4.1065372941448439] [-4.6080329287017614:4.3605573514721367] [-4.3816496496865875:4.0679894816040543] [-4.4939864490359813:4.5652500309501924] [-4.6371671701767685:4.3784829340641522] [-4.6990633019063628:4.3692431244761316] [-4.2527606718261994:4.2914818271324622] [-4.2226377913602162:4.1522395540097685] [-4.1703397452492013:4.2377764796706332] [-4.3207636829356142:4.1883597886646413] [-4.5109833042041618:5.2804757853476563] [-4.332691328139215:4.4777479982117061] [-4.3681219124545505:4.1899817572472742] [-4.0958462015079977:4.181918321824007] [-4.3666954317126772:4.104617204663227] [-4.1995985491857617:4.251570320087608] [-4.3731264694323499:4.2040015912879403] [-4.2321066709947139:4.3805885977480052] [-4.4187683076945241:4.482832698139072] [-4.2556089387939959:4.3238429587870186] [-4.4649775255828859:4.2149813344473772] [-4.217919521395797:4.3081596056993199] [-3.9803391099131389:4.294253783632616] [-4.0956408962841397:4.2094901910701639] [-4.3258723894144921:4.1931139779281219] [-3.8068019487335341:4.1458620877536783] [-4.5658804989816382:4.7704120918511892] [-4.2275966703967995:4.4033027493982395] [-4.2185716561086863:4.9300897606964966] [-4.2676631400925817:4.3244483293225242] [-4.3176546287191462:4.4325867890247448] [-4.479601768339605:4.6033079193841813] [-4.1652121082492943:4.6164410794440718] [-4.6492497403328779:5.0291250739884195] [-4.8235235257983442:4.5289822043615926] [-4.3769865401467465:4.4026112463961402] [-3.8775387237440597:4.0864216753857034] [-4.3276256354316649:3.954068570282991] [-3.8023874249327689:4.3580170410828849] [-3.8603550393059889:4.3109316363372585] [-4.3741966064301261:4.0899227474438593] [-3.7039908574806217:4.2881427561348326] [-4.7364183060593206:4.2807468416656365] [-4.1894639821250221:4.3120720766471123] [-4.2890250163949846:4.4890570373036862] [-3.8289696828693351:4.1887694743381152] [-4.4504899808059344:4.6984391234107035] [-4.319003796759711:4.1485598754786377] [-4.5470820839989035:4.3328621608500884] [-4.2802806541148373:4.4237490004785842] [-3.9996880173022387:4.5504297464382235] [-4.5728578054547739:4.2768556219109035] [-4.110736070716964:4.0414401418170014] [-4.2846898333032888:4.6104541407798996] [-4.0866669676725031:4.2002382060727452] [-4.2251891793187228:4.5996049380886088] [-4.7812451625739154:4.1413524534586417] [-4.094475855890181:4.6501305644859059] [-4.4756555812680388:4.2767388641687916] [-4.1992428826009851:4.293380704467725] [-3.967807782284841:3.9846411542701361] [-4.8943929273714391:4.6889726541038783] [-4.234334112577125:4.4053996786221603] [-4.1475054445231194:4.1774570607149677] [-4.2264622253253377:4.3303608999902794] [-4.2913660025669875:4.6056086533945892] [-4.1716724459205832:4.4670633191400899] [-4.2003014082781469:4.3079969509928242] [-4.4997825357028427:4.4542494682617857] [-4.6870046307628765:4.2095096209432858] [-4.2221635100921553:4.5123457142346446] [-5.0199171068160613:4.6862914195435108] [-4.0321636623369788:4.2373524963625524] [-4.1887940126014298:4.2631026094353492] [-3.9278712156723992:4.2342421507297887] [-4.2780303327313742:4.0077358926872657] [-4.0135029120802237:4.0370366975079071] [-4.1077575469856651:4.0377346823004219] [-4.1761233214899871:4.1775295624467725] [-4.5063759190014103:4.3078804657426071] [-3.9386736005710437:3.9775175108958893] [-4.197069005734412:4.0919541271240165] [-4.6891397600205051:4.4030018192142677] [-4.3463353239062732:4.6927217547282991] [-3.997458641611471:4.3621449441341609] [-3.953276609123022:4.2719264859857589] [-4.4793547733947126:4.4690529359119937] [-4.501128237492062:3.8417384433173236] [-4.2152908621591276:4.3124336284914513] [-4.9422050219616507:4.8055304174165672] [-3.9081217297379212:4.768438003425115] [-4.5055401581087215:3.8648172778829686] [-4.0972064936780095:4.8800016764277068] [-4.5821569280493168:4.1619182037227986] [-4.3862684255731113:4.6759919073385063] [-4.6994472948040027:4.2525735611576296] [-4.6978402410571043:4.3457788983859746] [-4.2526329383516437:4.6746606350873812] [-4.6801434575119893:4.1831748731165632] [-4.2563701628786808:4.4123673546881994] [-4.17311004838019:4.2653121300383052] [-4.0413827382313299:4.017136648437968] [-4.4261090821847127:4.2379125617711759] [-4.3417519274411385:4.2781903198879245] [-4.1667388726027612:4.0171960661728114] [-4.3476334336335158:4.762176670680291] [-4.5304480328097751:4.4925464110458577] [-4.1252395482836128:4.3873818163134137] [-4.468463050002601:5.0139674709710569] [-4.6874874965662299:4.0232242684649222] [-4.4532862152075605:4.0054178063943899] [-4.3560671586741728:4.0346428745337271] [-4.1896687178914016:4.3876743226314803] [-4.3502181544426488:4.6239144280887201] [-4.0841406114460694:4.1169946214587467] [-4.2591342220530315:4.701568828520565] [-4.2635813692937985:4.6212952183796006] [-4.2176137827649463:4.2355015475579272] [-4.4106580281633176:4.2863267617883336] [-4.4533054974252204:4.4555499264286897] [-4.4919960953076163:4.3649864925932125] [-4.7604483491334966:4.2180153289580584] [-4.0151178070879556:3.8469898933536877] [-4.0016788010024564:4.2964925061488417] [-4.2500861754700159:4.2526727641507804] [-4.4022748155441285:4.0600510589801946] [-4.5694949300429224:4.6754401088724746] [-4.3031905035859053:4.371706364911037] [-4.7255046851906215:4.2178268855644605] [-4.5530640626416261:5.0520558972527274] [-4.4343762737734975:3.971449646069686] [-4.2262265081809964:4.2936060203144804] [-4.4948473361975125:4.2749536397277543] [-4.4683410937934287:4.0784203323673003] [-4.3249275891629848:4.3883997761491544] [-4.1998438174376309:3.9416346697792406] [-4.0320904777037949:4.0940856146191384] [-4.3452817440038594:4.3257691316808087] [-4.7820694084183337:4.2693896652835752] [-4.6567901179928368:4.5181208714684109] [-4.3122567789842181:4.3992795464575369] [-4.5211679995117127:4.3432518960203526] [-4.6579824925638205:4.9579473427959027] [-4.6392196261413261:4.5635149642705075] [-4.5482759217122908:4.4115451829475774] [-4.2062836135495161:4.4350163421013429] [-4.3912708286750837:4.2852038306684594] [-4.1934601078738858:4.3287415680769943] [-4.3714314189385561:4.1541655484049569] [-4.5527185664543426:4.1478646855664714] [-4.263619509622897:4.5867699000260282] [-4.3642224975170993:4.4344666656512812] [-4.7005945444312083:4.6326888186315145] [-4.7567436929660527:4.2579845149736455] [-4.9766553505085138:4.2696459781588647] [-4.3646426006197467:4.0871033849177074] [-4.326237148642015:4.4104650612321743] [-4.5497401618327906:4.5576575076182833] [-4.549243366268672:4.6326191350747568] [-4.3650066128868632:4.6024927879434312] [-4.7520294404549439:4.062241222486235] [-4.056679918147883:4.2695515447277224] [-4.5927196728910582:4.6215687174511579] [-4.4314184795614686:4.6872944158238958] [-4.3657970148273062:4.2165439042749693] [-4.1857873514287993:3.9987419803845836] [-4.3068089787900599:4.644727655101077] [-4.3372561811853361:4.1731992833748093] [-4.1798021055614729:4.2735746482221408] [-3.78679498177299:4.2860296948273326] [-3.7670606605577457:4.2584023490727141] [-4.0676443460924805:4.3185569250407223] [-4.7297258861563884:4.342365269922758] [-4.1839251844469398:4.234336674359823] [-4.0050427131817088:4.0203584895689257] [-4.3209777268464942:4.4676410583288506] [-4.2147440850503282:4.1112860287089052] [-4.191740445106281:4.410982014878341] [-4.1723739144419811:4.2499231028390323] [-4.2859280600244603:4.1288839076944237] [-4.1663609183822841:4.4299752396226033] [-4.8381766072534642:4.637417804822741] [-4.3395067308065141:4.2734699340159716] [-4.3882777051255859:4.3701184028232438] [-4.1949222994553992:4.1137822962668791] [-3.7511100078522985:4.1896714933971664] [-4.1358384161781796:4.2304420831693657] [-4.4801232193385063:4.501166692344639] [-3.4418681540812046:4.8060451968830256] [-4.6775300286090937:4.7539465099297162] [-4.1723621844617549:4.3989080928751632] [-4.6114566572835907:4.1076284220630566] [-4.0442241678047228:4.4804274704636038] [-3.9613299981450223:4.2415870940282598] [-4.0806183805278975:4.0286035182904536] [-4.2447032158095803:4.3954373281801784] [-4.3762414246943973:4.3662440752389182] [-4.4109275032452517:4.2630674326456024] [-4.017257360990377:4.447508529754101] [-4.0431785581976172:4.2334076142980974] [-4.2057812999039079:4.3026182848040566] [-4.5447207287593674:4.952292594891758] [-4.137776668491945:4.2174829574551707] [-4.3684608270397618:4.3715947719890558] [-4.2720792485063566:4.1975616632425368] [-4.2852604555160854:4.4955229438318618] [-4.3690367387841453:4.2415507399361214] [-4.8925393400581276:4.7181733494021945] [-4.157153736590196:4.0012077121877114] [-4.245768310968721:4.2585043751662504] [-4.1779345393455367:4.0365258447855545] [-4.6089866034720464:4.3268797239006362] [-4.0910577873921063:3.9818913777518827] [-4.5119563314356261:4.2296763305795873] [-4.3974031117491608:4.3842002975409313] [-4.2207988053197552:4.3222198915672072] [-4.1703470415646526:5.143958396136882] [-4.2224418779169168:4.1852781702569688] [-4.2413935671081076:3.903177232153813] [-3.9176114000729281:3.9900814930621613] [-4.3887613275581359:4.9024503375873589] [-4.5329113792515177:4.7096194059497032] [-4.4770199137720166:4.4586422470739464] [-4.1812656111509048:4.2546838810822116] [-3.9865295992254484:4.2213791120113946] [-4.5274313246824969:4.8926517987120688] [-4.4651845594942996:4.3772894743591433] [-3.9003374312186483:4.2573005282360503] [-5.1867470504918032:6.0402673363570525] [-4.081693125377333:4.1670382588193373] [-4.3079089488893088:3.9680286032945831] [-4.613148828794114:4.5671191002017002] [-4.1353284067543754:3.9085516617369955] [-4.2355592298251601:4.4063979569041605] [-4.1558545759274583:4.2656075218355491]
tree_sizes=2858 3006 2995 3014 3007 3011 3029 2999 3003 3021 3020 3011 3015 3022 3024 3016 3039 3034 3018 3026 3030 3002 3026 3004 3033 3040 3018 3043 3002 3016 3022 3023 3013 3014 3016 3030 3025 3039 3027 3049 3033 3007 3015 3009 3004 2990 2998 2992 3032 3031 3024 3047 3019 3013 3025 3015 3040 3006 3029 3007 3028 3033 3030 3029 3031 3009 3031 2993 3016 3033 3026 3026 2992 3006 3013 3036 3024 3037 3022 3033 3031 3029 3027 3031 3022 3013 3035 2995 3033 3041 3021 2999 3016 3031 3027 3011 2980 3025 3007 3016 3018 3035 3032 2999 3025 3010 2967 3025 3021 3011 2978 3025 3026 3002 3032 3019 2993 3029 3000 3030 2988 3021 3001 3004 3018 3035 3034 3017 3029 3003 3004 3011 3017 2998 3013 3026 2925 2945 3019 2999 3009 3028 2990 2995 2989 3031 3023 3005 3001 2999 3006 3006 3018 3014 3009 2973 3018 3029 2989 3007 2980 3033 3030 3015 3040 3046 3000 2990 2957 3026 2998 3017 3000 2994 2956 2967 3000 3002 3032 3022 3057 3017 3001 3005 2997 3030 2992 2988 2970 2970 2964 3028 3040 3011 2990 3024 3035 2989 2987 3001 3027 3009 3001 3007 3008 2960 3012 3003 3034 3001 2997 2999 3017 2998 3036 2977 3009 2990 3026 2991 3007 3014 2990 3026 2996 3024 3006 2958 2994 2987 2995 2989 3019 3028 3026 3003 3031 3026 3009 3019 3004 2960 3022 3006 3039 2999 3005 3014 3025 3021 3002 3025 3034 3039 2973 2934 3012 2997 3014 2997 3002 3025 3026 3015 3037 3009 3041 3007 3003 3024 3015 3022 3029 3019 3036 2975 3035 2904 3020 3022 3039 3047 3024 3004 3025 3005 3062 3013 3028 2999 3010 3017 2980 2958 3023 3039 3014 3038 2969 3030 3023 3006 3020 2985 3015 2999 3023 3007 3033 3002 3006 3011 3004 3033 2987 3023 3027 3030 2987 3014 3021 3047 3037 3021 3002 2989 2994 3037 2966 3042 3023 2965 3016 3034 3000 3026 3039 3000 3031 3018 3030 3022 2982 3034 3001 3025 2983 3016 3013 3030 3010 2982 3023 3014 3005 2991 3008 2974 3018 3006 3028 2974 2986 3007 3025 3017 2980 2947 3025 3020 3015 3027 3018 3019 2966 3028 3014 3008 3013 3011 3062 3021 3000 3011 3026 2974 2932 2879 2420 2437 2997 3001 3003 2657 2993 2933 2877 2718 2283 2475 2377 2456 2936 2628 1708 2374 2187 2319 2467 2005 2491 2542 1999 2027 2215 2958 2975 1727 1645 1528 2418 2462 2531 2221 1927 2723 1931 2396 1601 1284 1778 1949 1351 1224 1830 2452 1794 2369 2099 2200 2349 1925 1937 1365 1532 1825 1820 1653 2007 1185 2191 2996 1642 1945 1918 1368 1564 1653 1560 1447 909 1554 704 995 527 1649 1284 1932 1171 1459 1666 1894 1561 1007 1014 1535 907 892 1187 1419 2038 1665 1545 1085 1462 1494 1455 1355 1371 1454 1916 1541 1078 810 788 2519 1833 1445 902 972 1273 1093 913 1184 1000 982 1102 913 908 618 1652 1165 986 724 628 1367 818 1174 725 713 539 1460 902 1000 909 997 621 704 918 808 991 626 726 613 344 1084 996 1370 538 627 909 1281 718 1000 721 1179 1100 621 688 913 906 719 634 714 807 1281 729 903 526 783 890 698 703 440 347 1367 996 1181 996 807 1404 1930 1182 1451 1251 906 985 536 528 421 1004 717 909 625 613 720 719 439 445 345 1003 1002 1001 993 695 1162 995 1173 815 970 806 1054 618 425 521 1342 1071 908 717 721 994 814 542 533 437 908 1100 909 795 539 992 1369 965 901 626 1086 600 995 527 609 791 724 541 534 702 625 822 627 432 444 607 629 442 541 344 909 440 630 624 693 630 721 439 439 344 1153 715 430 437 441 1098 808 805 810 537 615 526 618 614 336 634 623 532

Tree=0
num_leaves=31
num_cat=0
split_feature=61 1283 1283 654 654 582 20 1100 1059 1354 1100 1100 1087 1388 1388 565 1283 1388 1283 61 30 1100 654 30 512 1059 1358 739 20 1388
split_gain=16788.9 10289 6489.63 2838.05 2701.55 2432.74 2224.45 1331.48 1211.67 974.545 965.714 962.981 940.329 923.706 796.572 756.329 694.665 672.206 654.126 645.718 639.669 536.629 520.073 514.956 513.979 508.459 498.102 479.972 464.717 464.568
threshold=-0.09644912767322554 0.1459765703034982 0.46429873458060594 -0.13112884660143856 0.041385738662580468 0.3272590181427244 0.52449379252981632 -0.20083080484148877 -0.17879634648422921 -0.50076365756574048 -0.16221102068984786 -0.16221102068984786 -0.8730479371408898 0.32304134908222065 0.34462476591305263 1.0624862109555206 0.68424466933051764 -0.069586938273998741 0.61405674300460478 1.2094770193451476 -0.86987828385695387 0.088635533027386429 0.61964577343872107 -0.0083104151239545895 -0.13913160827527779 -0.20970654420985838 0.39633711909390729 0.74435135613951886 0.62729713515593988 0.6608816241267762
decision_type=10 10 10 8 8 8 8 10 8 8 8 10 8 8 10 8 10 10 10 10 10 10 10 10 10 8 10 10 8 10
left_child=1 3 4 8 11 9 13 17 20 -3 29 26 -8 25 24 22 28 -5 -11 -15 -1 -22 -14 -10 -9 -4 -2 -18 -7 -6
right_child=2 5 6 7 10 16 12 14 23 18 -12 -13 15 19 -16 -17 27 -19 -20 -21 21 -23 -24 -25 -26 -27 -28 -29 -30 -31
leaf_value=14.399503345341982 14.452155230346152 14.185596922399933 14.521797146868975 14.506223104224718 14.60994158303617 14.398730702581497 14.390061846412083 14.551609046530627 14.3285906177539 14.354318949626721 14.668391462888433 14.57676631520917 14.534501007004344 14.302551228450715 14.477582428025761 14.471903011792435 14.295104679043368 14.39699442005212 14.247575821862521 14.474369852451339 14.456048956769925 14.573471804193575 14.648092813312564 14.422231183603596 14.657718539440092 14.402541149286119 14.54974146524714 14.409325982310948 14.54772474088503 14.500570533616274
leaf_weight=973 1376 1351 620 1683 1706 563 456 933 1500 1046 3833 2898 935 1061 658 901 903 843 1381 283 985 636 737 1005 946 830 838 656 328 519
leaf_count=973 1376 1351 620 1683 1706 563 456 933 1500 1046 3833 2898 935 1061 658 901 903 843 1381 283 985 636 737 1005 946 830 838 656 328 519
internal_value=14.4783 14.4061 14.5479 14.4682 14.5926 14.3049 14.4624 14.5211 14.4155 14.2545 14.6378 14.5388 14.5217 14.398 14.5723 14.5452 14.383 14.4699 14.2932 14.3383 14.4636 14.5019 14.585 14.3659 14.6054 14.4539 14.4889 14.3427 14.4542 14.5847
internal_weight=33383 16390 16993 10162 11170 6228 5823 5063 5099 3778 6058 5112 3029 2794 2537 2573 2450 2526 2427 1344 2594 1621 1672 2505 1879 1450 2214 1559 891 2225
internal_count=33383 16390 16993 10162 11170 6228 5823 5063 5099 3778 6058 5112 3029 2794 2537 2573 2450 2526 2427 1344 2594 1621 1672 2505 1879 1450 2214 1559 891 2225
is_linear=0
shrinkage=1


Tree=1
num_leaves=31
num_cat=0
split_feature=61 1283 1283 1358 654 1204 582 1204 1283 1283 1043 515 1354 663 654 1388 1204 1283 61 1100 512 1053 1354 654 1354 20 663 1100 1283 562
split_gain=13761.2 7691.9 6364.08 2575.36 2208.63 2147.21 2090.84 1770.65 1310.53 1246.39 1244.95 1066.58 868.661 821.406 797.828 760.483 747.222 746.147 709.081 673.684 671.602 606.834 596.456 594.87 589.602 513.539 492.248 465.897 462.772 460.974
threshold=-0.18661907826691779 -0.19863361038406033 0.23096761301932078 0.56593590323858545 0.13499361649370639 -0.059415099123812674 -0.2967843791419213 0.37492425191720596 1.1449124209495762 0.4871945054983699 -0.63180846967875948 -0.6375776793376694 0.17907891173287463 -0.26200528023522501 0.11366367233643243 0.27264353018474147 -0.25394718734281679 0.5165372880019129 -1.4308530024525676 -0.16221102068984786 0.27412961909860567 0.34456537518045316 0.4458277075644605 -0.11151555574563742 -0.63132387552866265 -0.32575429337350398 -0.14166745115888757 -0.0089074869387526356 0.81651084754477032 0.86728852956081426
decision_type=8 8 8 10 8 10 8 8 8 8 10 8 8 10 8 10 10 10 10 8 8 10 8 8 8 10 8 8 10 10
left_child=1 5 4 7 10 11 17 15 14 16 -2 18 -11 -12 -9 28 -8 24 -1 -6 -13 -5 -10 -7 -3 -15 -14 -20 -4 -17
right_child=2 6 3 21 19 23 9 8 22 12 13 20 26 25 -16 29 -18 -19 27 -21 -22 -23 -24 -25 -26 -27 -28 -29 -30 -31
leaf_value=-0.093888046898105204 0.12425837993384647 -0.2493210910083884 -0.0029556464175590482 0.02531208016375493 0.10501453946176219 0.03692171726278231 -0.11606493443732074 -0.011714274872411196 -0.11496608594207672 -0.20139747641549346 0.075203399152220796 -0.11393027770879866 0.013315089624375104 -0.089778167784686336 0.12629050438172404 -0.19180133199157912 0.0096203369527337428 -0.27456424522303763 -0.00054998550948361503 0.18044309229885769 0.0044837822656365097 0.1193774366723321 -0.0081707360632210999 0.15223718645871551 -0.12220512444942588 0.02069898118834413 -0.12433723573175191 0.10666417811575922 -0.12530480253845561 -0.02218304713585632
leaf_weight=424 1979 588 765 1366 1924 876 796 730 868 1421 1625 1615 348 699 961 1014 1145 1176 828 3320 669 1412 1340 947 1056 1039 951 775 527 199
leaf_count=424 1979 588 765 1366 1924 876 796 730 868 1421 1625 1615 348 699 961 1014 1145 1176 828 3320 669 1412 1340 947 1056 1039 951 775 527 199
internal_value=0.000619424 -0.076723 0.0539159 -0.00695756 0.106754 0.00620909 -0.144773 -0.0418865 0.000142857 -0.103368 0.0613071 -0.0321798 -0.147106 0.0240621 0.0664754 -0.107452 -0.041732 -0.212909 0.0204166 0.152915 -0.0790536 0.0733549 -0.050446 0.0972002 -0.168221 -0.0234982 -0.0871123 0.0510415 -0.0533642 -0.164468
internal_weight=33383 13615 19768 9182 10586 6134 7481 6404 3899 4661 5342 4311 2720 3363 1691 2505 1941 2820 2027 5244 2284 2778 2208 1823 1644 1738 1299 1603 1292 1213
internal_count=33383 13615 19768 9182 10586 6134 7481 6404 3899 4661 5342 4311 2720 3363 1691 2505 1941 2820 2027 5244 2284 2778 2208 1823 1644 1738 1299 1603 1292 1213
is_linear=0
shrinkage=0.1


Tree=2
num_leaves=31
num_cat=0
split_feature=61 1283 1283 654 654 582 663 20 663 1100 663 663 1354 582 1354 663 685 1155 1354 1100 663 61 1283 533 1087 20 582 489 1100 654
split_gain=11384.1 7327.32 4111.84 2210.07 2070.87 1832.24 1495.74 1449.58 1122.78 1063.96 1023.18 1016.73 787.355 737.241 711.447 614.843 601.132 597.142 578.801 566.848 564.303 531.153 527.886 526.166 506.515 482.135 480.054 453.245 396.152 395.417
threshold=-0.019445783328087204 0.1459765703034982 0.8035244371564445 -0.12093372231110999 -0.29166587864051946 -0.053255475433039712 -0.46239649278993689 0.7288259350968217 -0.040226673893644746 -0.16221102068984786 0.22566114133279072 -0.18147178675226724 -0.86398944178553605 0.42635917479494695 -0.56542326941554688 -0.069663367193480583 -0.13721118019098363 0.35244412289069055 -0.43448276814904485 -0.33622786630361812 -0.13128446270787034 -0.95986823311833613 1.1624924502896512 0.27587886506860743 0.29135173083893201 0.2853810428411197 -0.27982106112160415 -0.47538195721837245 0.51864246104074685 0.91129589593457616
decision_type=10 10 10 8 8 8 8 8 10 8 10 10 8 10 8 8 8 8 8 8 8 8 10 8 8 10 10 8 8 10
left_child=1 3 4 8 11 18 19 13 12 20 21 -2 -1 -4 28 -9 -11 -18 -3 -5 -6 -7 -20 -17 -12 -16 -13 -14 -8 -22
right_child=2 5 7 6 9 10 14 15 -10 16 24 26 27 -15 25 23 17 -19 22 -21 29 -23 -24 -25 -26 -27 -28 -29 -30 -31
leaf_value=-0.09037384304371468 0.078823900374706379 -0.25271032436933255 -0.15395487393647181 0.035720322684046429 0.12008788214318754 -0.1194341818328228 -0.11574441432809826 0.1326922418692473 -0.10926497951335266 0.18179425016960804 -0.17549638637100495 -0.081074258501675739 -0.039528294769725782 -0.029013180678724937 0.0020630814783068711 -0.053654777165618874 0.058326320883954501 0.15338291104270574 -0.13338825246331862 0.1562389145617841 0.0011022170838259626 0.0015055718026942097 -0.27595466468314389 0.069336716169619922 -0.065256428537221342 0.09642194081750681 0.020174381905278111 0.049327085292197648 0.033759331516630485 0.10323557441830503
leaf_weight=975 2017 1162 942 602 1342 511 636 461 1983 2458 1327 813 914 971 1893 797 1185 1569 1466 1183 1214 1216 329 614 637 763 1087 1522 238 556
leaf_count=975 2017 1162 942 602 1342 511 636 461 1983 2458 1327 813 914 971 1893 797 1185 1569 1466 1183 1214 1216 329 614 637 763 1087 1522 238 556
internal_value=0.000546918 -0.0555476 0.0613308 -0.00430136 0.0895038 -0.137997 0.0414045 -0.0296502 -0.0494291 0.117734 -0.0906768 0.0293544 -0.0144532 -0.0908946 0.00351915 0.0326989 0.145457 0.112735 -0.196793 0.115959 0.0710802 -0.0340867 -0.160075 0 -0.140098 0.0294102 -0.0229262 0.0157779 -0.074478 0.0335473
internal_weight=33383 17357 16026 10709 12241 6648 5315 3785 5394 8324 3691 3917 3411 1913 3530 1872 5212 2754 2957 1785 3112 1727 1795 1411 1964 2656 1900 2436 874 1770
internal_count=33383 17357 16026 10709 12241 6648 5315 3785 5394 8324 3691 3917 3411 1913 3530 1872 5212 2754 2957 1785 3112 1727 1795 1411 1964 2656 1900 2436 874 1770
is_linear=0
shrinkage=0.1


Tree=3
num_leaves=31
num_cat=0
split_feature=1283 1204 1204 1043 1354 1043 654 654 1283 1059 663 1358 1100 1100 1358 1053 1087 1354 1354 739 512 1087 663 582 512 489 229 1388 663 1100
split_gain=7726.64 5317.39 4477.24 2248.39 2170.16 2047.09 2006.39 1423.08 1307.95 1147.01 1113.5 1096.68 919.705 864.237 715.006 706.396 614.804 592.548 566.964 558.276 555.594 514.975 494.339 467.385 465.37 458.323 453.626 389.404 378.612 378.156
threshold=0.15688678114614402 0.53022679028605113 -0.51444605885648931 -0.7299388726774757 -0.33782901886374778 -0.29406762145895743 0.51541846503552835 0.041385738662580468 1.3786149183229746 0.10034860017368459 -0.1214741106107983 0.23711606620303913 -0.037633398498619679 -0.10853608360023302 0.071459663669478604 0.28973948244948616 0.2208016037777624 -0.457463689449011 -0.029201453850545407 0.18107031029059234 0.44619449494659563 0.51856527739237446 0.42181079579037667 -0.84266992513138772 -0.18934296447976423 -0.45138174558602534 -0.10683064204208496 0.52232645790943233 -0.56808903796579524 0.94716274914317367
decision_type=8 8 10 10 8 10 10 8 10 10 10 10 8 8 8 10 10 8 8 10 10 8 10 10 10 8 8 10 8 10
left_child=2 4 3 12 19 13 10 20 26 14 15 17 23 24 22 -3 -11 -5 -12 -2 28 -21 29 -1 -4 -9 -8 -20 -7 -6
right_child=1 6 5 11 9 7 8 25 -10 16 18 -13 -14 -15 -16 -17 -18 -19 27 21 -22 -23 -24 -25 -26 -27 -28 -29 -30 -31
leaf_value=-0.071632375070989573 -0.20755091926491059 -0.011103195233817543 0.030831094294881973 -0.15790845126961256 -0.051835041346491174 0.025832747144593906 0.18172441350116472 0.024327944295859681 -0.031607887171159511 -0.15172720923185565 -0.13586811541070395 0.0054558101311642133 0.10253624979916348 0.16704859895576096 0.039771601192579414 0.1191720732606813 -0.048410885953853323 -0.061779201436253373 0.0024045227141232224 -0.1559240643280195 0.063417765332349954 0.0030676672460604806 -0.14208833752452063 0.040538673411443162 0.12603076235395311 0.11717937770247709 0.080985769063811802 -0.099078414581862159 -0.062698339469342973 0.11011825989313158
leaf_weight=644 1924 1454 973 1135 791 734 817 722 734 1653 927 1424 1540 2937 1109 578 913 1541 965 781 866 267 543 869 1131 2196 1060 610 1372 173
leaf_count=644 1924 1454 973 1135 791 734 817 722 734 1653 927 1424 1540 2937 1109 578 913 1541 965 781 866 267 543 869 1131 2196 1060 610 1372 173
internal_value=0.00049282 -0.051794 0.0447558 -0.0166935 -0.106976 0.0850082 0.0111231 0.0448211 0.0809704 -0.0677066 -0.0290077 -0.0651115 0.0481655 0.131828 -0.0208504 0.0257884 -0.115228 -0.102826 -0.073695 -0.175187 -0.00372831 -0.115013 -0.065787 -0.00690781 0.0823139 0.0944088 0.125247 -0.0366587 -0.0316103 -0.0220854
internal_weight=33383 15299 18084 7153 8154 10931 7145 5890 2611 5182 4534 4100 3053 5041 2616 2032 2566 2676 2502 2972 2972 1048 1507 1513 2104 2918 1877 1575 2106 964
internal_count=33383 15299 18084 7153 8154 10931 7145 5890 2611 5182 4534 4100 3053 5041 2616 2032 2566 2676 2502 2972 2972 1048 1507 1513 2104 2918 1877 1575 2106 964
is_linear=0
shrinkage=0.1


Tree=4
num_leaves=31
num_cat=0
split_feature=61 1283 1283 582 654 512 1277 61 1100 515 1368 61 1059 582 515 61 20 20 582 1368 61 20 1100 1087 1283 562 20 565 533 1311
split_gain=8629.3 5516.44 2924.59 1964.65 1638.51 1513.96 1344.74 1066.52 871.319 800.956 722.314 714.023 707.298 705.01 598.089 568.398 557.001 551.86 487.906 470.773 456.409 430.312 422.297 401.46 379.329 371.072 360.464 359.834 338.949 329.079
threshold=0.010214292154433657 -0.2825337444676409 0.99081976344647626 -0.42242079626839801 -1.0000000180025095e-35 0.25444930193710386 -0.019090385692507744 0.90583073237328215 0.25598721444687017 -0.68256938964741776 0.50589676474718481 -0.94114492753475731 0.20102373966181486 -0.22414158477620169 -0.17836575178942207 -0.64974157158756374 0.19365163662642979 0.52449379252981632 -0.81535268395614668 -0.069464482887650239 1.0035568322110842 0.11542135170152883 -0.056926543590353283 0.23992566981633476 -0.24067771242153693 -0.048714859169666329 0.48031272734559005 0.29421300143822432 0.22501064737066107 -0.382712549226292
decision_type=10 10 10 8 8 10 10 8 8 8 10 8 8 10 10 10 10 8 10 10 10 8 8 10 8 8 10 10 8 10
left_child=1 5 4 14 9 8 11 17 15 -2 16 -5 21 24 -3 25 27 -4 -10 -13 -12 -8 -7 -14 -11 -1 -21 -6 -19 -15
right_child=2 3 7 6 10 22 12 -9 18 13 20 19 23 29 -16 -17 -18 28 -20 26 -22 -23 -24 -25 -26 -27 -28 -29 -30 -31
leaf_value=-0.1156388101153524 0.090904956084862473 -0.11171630348793643 -0.1546189194699269 -0.089924370077588842 0.1158328189636913 0.037653048899469542 -0.10851080968458654 0.032179008007423557 -0.014042561676644562 0.0073204223323775925 0.021571456355677098 0.068490378996933152 -0.18131821001033541 0.090668006521066824 -0.20272829136072096 0.0052628000343464456 0.16318879432707331 -0.087689909629769774 0.076558524611044274 -0.076308039091453353 0.11302784088264606 -0.0049377675729897832 0.12413061931470837 -0.082809323826991896 -0.090937543176641517 -0.030963745043067738 0.040369300838970994 0.027740759675482382 0.036807047686855436 0.011868221618782289
leaf_weight=1174 1682 1288 729 922 2047 1137 848 1268 1136 743 1359 928 1313 900 1781 1323 2353 528 1226 642 931 780 1169 645 811 963 442 622 364 1329
leaf_count=1174 1682 1288 729 922 2047 1137 848 1268 1136 743 1359 928 1313 900 1781 1323 2353 528 1226 642 931 780 1169 645 811 963 442 622 364 1329
internal_value=0.000445642 -0.0473457 0.0545249 -0.0987173 0.075081 0.0132078 -0.0674976 -0.0362032 -0.0138847 0.0335073 0.106067 -0.0170683 -0.108586 0.00782051 -0.164793 -0.0458978 0.127381 -0.0899758 0.0327976 0.0161259 0.0590374 -0.0592611 0.0817781 -0.14924 -0.043688 -0.0777799 -0.0282858 0.0955266 -0.0363582 0.043962
internal_weight=33383 17717 15666 9589 12777 8128 6520 2889 5822 5465 7312 2934 3586 3783 3069 3460 5022 1621 2362 2012 2290 1628 2306 1958 1554 2137 1084 2669 892 2229
internal_count=33383 17717 15666 9589 12777 8128 6520 2889 5822 5465 7312 2934 3586 3783 3069 3460 5022 1621 2362 2012 2290 1628 2306 1958 1554 2137 1084 2669 892 2229
is_linear=0
shrinkage=0.1


Tree=5
num_leaves=31
num_cat=0
split_feature=1358 565 663 654 663 1354 654 562 1354 1100 654 1204 20 1283 1043 1277 64 1283 1388 1354 1043 1283 1354 682 1100 1222 1283 1100 1283 1259
split_gain=6544.18 2885.93 2854.97 2308.85 1538.82 1494.65 1404.33 1000.65 882.347 825.719 740.732 668.308 664.92 630.97 619.338 581.621 575.239 530.795 527.377 510.473 478.574 454.835 449.047 430.96 397.001 383.93 410.816 382.19 377.787 367.276
threshold=-0.059270243431686166 0.93048492723423537 -0.15274432902858306 0.47051302040345772 -0.020707892882024685 0.26587873710557947 -0.60988340999553403 0.57742527452749826 -0.37952296342283748 0.43026661263940319 0.34802028578698158 -0.53584354828488534 -0.081505958806527432 0.39578346749897014 0.84211599351856126 -0.4736649623767869 0.33571631888970804 0.52835562985960571 -0.011988069624193562 -0.99785672962522232 -0.92247106175924876 -0.60136308340358557 0.097351238775279611 -0.9142859110910907 0.67911201833003021 -0.29705596244385252 0.60245992835501772 0.010893902500429422 -0.35641219713682709 0.2079748707361227
decision_type=8 10 10 10 8 10 10 8 8 10 8 8 10 10 10 8 8 10 8 8 10 8 10 10 8 10 8 8 10 8
left_child=2 3 6 4 11 7 19 15 28 16 -3 20 17 27 -14 -4 21 -5 -10 -1 -2 -8 -23 -12 -13 -11 -27 -7 -6 -15
right_child=1 10 5 12 8 13 9 -9 18 25 23 24 14 29 -16 -17 -18 -19 -20 -21 -22 22 -24 -25 -26 26 -28 -29 -30 -31
leaf_value=-0.1467882270674265 0.090389590199622172 -0.087370633405212561 -0.081475294485125999 0.087412718788804925 -0.011122896230230127 -0.039882041915430919 0.03499804264926986 -0.039576209781857087 0.068857615754690821 0.1525952706145724 0.069367488633473348 0.073925565194746592 0.1647004395670591 -0.12783744328197821 0.058519836198462974 -0.17154859623259522 0.056582022448267266 -0.07062659163484461 -0.012552805270629866 -0.036456632454480442 -0.01933793561243349 -0.12119064000286349 0.0064378217056090901 -0.033784350427127026 0.1513990615585222 0.086284006746298464 -0.076614886987248831 0.052069663356284601 -0.12016443359835936 -0.034428880391561438
leaf_weight=552 609 1754 1006 1247 537 954 607 1121 1272 633 646 2422 2580 852 722 2788 1152 251 2099 1825 1123 702 441 1075 944 674 196 854 818 871
leaf_count=552 609 1754 1006 1247 537 954 607 1121 1272 633 646 2422 2580 852 722 2788 1152 251 2099 1825 1123 702 441 1075 944 674 196 854 818 871
internal_value=-0.000477513 0.0401519 -0.0487987 0.05963 0.0317742 -0.087592 -0.000402049 -0.123285 -0.00923835 0.0329475 -0.0416619 0.0698808 0.1165 -0.0377258 0.141684 -0.147852 0.0015989 0.06054 0.0180407 -0.0623905 0.0190155 -0.0343336 -0.0715862 0.00468043 0.0958786 0.0930606 0.04892 0.0032842 -0.0773987 -0.0810027
internal_weight=33327 18099 15228 14624 9824 8446 6782 4915 4726 4405 3475 5098 4800 3531 3302 3794 2902 1498 3371 2377 1732 1750 1143 1721 3366 1503 870 1808 1355 1723
internal_count=33327 18099 15228 14624 9824 8446 6782 4915 4726 4405 3475 5098 4800 3531 3302 3794 2902 1498 3371 2377 1732 1750 1143 1721 3366 1503 870 1808 1355 1723
is_linear=0
shrinkage=0.1


Tree=6
num_leaves=31
num_cat=0
split_feature=61 1388 1059 1283 61 654 1283 1259 1204 1043 739 36 1358 1358 1283 1204 515 1388 1043 663 489 515 1059 1354 1204 1283 1283 1155 663 1217
split_gain=6880.91 4107.71 2450.83 2352.52 1698.29 1350.23 1210.33 948.983 918.609 842.084 797.744 732.128 631.573 574.915 567.785 567.477 562.907 558.511 531.163 503.32 457.208 422.996 403.869 398.491 371.188 366.358 359.407 354.799 331.945 314.473
threshold=-0.60007467491046718 0.48898577648528246 0.53550116043610307 -0.35641219713682709 0.49511717480367229 -0.31335097729738642 0.31231930944088898 0.13847610289829715 -0.49350790256911853 -0.4048158571553358 0.52749690871522603 -0.12020992828184532 0.8443160920265862 0.061313791808553099 -1.3251758374111497 0.63964009643392961 -1.0000000180025095e-35 -0.2265058333341656 0.05036997826260519 -0.15274432902858306 -0.20621313554279025 -0.13798892191636683 -0.35149978941609017 0.12898264520660405 -0.079289344091490868 1.3786149183229746 0.74902514287535171 -0.10854049546847656 -0.040226673893644746 -0.5735750061904471
decision_type=8 10 8 8 10 8 10 8 10 10 10 10 10 8 10 10 8 8 10 8 10 10 10 8 10 10 8 8 10 10
left_child=3 2 5 8 6 18 15 17 14 24 13 28 16 -4 -1 21 -6 26 27 -9 -13 -3 -10 -8 -7 -12 -5 -2 -11 -19
right_child=1 4 10 7 12 9 23 19 22 11 25 20 -14 -15 -16 -17 -18 29 -20 -21 -22 -23 -24 -25 -26 -27 -28 -29 -30 -31
leaf_value=0.015509075024075265 0.032854664473538832 -0.009604343239880726 -0.091035469568236063 -0.067630057391574253 0.048295926793785082 0.11277052425705236 -0.18141141886971621 0.0042331849840131367 0.10675523468501712 0.065130684834471611 0.06606870855046347 0.048150008133198446 0.087728456358895771 -0.0017283065501544977 -0.097100141326240202 0.078616239681118527 -0.049408187109299374 -0.11769942767085105 -0.012713027571323882 -0.10101152677228493 0.13329145244663518 -0.099914824090091128 0.0018323571514540058 -0.086812314416032543 0.18223560597107907 -0.041077769426673724 -0.18552505581699794 0.1151715581039071 -0.026754859813815771 -0.21223241869616932
leaf_weight=671 1521 1178 1152 948 1023 1913 956 689 619 791 1650 974 970 1952 1300 404 1382 519 1587 1283 1928 945 921 900 1393 388 370 820 769 1411
leaf_count=671 1521 1178 1152 948 1023 1913 956 689 619 791 1650 974 970 1952 1300 404 1382 519 1587 1283 1928 945 921 900 1393 388 370 820 769 1411
internal_value=-0.000433225 0.0266244 0.0543731 -0.0767027 -0.0335357 0.0796674 -0.0746023 -0.119273 -0.0132367 0.103854 -0.00307287 0.0752167 0.0196608 -0.0350715 -0.0585336 -0.0292741 -0.00763507 -0.152606 0.0316813 -0.0640196 0.10494 -0.0500953 0.0444139 -0.135951 0.142284 0.0454045 -0.101336 0.0619755 0.0195395 -0.187218
internal_weight=33327 24596 16838 8731 7758 11696 4383 5220 3511 7768 5142 4462 3375 3104 1971 2527 2405 3248 3928 1972 2902 2123 1540 1856 3306 2038 1318 2341 1560 1930
internal_count=33327 24596 16838 8731 7758 11696 4383 5220 3511 7768 5142 4462 3375 3104 1971 2527 2405 3248 3928 1972 2902 2123 1540 1856 3306 2038 1318 2341 1560 1930
is_linear=0
shrinkage=0.1


Tree=7
num_leaves=31
num_cat=0
split_feature=61 1283 1204 1043 1283 582 739 1059 1204 1043 1283 582 654 562 1283 20 1283 1259 62 1204 489 1059 515 489 20 62 582 1388 1059 1386
split_gain=5915.08 4122.41 2215.86 1815.46 1681.09 1229.22 1136.79 1018.77 866.299 803.279 776.056 756.719 620.244 609.752 574.643 555.29 547.745 540.036 501.616 479.392 429.698 387.543 383.502 381.545 379.438 347.785 342.596 341.449 330.558 324.089
threshold=0.18787044724034324 0.40752161983226765 -0.089515624748935027 0.46206869830534686 -0.59091344934905499 0.51480082845864328 0.030943788537175446 -0.1882540639036466 0.95906860644852554 -0.7698071208666073 0.37284748680623686 -0.40326528247082455 0.37014601491571036 0.72801242427610069 1.6579839127444671 -0.57975949907250335 1.5486538316270704 0.1283175545444265 0.11067793148602735 -1.2937202642368228 -0.058028662148351846 0.16128249953948073 -0.12707602630416384 -0.46165984444553415 -0.19996570362615049 -0.40399209807500552 -0.2967843791419213 0.85744734793562538 -0.1359771767753705 -0.74834770586206945
decision_type=10 10 10 10 10 10 8 8 10 8 10 8 10 8 8 8 8 8 10 8 8 10 10 8 10 8 8 10 8 8
left_child=1 2 4 6 9 13 10 27 20 19 24 25 22 21 17 -11 -10 -7 -13 -1 -5 -3 -9 -8 -2 -6 -12 -4 -17 -25
right_child=3 5 7 8 11 14 23 12 16 15 26 18 -14 -15 -16 28 -18 -19 -20 -21 -22 -23 -24 29 -26 -27 -28 -29 -30 -31
leaf_value=-0.014892718798555436 0.035263110822218793 -0.11813973476368089 0.1199434028418692 -0.087308793484190086 -0.078523915234359531 -0.084475695825232427 0.061152849918131115 0.030798083007921195 0.086859636976755875 -0.085279497107080632 -0.11580962833503623 -0.0021604292029279927 0.077242143206095557 -0.047760527670552118 -0.15128352322896008 0.053887430657182205 -0.030943396711208705 0.028639876737219835 -0.10700493596055315 0.092028530901731548 -0.0045293065691502567 -0.18990752389802784 -0.059148372249766636 0.1939219158888647 0.099990000640957102 -0.16509812401769602 0.0066907502129911799 0 -0.026359150973900541 0.11514739571480299
leaf_weight=623 2006 1485 1738 1040 864 717 999 806 1314 1074 333 1296 944 633 400 794 555 1012 711 1233 1610 1694 1130 711 1707 1102 695 266 1441 2394
leaf_count=623 2006 1485 1738 1040 864 717 999 806 1314 1074 333 1296 944 633 400 794 555 1012 711 1233 1610 1694 1130 711 1707 1102 695 266 1441 2394
internal_value=-0.000391601 -0.034875 -0.00525388 0.0510794 -0.0343462 -0.104677 0.0774197 0.0490675 -0.000377172 0.00318264 0.0438664 -0.0832374 0.0107564 -0.138722 -0.043413 -0.0262466 0.0516151 -0.0180226 -0.0396211 0.055892 -0.0372462 -0.156635 -0.0214505 0.116019 0.0651928 -0.127424 -0.0326532 0.10381 0.00194821 0.13346
internal_weight=33327 19963 14022 13364 9138 5941 8845 4884 4519 5165 4741 3973 2880 3812 2129 3309 1869 1729 2007 1856 2650 3179 1936 4104 3713 1966 1028 2004 2235 3105
internal_count=33327 19963 14022 13364 9138 5941 8845 4884 4519 5165 4741 3973 2880 3812 2129 3309 1869 1729 2007 1856 2650 3179 1936 4104 3713 1966 1028 2004 2235 3105
is_linear=0
shrinkage=0.1


Tree=8
num_leaves=31
num_cat=0
split_feature=61 663 1388 61 654 1283 663 1100 1354 515 1043 512 61 1388 1368 1283 512 1283 1388 512 1155 1354 1354 931 1155 1277 1386 685 1100 1388
split_gain=4901.27 3275.5 1788.86 1679.29 1674.63 1575.17 1123.84 917.045 735.448 676.928 588.921 522.461 507.583 506.46 478.573 429.976 424.544 394.076 378.431 376.334 355.674 355.192 353.173 344.155 314.13 311.456 308.994 293.796 292.124 291.011
threshold=-0.60007467491046718 0.20601016047439596 0.36263779640267985 0.90583073237328215 -0.5265663671598082 -0.1263584957091933 -0.17238684696455628 0.62088531386388668 -0.24640470267380574 0.079369117099870892 -0.3338620985173027 0.040692262483658093 -1.4033858762113678 0.011675931764194606 0.16463680290724139 -0.8997915627472548 0.39192281136768042 -0.2825337444676409 0.64910411897720466 0.3379674026922051 -0.56740753987223624 -0.66582723046059356 -0.48938860235203308 -0.25047951742881602 -0.46834518468599828 -0.34876122771833579 -0.10028675689122332 -0.14772186514404398 -0.077911783963735645 0.56666048635783361
decision_type=8 8 10 10 8 10 8 10 8 8 10 8 10 8 10 10 10 8 8 10 8 10 8 8 10 10 10 8 8 10
left_child=2 4 6 5 10 13 11 9 25 20 24 15 -8 -3 -10 -1 29 -14 -5 -12 -6 -17 -4 -15 -2 -7 -16 -22 -13 -11
right_child=1 3 22 18 7 8 12 -9 14 16 19 28 17 23 26 21 -18 -19 -20 -21 27 -23 -24 -25 -26 -27 -28 -29 -30 -31
leaf_value=0.044641017117874361 0.005021050013262294 0.05622928012612019 -0.17891186481820961 0.075047354732264634 0.0416450964876659 -0.058525818585713665 -0.13769399335322449 0.12465635739046266 0 0.013503647571502903 -0.061966120514819936 0.0071875182077364656 0.0044624938761081657 -0.090331712176857495 -0.0276059476674409 -0.12405365899762442 0.065750500073578175 -0.082715214817466229 -0.0011414286857632098 0.027695441437611087 0.14136108364668962 -0.014002287010348495 -0.10256916210439221 0.0040086934005304897 0.098342079016465966 -0.15960171409532109 -0.10824070365964654 0.073099125307533916 0.11345475340088036 -0.078817911397385185
leaf_weight=634 821 1474 1061 1872 1366 442 954 2912 1242 1175 1529 488 823 526 779 476 1164 1352 980 664 1235 792 1575 1411 659 1159 1307 1403 576 476
leaf_count=634 821 1474 1061 1872 1366 442 954 2912 1242 1175 1529 488 823 526 779 476 1164 1352 980 664 1235 792 1575 1411 659 1159 1307 1403 576 476
internal_value=-0.000360517 0.0224732 -0.0647326 -0.0174279 0.0558244 -0.040111 -0.0348328 0.0775373 -0.0762663 0.0573116 -0.00157511 0.00912229 -0.076637 0.0120022 -0.0491851 -0.0220713 0.0194831 -0.0495245 0.0487098 -0.03459 0.083759 -0.0558389 -0.133599 -0.0214187 0.0469882 -0.132117 -0.078423 0.105329 0.0652896 -0.0128743
internal_weight=33327 24596 8731 11192 13404 8340 6095 9731 4929 6819 3673 2966 3129 3411 3328 1902 2815 2175 2852 2193 4004 1268 2636 1937 1480 1601 2086 2638 1064 1651
internal_count=33327 24596 8731 11192 13404 8340 6095 9731 4929 6819 3673 2966 3129 3411 3328 1902 2815 2175 2852 2193 4004 1268 2636 1937 1480 1601 2086 2638 1064 1651
is_linear=0
shrinkage=0.1


Tree=9
num_leaves=31
num_cat=0
split_feature=1059 739 20 654 1358 1388 1368 1087 461 1277 562 1100 685 582 461 562 1059 1100 1358 582 565 1388 1388 1100 461 1217 64 1259 138 582
split_gain=4165.1 2968.52 2829.3 1561.55 1157.75 1137.91 987.631 977.597 700.417 613.151 537.95 502.064 495.342 503.65 492.566 473.846 425.402 424.819 413.058 373.315 373.228 373.047 370.305 313.239 313.142 309.142 280.029 262.532 260.527 253.483
threshold=-0.1359771767753705 0.070892947713344437 -0.26392414740036602 0.70483660289589178 0.19054128813064772 0.29459499823312979 -0.16305823628490992 0.10219692714195715 0.39682687702079716 -0.028816308603921318 0.019155177701427568 0.31534239197952196 -0.26678226299714797 -0.85558532063766346 -0.13947358640375326 0.52083845955138297 0.65818960109647351 -0.37800170267663874 -0.1531877676547341 -0.76706400321176182 -0.18936770206324494 -0.21689759391545216 -0.077509586335341496 -0.33622786630361812 0.26740714774204183 0.75337446909125394 -0.21304007927378693 -0.74162770413811618 1.1472884524505627 -0.78881919349239649
decision_type=8 8 8 10 10 10 10 8 8 8 8 8 8 10 8 8 8 8 10 8 10 10 8 10 8 8 8 8 8 8
left_child=2 4 5 7 15 12 17 9 23 20 18 22 13 -1 19 21 -9 -4 -7 -6 -3 27 -8 -5 -19 -10 -14 -2 -11 -22
right_child=1 3 6 8 14 10 11 16 25 28 -12 -13 26 -15 -16 -17 -18 24 -20 -21 29 -23 -24 -25 -26 -27 -28 -29 -30 -31
