tree
version=v4
num_class=1
num_tree_per_iteration=1
label_index=0
max_feature_idx=1455
objective=regression
feature_names=aarsd1 abhd14b abl1 acaa1 acan ace2 acox1 acp5 acp6 acta2 actn4 acvrl1 acy1 ada ada2 adam15 adam22 adam23 adam8 adamts13 adamts15 adamts16 adamts8 adcyap1r1 adgrb3 adgre2 adgre5 adgrg1 adgrg2 adh4 adm afp ager agr2 agr3 agrn agrp agxt ahcy ahsp aif1 aifm1 ak1 akr1b1 akr1c4 akt1s1 akt3 alcam aldh1a1 aldh3a1 alpp ambn ambp amfr amigo2 amn amy2a ang angpt1 angpt2 angptl1 angptl2 angptl3 angptl4 angptl7 ankrd54 anpep anxa10 anxa11 anxa3 anxa4 anxa5 aoc1 aoc3 apbb1ip apex1 aplp1 apoh apom app aprt areg arg1 arhgap1 arhgap25 arhgef12 arid4b arnt arsa arsb art3 artn asah2 asgr1 atf2 atg4a atox1 atp5if1 atp5po atp6ap2 atp6v1d atp6v1f atxn10 axin1 axl azu1 b4galt1 b4gat1 bach1 bag3 bag6 baiap2 bambi bank1 bax bcam bcan bcl2l11 bcr bgn bid bin2 birc2 blmh blvrb bmp4 bmp6 boc bpifb1 brk1 bsg bst1 bst2 btc btn2a1 btn3a2 c19orf12 c1qa c1qtnf1 c2 c2cd2l c4bpb ca1 ca11 ca12 ca13 ca14 ca2 ca3 ca4 ca5a ca6 ca9 calb1 calb2 calca calcoco1 camkk1 cant1 capg carhsp1 casp1 casp10 casp2 casp3 casp8 cblif cbln4 cc2d1a ccdc80 ccl11 ccl13 ccl14 ccl15 ccl16 ccl17 ccl18 ccl19 ccl2 ccl20 ccl21 ccl22 ccl23 ccl24 ccl25 ccl26 ccl27 ccl28 ccl3 ccl4 ccl5 ccl7 ccl8 ccn1 ccn2 ccn3 ccn4 ccn5 ccs cct5 cd109 cd14 cd160 cd163 cd164 cd177 cd1c cd200 cd200r1 cd207 cd209 cd22 cd244 cd27 cd274 cd276 cd28 cd2ap cd300c cd300e cd300lf cd300lg cd302 cd33 cd34 cd38 cd4 cd40 cd40lg cd46 cd48 cd5 cd55 cd58 cd59 cd6 cd63 cd69 cd70 cd74 cd79b cd83 cd84 cd8a cd93 cd99 cd99l2 cdc27 cdc37 cdcp1 cdh1 cdh15 cdh17 cdh2 cdh3 cdh5 cdh6 cdhr1 cdhr2 cdhr5 cdkn1a cdkn2d cdnf cdon cdsn ceacam1 ceacam21 ceacam3 ceacam5 ceacam8 cebpb cela3a cep164 cep20 cep43 cep85 cert ces1 ces2 ces3 cetn2 cfc1 cga cgref1 chac2 chek2 chgb chi3l1 chit1 chl1 chmp1a chrdl1 chrdl2 ciapin1 ckap4 ckmt1a_ckmt1b clc clec10a clec11a clec14a clec1a clec1b clec4a clec4c clec4d clec4g clec5a clec6a clec7a clip2 clmp clpp clps clspn clstn1 clstn2 clta clul1 cndp1 cnpy2 cnpy4 cnst cntn1 cntn2 cntn3 cntn4 cntn5 cntnap2 col18a1 col1a1 col4a1 col6a3 col9a1 colec12 comp comt cope coro1a cox5b cpa1 cpa2 cpb1 cpe cpm cpped1 cpvl cpxm1 cr2 cracr2a cradd creg1 creld2 crh crhbp crhr1 crim1 crip2 crisp2 crkl crlf1 crnn crtac1 crtam crx csf1 csf2ra csf3 cst3 cst5 cst6 cst7 cstb ctf1 ctrb1 ctrc ctsb ctsc ctsd ctsf ctsh ctsl ctso ctsv ctsz cx3cl1 cxadr cxcl1 cxcl10 cxcl11 cxcl12 cxcl13 cxcl14 cxcl16 cxcl17 cxcl3 cxcl5 cxcl6 cxcl8 cxcl9 dab2 dag1 dapp1 dars1 dbi dbnl dcbld2 dcn dctn1 dctn2 dctn6 dctpp1 dcxr ddah1 ddc ddr1 ddx58 decr1 defa1_defa1b defb4a_defb4b dffa dgkz diablo dkk1 dkk3 dkk4 dkkl1 dlk1 dll1 dnaja2 dnajb1 dnajb8 dner dnmbp dnph1 dok2 dpep1 dpep2 dpp10 dpp4 dpp6 dpp7 dpt dpy30 draxin drg2 dsc2 dsg2 dsg3 dsg4 dtx3 duox2 dusp3 ebag9 ebi3_il27 ece1 eda2r edar edil3 efemp1 efna1 efna4 egf egfl7 egfr egln1 eif4b eif4ebp1 eif4g1 eif5a eloa enah eng eno1 eno2 enpp2 enpp5 enpp7 entpd2 entpd5 entpd6 epcam epha1 epha10 epha2 ephb4 ephb6 ephx2 epo eps8l2 erbb2 erbb3 erbb4 erbin ereg erp44 esam esm1 ezr f11r f2r f3 f7 f9 fabp1 fabp2 fabp4 fabp5 fabp6 fabp9 fadd fam3b fam3c fap fas faslg fbp1 fcar fcer2 fcgr2a fcgr2b fcgr3b fcn2 fcrl1 fcrl2 fcrl3 fcrl5 fcrl6 fcrlb fen1 fes fetub fgf19 fgf2 fgf21 fgf23 fgf5 fgfbp1 fgfr2 fgr fhit fis1 fkbp1b fkbp4 fkbp5 fkbp7 fli1 flrt2 flt1 flt3 flt3lg flt4 fmnl1 fmr1 folr1 folr2 folr3 fosb foxo1 foxo3 frzb fst fstl3 fuca1 furin fus fut3_fut5 fut8 fxn fxyd5 fyb1 gal galnt10 galnt2 galnt3 galnt7 gas6 gbp2 gbp4 gcg gcnt1 gdf15 gdf2 gdnf gfap gfer gfod2 gfra1 gfra2 gfra3 gga1 ggh ggt1 ggt5 gh1 gh2 ghrhr ghrl gkn1 glb1 glo1 glod4 glrx glt8d2 gmpr gne gnly golm2 gopc gp1ba gp2 gp6 gpa33 gpc1 gpc5 gpkow gpnmb gpr37 grap2 grk5 grn grpel1 gsap gsta1 gsta3 gstp1 guca2a gusb gys1 gzma gzmb gzmh hagh hao1 hars1 havcr1 havcr2 hbegf hbq1 hcls1 hdgf hebp1 hexim1 hgf hgs hk2 hmbs hmox1 hmox2 hnmt hnrnpk hpcal1 hpgds hs3st3b1 hs6st1 hsd11b1 hsp90b1 hspa1a hspb1 hspb6 hspg2 htra2 hyal1 hyou1 ica1 icam1 icam2 icam3 icam4 icam5 icoslg idi2 ids idua ifng ifngr1 ifngr2 ifnl1 ifnlr1 igf1r igf2r igfbp1 igfbp2 igfbp3 igfbp4 igfbp6 igfbp7 igfbpl1 igsf3 igsf8 ikbkg ikzf2 il10 il10ra il10rb il11 il12a_il12b il12b il12rb1 il13 il13ra1 il15 il15ra il16 il17a il17c il17d il17f il17ra il17rb il18 il18bp il18r1 il18rap il19 il1a il1b il1r1 il1r2 il1rap il1rl1 il1rl2 il1rn il2 il20 il20ra il22ra1 il24 il2ra il2rb il32 il33 il34 il3ra il4 il4r il5 il5ra il6 il6r il6st il7 il7r ilkap impa1 ing1 inhbc inpp1 inppl1 ipcef1 iqgap2 irag2 irak1 irak4 islr2 ism1 itga11 itga5 itga6 itgam itgav itgb1 itgb1bp1 itgb1bp2 itgb2 itgb5 itgb6 itgb7 itih3 itm2a ivd jam2 jchain jun kazald1 kcnip4 kdr kel kifbp kir2dl3 kir3dl1 kirrel2 kit kitlg klb klk1 klk10 klk11 klk12 klk13 klk14 klk4 klk6 klk8 klrb1 klrd1 krt14 krt18 krt19 krt5 kyat1 kynu l1cam lactb2 lag3 lair1 lair2 lama4 lamp2 lamp3 lap3 lat lat2 layn lbp lbr lcn2 ldlr lefty2 lep lepr lgals1 lgals3 lgals4 lgals7_lgals7b lgals8 lgals9 lgmn lhb lhpp lif lifr lilra2 lilra5 lilrb1 lilrb2 lilrb4 lilrb5 lpcat2 lpl lpo lrig1 lrp1 lrp11 lrpap1 lrrc25 lrrn1 lsm1 lsp1 lta lta4h ltbp2 ltbp3 ltbr lto1 lxn ly6d ly75 ly9 ly96 lyar lyn lypd1 lypd3 lypd8 mad1l1 maea maged1 manf mansc1 map2k6 map3k5 map4k5 mapk9 mapt marco masp1 matn2 matn3 mavs max mb mcam mcfd2 mdga1 mdk med18 megf10 megf9 mep1b mepe mertk mesd met metap1 metap1d metap2 mfap3 mfap5 mfge8 mgll mgmt mia micb_mica mif milr1 mitd1 mln mme mmp1 mmp10 mmp12 mmp13 mmp3 mmp7 mmp8 mmp9 mnda mog mphosph8 mpi mpig6b mpo mrpl46 msln msmb msr1 msra mstn mtpn muc13 muc16 mvk myo9b myoc mzb1 mzt1 naaa nadk nampt nbl1 nbn ncam1 ncam2 ncan ncf2 nck2 ncln ncr1 ncs1 ndrg1 ndufs6 nectin2 nectin4 nefl nell1 nell2 nfasc nfatc1 nfatc3 nfkbie ngf nid1 nid2 ninj1 nme3 nmnat1 nomo1 nos1 nos3 notch1 notch3 npdc1 nppb nppc nptn nptx1 nptxr npy nrcam nrp1 nrp2 nrtn nsfl1c nt5c3a nt5e ntf3 ntf4 ntprobnp ntrk2 ntrk3 nub1 nucb2 nudc nudt2 nudt5 nxph1 obp2b odam ogfr ogn olr1 omd omg optc oscar osm osmr oxt p4hb padi2 padi4 paep pag1 pak4 pam pamr1 pappa park7 parp1 pbld pcdh1 pcdh17 pcsk9 pdcd1 pdcd1lg2 pdcd5 pdcd6 pdgfa pdgfb pdgfc pdgfra pdgfrb pdlim7 pdp1 pear1 pebp1 pecam1 pfdn2 pfkfb2 pgf pglyrp1 phospho1 pi3 pigr pik3ap1 pik3ip1 pilra pilrb pklr pla2g10 pla2g15 pla2g1b pla2g2a pla2g4a pla2g7 plat plau plaur plin1 plin3 plpbp pltp plxdc1 plxna4 plxnb2 plxnb3 pm20d1 pmvk pnliprp2 pnpt1 podxl podxl2 polr2f pon2 pon3 ppcdc ppib ppm1a ppme1 ppp1r12a ppp1r2 ppp1r9b ppp3r1 ppy pqbp1 prcp prdx1 prdx3 prdx5 prdx6 preb prelp prkab1 prkar1a prkcq prkra prl proc prok1 prss2 prss27 prss8 prtfdc1 prtg prtn3 psg1 psip1 psma1 psmd9 psme1 psme2 psmg3 pspn psrc1 pten ptgds pth1r ptk7 ptn ptpn1 ptpn6 ptprf ptprm ptprn2 ptprs pts ptx3 pvalb pvr pxn qdpr qpct rab37 rab6a rab6b rabepk rabgap1l rad23b rangap1 rarres1 rarres2 rasa1 rassf2 rbks rbp2 rbp5 rcor1 reg1a reg1b reg3a reg4 relt ren ret retn rgma rgmb rgs8 rhoc rilp rnase3 rnaset2 rnf41 robo1 robo2 ror1 rp2 rrm2 rrm2b rspo1 rspo3 rtbdn rtn4r ruvbl1 rwdd1 s100a11 s100a12 s100a16 s100a4 s100p samd9l scamp3 scara5 scarb1 scarb2 scarf1 scarf2 scg2 scg3 scgb1a1 scgb3a2 scgn scly scp2 scrn1 sdc1 sdc4 sele selp selplg sema3f sema4c sema4d sema7a septin9 serpina11 serpina12 serpina9 serpinb1 serpinb5 serpinb6 serpinb8 serpinb9 serpine1 sestd1 setmar sez6l sez6l2 sf3b4 sfrp1 sftpa1 sftpa2 sftpd sh2b3 sh2d1a shmt1 siae siglec1 siglec10 siglec15 siglec5 siglec6 siglec7 siglec9 sirpa sirpb1 sirt2 sirt5 sit1 skap1 skap2 slamf1 slamf6 slamf7 slamf8 slc16a1 slc27a4 slc39a14 slc39a5 slit2 slitrk2 slitrk6 smad1 smad5 smarca2 smoc1 smoc2 smpd1 smpdl3a snap23 snap29 sncg snx9 sod1 sod2 sorcs2 sord sort1 sost sparc sparcl1 spink1 spink4 spink5 spink6 spint1 spint2 spock1 spon1 spon2 spp1 spry2 src srp14 srpk2 ssb ssc4d ssc5d st3gal1 st6gal1 stambp stat5b stc1 stc2 stip1 stk11 stk24 stk4 stx16 stx4 stx6 stx8 stxbp3 sugt1 sult1a1 sult2a1 sumf2 susd1 susd2 tacc3 tafa5 tank tarbp2 tbc1d17 tbc1d23 tbc1d5 tbcb tbcc tbl1x tcl1a tcl1b tcn2 tdgf1 tdrkh tek tff1 tff2 tff3 tfpi tfpi2 tfrc tgfa tgfb1 tgfbi tgfbr2 tgfbr3 tgm2 thbd thbs2 thbs4 thop1 thpo thy1 tia1 tie1 tigar timd4 timp1 timp3 timp4 tinagl1 tjap1 tlr3 tmprss15 tmprss5 tmsb10 tnc tnf tnfaip8 tnfrsf10a tnfrsf10b tnfrsf10c tnfrsf11a tnfrsf11b tnfrsf12a tnfrsf13b tnfrsf13c tnfrsf14 tnfrsf19 tnfrsf1a tnfrsf1b tnfrsf21 tnfrsf4 tnfrsf6b tnfrsf8 tnfrsf9 tnfsf10 tnfsf11 tnfsf12 tnfsf13 tnfsf13b tnfsf14 tnni3 tnr tnxb tp53 tp53inp1 tpmt tpp1 tppp3 tpsab1 tpt1 traf2 trem2 treml2 triap1 trim21 trim5 tshb tslp tspan1 tst txlna txndc15 txndc5 txnrd1 tymp tyro3 ubac1 ulbp2 umod uso1 usp8 uxs1 vamp5 vash1 vasn vat1 vcam1 vcan vegfa vegfc vegfd vim vmo1 vnn2 vps37a vps53 vsig4 vsir vstm1 vstm2l vta1 vtcn1 vwa1 vwc2 vwf wars was wasf1 wasf3 wfdc12 wfdc2 wfikkn1 wfikkn2 wif1 wnt9a wwp2 xcl1 xg xpnpep2 xrcc4 yes1 ythdf3 zbtb16 zbtb17
feature_infos=[-4.768288990008017:4.3836383371668628] [-4.2194131777202966:4.4220441185963351] [-4.3619397991830251:4.2200947145444054] [-4.0929901843904544:4.0918708706551508] [-4.0738389933923465:4.3915849095004722] [-5.1121452302675223:4.8702679778479698] [-4.0811527458142338:4.1547342384491994] [-4.7100494660830012:4.4452724500480087] [-3.975066524240602:4.253180064653173] [-4.2729551841565137:4.6738050292713478] [-4.2900215176071272:4.2052977577857185] [-4.3091451122146491:4.1774687036814857] [-4.5380626310377643:4.4836743600758373] [-3.7237375686779211:3.754672840518237] [-4.1885305896496972:4.0915576367084467] [-4.0242191445561843:4.0369203501741771] [-4.0626315691743313:4.4927909555967762] [-4.1393535987595609:4.4872805858625231] [-4.2864509758623228:4.2810911295490524] [-4.214080543822984:4.3416264990845557] [-3.942655199927052:4.5047914866122527] [-4.7543959154080397:4.9206687520057972] [-4.2467810636682097:4.1034535580775433] [-4.1740079105637724:4.1471373061616594] [-4.1381775287710765:3.9955985147109585] [-4.1964879466091851:4.4307899810506806] [-4.419277823175519:4.1197543731604149] [-4.3523167542005483:4.3800484840493148] [-4.8867066010022455:4.9018799420578301] [-4.1135611855236283:4.9596724559807077] [-4.3422608582538844:4.3459396044026013] [-3.8720751288903981:4.7821099843625241] [-4.0421118975087991:4.6715440005951416] [-4.0516338318986875:3.9942816632819733] [-4.3433558497013225:4.0748133100467188] [-4.1099302805975144:4.2721320966010614] [-4.4216902587158753:4.4814705030746502] [-4.0601456933877369:4.3281525275434305] [-4.0670525357906273:4.4549983140831912] [-3.8137490754683272:5.1035606770911492] [-3.8432254811826132:4.1047672376598303] [-4.3382868769220817:3.8667445871265707] [-3.8915399925673433:4.1014756816889921] [-3.9167044152999448:3.8084487732475916] [-4.2608625825112991:3.9681202872248895] [-4.3184838165154842:4.2481356314420688] [-4.1605966130614229:4.3570503476498699] [-4.5810455735473994:4.7160040987830909] [-3.8587089672070292:4.3652684393834971] [-4.5652809826333147:4.2302736386915631] [-4.4012400649716845:3.754227629527596] [-4.2313860250754631:4.1694104862462771] [-4.8830600730421061:4.7871178505210699] [-4.3304746660192919:3.9015086437034117] [-4.0985216481603164:4.3959367360149679] [-3.988857181053179:4.3624749140170591] [-4.198058349014544:3.9998571796452409] [-4.4923634789760625:4.5896121011401751] [-4.1542690421044419:4.2394168775263257] [-4.0092014304056454:4.467776768172488] [-4.0904671297848791:4.4388752269087242] [-4.1400123640271698:4.0310284640031835] [-4.2643019870819412:4.5037882989403357] [-4.0424827000994066:4.4752468562914913] [-4.3797717005373542:4.5129042361419804] [-4.569596285073902:4.0845237225166793] [-3.7457878078588061:4.2952563933210426] [-4.4703855042955309:4.4420779161900823] [-4.3083096507480967:4.2096992844790178] [-4.4568862358346637:3.9057439748966623] [-4.4449503871721303:4.1155475449429311] [-3.7522482206654315:4.1333176956520257] [-3.7952085296348188:4.1699813831525239] [-3.9094299714576115:5.3332519443222912] [-4.2078310360970699:4.5079976999213063] [-3.9465702415628177:4.3403441472397848] [-4.1182085168178171:3.886638954078141] [-4.1904099213869168:4.1481403171518112] [-3.9702960661985949:4.1231999004244964] [-3.8499241189270608:4.1244630127027868] [-4.2266502870944009:3.7318311520364005] [-4.1208503228515836:4.2730267966805355] [-4.1271829895964327:4.6177654708678988] [-4.4048491824898832:3.9628941724134963] [-4.0474418539250214:4.0906689805078784] [-4.5239229027720063:3.768550826319939] [-4.0953671176375055:4.4361904598554327] [-3.9836821727519265:4.1496368326533073] [-4.3550926750885388:4.5759234710804497] [-4.080162737192901:3.8129466008478796] [-5.0645620031031617:5.0246086572194368] [-4.3448611663118424:4.1874878117329137] [-4.171720045094335:3.8260726890559686] [-4.4711350494837934:4.1560927661310414] [-4.0550471187109736:3.875385636265698] [-5.1830189327281353:4.626009137840585] [-4.4238105998431907:4.1705737930678746] [-4.5724761097250379:4.0484021087614979] [-3.9590831119696488:4.2614504700433784] [-4.4556205163384606:4.3974516142628914] [-4.1614498408871894:4.1749291145594309] [-4.093329260548928:4.5105718684900884] [-4.0623461577821969:4.4147077570237245] [-4.437429822006254:4.0482707839586638] [-3.7316064777100189:4.5389938078154346] [-4.3603583064881137:4.3391519264507359] [-4.0456517081052867:4.3170778946541208] [-4.1689276730113791:4.3103755678319695] [-4.0179662436195054:4.3100719414133604] [-4.2599035168529582:4.1843393039884837] [-4.2790648782173504:3.9276277588389168] [-4.419972530495305:4.3853886478307409] [-3.641158346468607:4.5128288165837454] [-3.8396030750406855:3.9590194570432331] [-4.0564042622531327:4.3546580892025997] [-4.5894419325778664:4.2234276421364507] [-4.3203841460698413:4.3338554889194771] [-4.1146134528923728:3.9766030267531964] [-4.0953103488029656:4.085692200176033] [-4.1225864843427775:4.2191717363682741] [-4.541141993966952:4.2213402202904895] [-4.0471701739014518:4.3378760209920353] [-4.1025999349057001:4.1003411262148273] [-4.336940800915686:4.3296293942963322] [-5.1014804668269891:4.2491867265893397] [-4.2279010237153924:4.3077510950485642] [-4.0539197433360075:4.4521541974389249] [-4.3951958509827662:4.2547192720517018] [-4.163832565916505:3.9785961274517998] [-4.1086269519865217:4.194119521229446] [-4.4539766222255555:4.8661781718927388] [-3.8477154052562494:4.3638503580169745] [-3.9441251254231142:4.4745719859231672] [-3.9058458866882733:4.1054900976628019] [-4.3613109569410655:4.5867686567526285] [-4.4030080332062509:4.1835805303988565] [-3.9800205864981653:4.1841192377688836] [-4.3360953159950357:4.6253609896183203] [-4.1003449253835234:4.44113099697066] [-4.5205156111506799:4.3214729887543859] [-4.2818461894693414:4.1922547329395146] [-4.2952151641030385:4.6387160930232616] [-4.628464395964687:5.0369380647761135] [-4.3163026576001453:3.7518829548625305] [-4.1928407971336092:4.1787398735368884] [-4.2562325997171371:4.1926235569392993] [-4.0084981314528241:4.5147719681654213] [-3.8009889770130711:4.4463888569404988] [-4.0458572416726231:4.1906773639887342] [-4.2341991149105969:4.3657688365289014] [-4.3522811741933616:4.0008731252663212] [-4.599034488987277:4.8233323161377069] [-4.0768543283322307:4.297787486235781] [-4.8874378992508296:4.4032144546946697] [-3.7498802450785433:4.088018501375962] [-4.7088451147243253:5.4193963749990353] [-4.4553535531860922:4.3335574442874822] [-3.9334807744143103:4.006416342524135] [-3.9041930178333355:4.1977143011605671] [-4.205316739647964:4.3809492012105018] [-4.3636998427259028:4.0358081916058364] [-3.9842496659930253:4.2172582049140122] [-4.0258486723256501:4.5583996177263728] [-4.5667634762928389:4.1833840286912647] [-4.6058975240665072:4.0787443116388928] [-4.2809469825244779:4.4361423882337885] [-4.661907354612195:4.0941987395225059] [-4.4073552592085408:4.1814662851589821] [-4.0638728157333617:3.8974017280174125] [-4.389625300493905:4.1832261098428374] [-4.7051305437597364:4.6635251994626294] [-4.0679036677919544:4.1358165102234317] [-4.5670225402155875:4.4349818742234106] [-4.1255164243222078:4.4025376494622561] [-4.1466990489164228:4.167119809925615] [-4.3160029969016716:4.3568321959666916] [-4.5607321234820484:4.4929875167263322] [-3.7864426254918038:4.080506065934788] [-4.0799290684066287:4.3401846117457703] [-4.293630845161573:4.2703572275718154] [-3.8039106379968732:3.9623568981666999] [-4.0302960437818696:3.9889529593782642] [-4.5793540785160731:4.4351233639197245] [-4.0021418897391436:4.2666801219085215] [-4.1374577146335998:4.2267678483808728] [-4.2500230529644565:4.7425288179732696] [-4.0076488789835842:4.6571864532372693] [-3.7062698124243241:4.0501788015001363] [-3.9760515142084425:4.914989325570418] [-4.0438959214390362:4.0924665795349595] [-4.3733739284743987:4.2402714247740683] [-3.8329978455060085:4.655194968481899] [-5.0022560593317067:4.0216914782261597] [-4.0753564560353945:4.440415610313857] [-3.9957060845993482:4.133176000731277] [-4.6404329638701665:4.9960845458097323] [-3.9304092121747192:4.2106111315582675] [-3.8661042900076708:5.4125240976232343] [-4.4775955688507834:4.5903371856140298] [-4.3921068888968433:4.1810435653406932] [-4.264734912589482:4.1604741363390083] [-4.3802999438481489:4.1526305534392085] [-3.7014730262202287:4.2963820727988811] [-3.8662482226721799:4.3914927476393633] [-4.4001034134854136:4.3349732243393255] [-4.1590904546805474:4.2028933344144992] [-4.2109529067963214:4.9809358662570355] [-4.2602884848200153:4.6459341680695783] [-3.8272823401842029:3.9505823362062724] [-4.1324519903733314:4.2110912714392974] [-3.8928002914884612:3.7447598619829772] [-4.2540000999601206:4.5686079564917774] [-4.090466754355675:4.1159846274219687] [-4.7012409274957481:4.1744117658452113] [-3.8214756629655091:4.7350922116540888] [-4.2775169371631421:4.4840266968830482] [-4.2405638823742686:4.3972301637792892] [-3.8480323925912958:3.9181718950641264] [-3.605180903815572:5.343519202263594] [-4.2405464573373139:4.2260455344431751] [-4.3625783118591173:5.92807882476502] [-4.9558232543764316:3.9509582296126209] [-4.1195579373078175:4.8911978851699205] [-4.0989515081038128:4.2240515377820458] [-4.2421539367415164:4.4630916520015562] [-4.5225806771360979:5.0786875092787929] [-3.770739776703369:4.1827714138275311] [-4.3030955381745217:4.1275578357130751] [-3.8258840351536931:4.1333926695365442] [-4.0488604594865834:4.3727626732516924] [-4.1608524859564007:4.4283559057900499] [-4.3239991534055067:4.0958976734423782] [-4.1161318239521529:4.8579317287444033] [-4.1698809027809043:4.2107976399742251] [-5.3909166617022883:4.5491309093427681] [-4.4378660797956035:4.4448430289909702] [-4.1361573530247684:3.8879074404296534] [-4.3600923844266637:4.2268262299481592] [-3.8730059403516059:4.3654368640058774] [-4.3398468500668841:4.2100339078438287] [-4.209365348003284:4.2098252807954468] [-4.3675305871043832:4.244685191417263] [-4.4544539094594553:4.2442042920730785] [-4.2709920537811392:4.2621782513871036] [-3.7909652120701529:4.3586658101604074] [-4.6256352892905648:5.0996330016050893] [-4.3094043819715733:4.0982386463991363] [-3.9225714867907953:4.4415153272700874] [-4.6498558143653117:3.9018751174239568] [-4.1680857272717589:4.5986182513629235] [-3.7890191826010224:4.5939170549716586] [-4.9739837359753398:5.1567045045339839] [-4.3758889677472004:3.8824132564614051] [-4.5411660321228045:4.4365228221639805] [-4.1357026054085395:4.5926895101407785] [-4.0224813001431601:4.0987333325343496] [-3.9623439373189577:4.1067493112203177] [-4.141803354462831:4.045456319888836] [-5.1907092321543988:5.5130310082692979] [-3.9506142138171603:4.3188067504958303] [-3.6827396475803384:3.8141718139224885] [-4.3583398033139069:4.0880809570308259] [-4.0319902664864902:4.826877455422391] [-4.3374278393382619:4.3217015420201728] [-3.7958227913688312:4.4050319933036644] [-4.175717958962796:4.396451243187685] [-3.8823490337531608:4.4304180994807094] [-3.7418164885475416:4.1234534025027729] [-4.0830078581853639:4.167834646414537] [-4.7132654930025488:4.1359274704378297] [-3.8020988969730669:4.4665364114670751] [-3.8380037640453719:3.8326747336545499] [-4.1447818785179882:4.0938927680403427] [-3.8759874810646249:4.3252812793448108] [-4.1401610249849208:3.9259877520021766] [-3.9916838342718943:4.6255433206338301] [-3.8086504598804329:4.2039920256452907] [-3.7336977585009703:4.333540568166721] [-3.9030479848157893:4.049430419351367] [-4.2793865473108088:3.7329273200825792] [-3.976214183607059:4.0730752079299597] [-4.0492342703706781:4.0740056478569286] [-6.1069407433267102:5.6300353972869877] [-3.9403053034694366:4.3165918306788607] [-4.2369110690071414:3.9723967797078088] [-4.161160094837463:4.246571821287823] [-3.9898946791798551:4.1103132608593889] [-4.4750024858140645:4.3299030875418545] [-4.1237409673592866:4.1088198389382873] [-4.0921798520417001:4.2791019027529957] [-4.7997876943324416:4.1288902843763324] [-4.6209027499784403:4.8610406542045554] [-4.0799495126546281:4.1448357617251146] [-4.3933090569801525:4.2644834544520425] [-4.1031246880948986:4.2295715311934341] [-4.4689429597264336:4.0811516399391525] [-4.487111596011168:4.1959673568011153] [-3.8615154789670258:3.9468576554956267] [-3.9434929276822706:4.2888732173602877] [-3.9300494957136549:4.1788930512431257] [-4.3304427753973185:4.236040625744506] [-3.937948558105044:3.9586869174524488] [-4.4521760542430346:4.1583680925958975] [-4.1605162855981108:4.5174115337788745] [-4.5769136205036993:4.3336588786701773] [-4.1011472953158403:4.4570714996142318] [-4.2152424550347893:4.8768452619780644] [-3.8335384071737217:4.2069183602087286] [-4.4599019967838114:4.3976289985452759] [-4.3420935233155822:4.5474642566643393] [-4.5016790830751692:4.5148182101478991] [-4.3497627935855734:4.0352926819584045] [-4.0808362883012554:4.1354454396322389] [-4.181646531594855:4.257195752180797] [-4.2316926723185269:4.1307886114775005] [-4.3133292977779609:3.887449731680658] [-3.9175595327904569:4.0800848166849919] [-4.0719891442463929:4.5822543234778861] [-3.8632170571997331:4.2709407233473868] [-4.1874792101975764:3.8950266172675732] [-4.2498907809663811:4.2167601429491732] [-4.0598763562893172:4.2243915058186419] [-4.160315331598901:5.1483602877074279] [-3.9770703733373431:4.1835660892127366] [-4.1552837059605325:4.5261832889373705] [-4.4620169625531849:4.011224034536613] [-4.5581057810705028:4.9353549243512242] [-4.0469967182504343:4.2689478905842861] [-4.1908132101075104:4.3704868381111108] [-4.4909921051372566:4.4085213920817221] [-4.0197456192730092:4.1756059408257578] [-4.7107802171323394:4.378989621459465] [-3.9834062981637803:4.4628448218184982] [-4.7219557804181536:4.51918206208539] [-4.4044284280706076:4.7100257287551734] [-4.7045404792099266:3.8575207856957774] [-3.9461347589977378:4.2402373653263554] [-3.929990095669682:4.5458410772542015] [-3.9972681591273176:4.4945968914041146] [-4.0599619598355403:3.9754360799158137] [-4.2627185165894597:3.9005266875813072] [-4.20797657856565:3.8173384791153078] [-3.9919300881130337:4.2209407119124629] [-3.9290100217954493:4.3503559075522293] [-4.6470443507286019:4.6302837795285612] [-4.1805336977742487:4.3361170035996102] [-4.0049584794025845:3.8955333026376575] [-4.1291870485691149:4.0271783107634445] [-4.1642477156563169:4.5562447379077238] [-4.3659964127118895:4.0829895105319647] [-4.4069973944374858:3.7327892447462747] [-4.646829472023871:4.2303393743495441] [-4.1651322602845795:3.9746266804228028] [-4.6319708473332106:4.0816825918195301] [-4.2161926410721984:4.0692470670059064] [-4.1753944108269438:4.0841173785522464] [-4.5304531726493398:4.3217339740529148] [-4.972660901640614:5.0943161570400921] [-4.6118848600694635:4.4139441493716607] [-3.9036096599203645:4.4949646278659747] [-4.9998291866513487:4.0967171837689422] [-4.6640314842547195:3.9310773413546642] [-4.3517625292123459:4.5333096320736201] [-4.167575357578218:4.2790945947630066] [-4.2842448341882173:4.1870489594706477] [-4.0701405907822839:4.2398894597867471] [-3.9409495919187352:4.4773883738843558] [-4.7475808478063435:5.0111161712196806] [-3.9464981434417443:4.3872652128898437] [-4.0531557124625133:4.7247659153585007] [-4.3032807511763975:3.9300470326828902] [-4.1643478594655754:4.4944988400297632] [-4.1294439510303738:4.2331282999703177] [-4.4062029897554122:3.8463626595688778] [-3.9656141193378747:4.3360374221396265] [-4.0125745597603215:4.1364567338284823] [-4.4946523592094438:4.5701866781535783] [-4.2448749378999597:4.7115053122193506] [-3.9718405326011559:3.9565697250694134] [-4.5123515559542193:4.2244198226807157] [-4.55343953631807:4.4271500056725621] [-4.1660037538589645:3.7874502173992539] [-4.926522116621018:4.7162064192872561] [-4.4184936903072307:4.2689647651130098] [-4.0918585497834812:4.2188283947458878] [-3.7746407599543326:4.1290728537844856] [-4.0057818352569292:4.4103795294892558] [-4.0049696278119411:4.3786349473237447] [-4.2948084481480127:4.0569705460399064] [-4.0562941016232532:4.1860233871961663] [-4.2196313649079196:4.3627219616553203] [-5.0357951636448721:5.5952274389494647] [-4.2372240683801667:4.356141468797663] [-4.7817257730632932:4.6898788553824851] [-4.3930459798055947:4.5724766356014275] [-3.9914609259073188:4.4635614898717968] [-4.082883377625385:4.2575245957372339] [-3.8734848236794277:4.3329921956323556] [-3.9777111324370651:4.8729646830252662] [-4.1622011840753839:4.1121594266525046] [-4.1471244340356792:4.1703513615714742] [-4.247899534709501:4.2817069240240002] [-4.6297204809661032:4.1307118137609713] [-4.3145693479752545:4.4688039879863783] [-4.6107090863161675:4.2204421855957532] [-4.2649879978576921:4.6510485047545398] [-4.2231262084626939:4.8052598321039355] [-4.5512391034469033:4.2307380178943212] [-4.1040557257903183:4.2832235489489232] [-4.0872546974075039:4.3599024431108919] [-4.1846046746725021:4.0725803601166541] [-4.3051249651750796:4.2616529158131264] [-3.7671070486810931:4.1879115452194107] [-3.9497989382994385:4.071581557319254] [-4.6816902526337341:3.9848892094823767] [-4.5505427609294982:4.3618217695916499] [-4.5096964139700475:4.4149078740377616] [-3.9766161596220946:4.2184147786724902] [-4.313299446600011:4.6038051225572731] [-4.0853985149548189:4.1467329123208767] [-3.9162942010793214:4.2583904045192957] [-4.6323933426394364:4.1903551727669504] [-4.130389813039673:4.2916507485955293] [-4.6999877176418119:4.2565569723717571] [-3.8811194325856508:4.1976699084725961] [-4.1076680322991397:4.3571740051985914] [-4.6667174080782239:4.4280877191653722] [-4.9327895867707081:4.3603985411001354] [-4.4901317048754317:4.2534044582243542] [-4.1296819727041321:4.5166408156416811] [-4.0474955424784866:4.1175260879280735] [-4.4843861177413276:4.7000970256425916] [-3.9207636980956049:4.7390165559621744] [-3.9299844498006897:4.5924858667311801] [-4.5535639117756865:4.1630344100132284] [-3.868124382077204:3.9733936987929135] [-4.1613590375243508:4.4852662098763112] [-4.5970831278744511:4.7188363911674953] [-3.9434915869220868:4.4256807478107154] [-4.0261837960303852:4.1890825502968152] [-4.3824986836681425:4.059597433247637] [-4.687554736470859:4.5230231117080022] [-4.158740213135447:4.1276951284247625] [-4.6707362476372563:4.3936821815656355] [-4.0439469966014192:4.5576297707082931] [-4.5289296277340121:4.4362258173243339] [-3.8084110482480078:4.0555751072649207] [-5.0443747305980366:5.0258874993420894] [-4.1770165663154346:4.4453656654914306] [-4.2308952892190668:5.4356368182015737] [-4.1799113056301831:4.0882794946566818] [-3.9911142453738551:4.0090421097410536] [-4.4877267504523823:3.7544748474332876] [-4.1114952268351797:4.2731279193548675] [-4.0081311546243645:4.1081601391855909] [-5.9420839248450656:5.7338651420318802] [-3.8315768356599875:3.8109362877525199] [-4.1367689059321266:4.286819599486356] [-4.6955565925240332:4.7021236326266163] [-4.3378870949102639:4.3514618275897874] [-4.4711750895676108:4.1859847446226555] [-4.0169714144888955:4.1461412280117544] [-3.8625214038911047:4.5259881858966393] [-4.1919415405582132:4.3288105883182197] [-4.5011975630811287:4.9006972970756131] [-3.9475194458487661:4.1036665055292882] [-3.9790923980846937:4.5019571902846875] [-4.4073749860712752:3.5344805289011743] [-4.2455125509999316:4.2022936566333735] [-4.6277992061853874:4.2949085723864782] [-4.1084040627061942:4.2916620034389092] [-3.9548008742189991:4.0855266584622134] [-4.2761309916748678:4.0443125091623253] [-4.3496605233102335:3.9003271360267728] [-4.4524728159775782:5.0914427151084727] [-4.7837504830567212:4.2621211035683952] [-4.2206076133025281:3.758079320157206] [-4.3871919810705737:4.202991363734438] [-4.1150554914963582:4.1049747323167693] [-4.009454979675394:4.0307548880623463] [-4.5135568656194822:3.8964926826229536] [-4.6708500943781726:4.4279969220353754] [-4.0730335730083329:4.2407263435411284] [-3.9481171025403401:4.4458652767020661] [-4.4513802709358323:4.2743998628399478] [-4.1938014695490855:4.3887801252141765] [-3.8392548443041945:4.2229747858750288] [-4.1427288040308019:4.2948563432770861] [-4.0843724032247755:4.2325002775200051] [-4.5335153243717627:4.3384482340152797] [-4.579097909955073:5.0113066411002753] [-4.0901544947836426:4.3319845134059234] [-4.5120018863727882:4.3324980241739572] [-4.1076738643958786:4.1097708027070059] [-4.4190431207295857:3.9222276094448301] [-4.1495784581537629:4.7801497425214272] [-3.621762925889271:4.24867113576774] [-4.3316325896016767:4.0601341216612035] [-4.2053066995358508:4.1987255173252223] [-3.9399028728668366:4.0998973272290966] [-4.4243370709575194:4.3251271364382227] [-3.8070039522800547:4.1407780549182007] [-3.6907443915934373:3.9350271725070241] [-4.0539566237364717:4.4199762498343782] [-3.9491607552148338:4.2533068084116827] [-4.6413049625050746:4.2142238321093872] [-4.3066418517219436:4.1242813787560459] [-4.5287756704445643:4.0918369492894575] [-3.9559316157144004:4.3042727165860537] [-4.6455724980917674:4.2955741636522751] [-4.2561227265638175:4.3415955959699799] [-4.7367338044361622:5.2570932442817453] [-4.7822401728522168:4.2270192241504914] [-4.5316805928634452:5.0959855689848412] [-4.6314753645003135:4.3941593619241752] [-4.1347772834204877:4.3816098949603584] [-3.7225846042168231:4.1956750411645096] [-4.2841335521334827:4.1723643733948856] [-4.1572250999909519:4.2592272461216272] [-3.8021788717225937:3.9730484425663564] [-4.4409324376732311:4.0554598495104752] [-3.906099694721187:4.3782593480568712] [-3.9774990083138282:4.514685511871404] [-4.4977220795034887:4.4472183809813322] [-4.1126026502592268:4.107780170084923] [-5.4539193283770997:4.1041128493733394] [-4.5043565523759534:4.1656064828777515] [-3.9592048804563582:4.118123681381392] [-4.3337689167802278:4.2067731312921204] [-3.8604909119085851:3.9943099467573462] [-4.1938774928449805:3.807683518239954] [-3.9791048494506835:4.8560260574487266] [-3.9377007371283472:4.2129080503478598] [-3.9965459485682597:3.9065893447404019] [-4.2803447553551051:4.2366032335153019] [-4.0103406698770545:4.8997266722134611] [-4.2625087889722568:4.688623089166688] [-4.8733978925428509:4.226434561384111] [-3.6666279941682305:4.1520760745345378] [-4.516529302919194:4.7079660862681552] [-3.9768048327317351:4.0590326675180197] [-4.0089853882915145:4.6013190966298287] [-4.1492969475882067:3.8746508973314286] [-4.1837343862379646:4.2405810861966637] [-4.256375822240936:4.4037352817905271] [-4.3582113624399099:4.2141211764213882] [-4.5229945397094964:4.2532221159821555] [-4.3443118547062145:4.1044509027875833] [-4.3491649424290229:4.2865107082814582] [-4.7645012298015263:4.1446325697733011] [-4.2122204730607073:4.0190116658989075] [-3.7746743937309599:4.0823506382309125] [-4.0143518786637333:4.0949998641860637] [-4.0173551634078226:4.9664631910295043] [-4.334803221734246:4.5070635267366983] [-3.9432551673685303:4.6878369002400948] [-4.1788772775401393:4.2903515754921546] [-4.0454085664222728:4.4278939380246172] [-4.1884568151411861:4.2923526705580777] [-3.9918076020676083:4.2722945298797477] [-4.2844579679916013:4.7139404767416089] [-4.9795322918927445:4.5174456637805029] [-4.2889956982343937:4.3792209608275172] [-4.1382783268760237:4.4044668029572085] [-3.9715654257876052:4.2092359327471458] [-3.9974163877398139:5.2987930341480434] [-4.0456215802255784:4.1941413110820109] [-4.0002775834188986:4.0563362110487891] [-3.7436062502437961:4.242687196589821] [-4.2301790410043374:3.8308506714294359] [-4.0529873507739662:4.0753760245636235] [-4.5225591350476382:4.4485697499685184] [-4.1236493322853596:4.3649585975999869] [-4.046076440861551:3.7728820040176361] [-4.3931106871667485:4.1604735039470357] [-3.5842063511689264:4.4321986424663224] [-3.685519917569184:3.9400195758488885] [-3.7560438952019259:3.8730313084465489] [-4.0867160755795258:5.8542320088459583] [-4.4575247257030357:4.3930288806320794] [-4.9906635397084056:5.6204228019716442] [-4.3428099768293196:4.5059436712511811] [-3.7830464310690961:4.2230844408355628] [-4.2222776739982795:4.5928146744153198] [-4.6761019777995267:4.1618505256525191] [-3.8992709196691751:4.2628121272092905] [-4.4557690861941222:4.9204331558140826] [-4.1792029148834304:4.3109625120089214] [-4.2351580050975253:4.2110628917766002] [-3.789005661533972:4.0441351742286997] [-4.2587188739140478:4.4004756778170959] [-4.1980419275795793:4.4873148244835903] [-4.5375117640114064:4.3607319223259653] [-4.1097654943670214:5.0889345392921523] [-4.023051538337727:3.8775723638647639] [-3.8087355234031475:3.8734828623818292] [-4.6394286874230719:4.4628247148760085] [-4.3037979515250839:4.3096358731443205] [-4.121355445910301:4.4058660630971271] [-3.6509297431697565:3.9603356376030789] [-4.0439801539909208:4.0856212680194268] [-4.1068405633653526:4.3410625825208813] [-4.1568617902139371:4.1951904242880387] [-4.4920173208172205:4.3685502249959169] [-4.0420528501777326:3.9198497046652774] [-4.2995503502909402:3.9919574284032984] [-4.2431902696845869:4.3903191697112769] [-4.4745232073503569:4.0919498336724027] [-4.0171098075582288:4.2785427936753537] [-3.6377724300294028:4.3819785952694197] [-4.3784249385499452:4.2689143025572589] [-4.0781309402247397:4.4171917235081581] [-4.0949670489246355:4.474784124036236] [-4.2296180262045029:4.0602308600861647] [-3.9355796376933254:4.3240974489794581] [-3.8825632335043907:3.7511642496998436] [-4.0982267174118423:4.2762726920090532] [-4.331229363495698:4.0361438957910343] [-4.0637267954490168:4.0679448479680929] [-3.8835967251969796:4.3536183344863435] [-3.5621664521659504:4.0906983699843762] [-4.0615111213466513:3.9054208919915827] [-4.6505773197858158:4.0213785316147233] [-3.9165949129307402:4.2258296717083974] [-4.0831802647886564:4.2055729280545799] [-4.5331938037125177:4.7879067995808651] [-4.0327040436304724:4.5499519180324963] [-4.350601800923914:4.2893265121026412] [-4.0643247238073732:4.0130376186914232] [-4.603420014476673:4.5210034469439533] [-4.3092480274852782:4.3217587867506593] [-4.0305078385735538:4.5735913530285677] [-4.0888270431468179:4.4014431717151723] [-4.4863753427333606:4.0331320611507149] [-4.5159844169191246:4.7673808129237338] [-4.4606246220068799:4.808377615890179] [-4.3124750813197394:3.9438434646047185] [-4.4806805675491752:4.2487934808560048] [-4.3958859448353067:4.0473525922731497] [-4.0342605017227955:3.9717086186608417] [-3.7761962709052077:4.3065639318665374] [-4.4835789737586378:3.90908233592776] [-4.1830296238820495:4.1794309241905836] [-4.2620458929176035:3.9853337644409517] [-4.0988403273342531:3.9538994099489506] [-4.3256843222524841:4.6841752152054212] [-3.9182466739270576:4.4125604901797475] [-3.6033206547345897:4.1719003385401923] [-3.9185734336358591:3.8803553010194021] [-4.3980042741124503:3.8096985321885688] [-4.2671997142821736:4.3447262390088897] [-4.2935649590733291:4.0622926523999743] [-3.9886606280054475:3.9513043343528245] [-4.0139245499217768:4.6940529618294748] [-4.0294343177636724:3.9524076100697521] [-3.9727709509784046:4.259652254168123] [-4.1128257303338591:4.3249104979963153] [-4.2997413130385116:4.4394370989168568] [-5.0817840151298448:4.5525421472001648] [-4.572327475767759:4.6413257444132068] [-4.6840446787660026:4.0994557501776692] [-3.9415844176991452:4.3093745021245837] [-4.2791301177768988:4.4024558958720945] [-4.3265319433034612:4.1085109820330334] [-3.9730305551442533:4.3640340400822124] [-4.1323500897366969:4.3506942381026121] [-4.2621010470252703:4.2902341464247469] [-4.3257654458859998:4.246835555829926] [-4.2416493229192707:4.1043573415954686] [-3.7928137555157968:4.0694029182910905] [-4.1437904953146827:4.3260081635171694] [-3.9249315553430359:4.2631296343539358] [-4.1444566202558279:4.2487800400108275] [-4.1502015195165232:4.0340030591218419] [-4.6910231746103248:4.3420494140349639] [-3.9439009150761026:4.2574156470052946] [-4.1335743825272866:4.1489349713641763] [-3.7865961345564498:4.1526084239809142] [-3.9694982918642214:4.3092449350507867] [-4.153037072124599:3.9734602455600143] [-3.9844872621641594:3.9738148254342174] [-4.0434526754342608:5.1893080258468789] [-4.2785116448209619:4.6225359755262776] [-4.0768783943254023:5.0019638374950803] [-5.4850445735385263:5.4973981510425034] [-4.5440360580991479:4.6798648777433529] [-4.4785331682757796:3.8161921351655215] [-3.8600133337981224:4.1896419498202437] [-4.121179569768513:4.3844311084930121] [-3.7837883996287704:4.0543946729379838] [-3.9422341450840945:4.0835744503638942] [-4.3210358138320535:3.946187362133446] [-3.9813692153812834:3.9310553449366661] [-4.1180896510512301:4.6898441387163912] [-3.9308044463170209:4.1873749276463439] [-4.373431426168719:4.0275219307522612] [-4.3611758257858231:3.7906530608972324] [-3.9621241508115221:3.9905539320072227] [-4.2598691945824259:4.3129609618319158] [-3.8182467915681242:4.2658982217363492] [-3.7907786510229777:4.2906062202919699] [-4.2008405884955851:4.3723303058835095] [-4.0946944254273454:4.1954787584935547] [-3.8999152531125003:4.1897352538655657] [-3.9733762034368199:4.2558400898514437] [-4.6456900916108745:4.9611610578558132] [-3.8021895857041272:3.9411173528655827] [-4.1481092411845504:4.2989078398713696] [-4.021188035528457:3.8407950925097207] [-4.4011925006519164:4.1344774186092872] [-3.9580315767778402:4.6193399649895843] [-4.0367186876964389:4.1295114520223803] [-3.7936316704976445:4.2184456725843749] [-4.4158607314957434:4.0720108900367249] [-3.8061124667669484:4.2223774630411439] [-4.1390562868758503:4.5466512767341545] [-4.1724424867192296:4.3115871234855669] [-3.9863502950199821:4.3837641069339588] [-4.6872809167577891:4.4294613168388555] [-4.1963392683156:4.3750865900298166] [-4.167279256162808:4.3515361692828289] [-3.7401915205871403:4.3671708617671987] [-3.8732375007013475:3.8217238989564883] [-3.8652923932040544:4.060421025308897] [-4.2376659194735167:4.2165268752664238] [-3.9996098124716788:4.0566570797908419] [-3.6045454065658817:4.2022599651201338] [-4.1354527892089399:4.0982004566353414] [-4.1610408974987534:4.1812539916506957] [-4.1837516218086934:4.5146034335512342] [-4.1537583193053562:4.3866551376901972] [-4.1978070772224712:3.9823004611468056] [-3.8941538972538168:4.0369227032201502] [-3.9807205657745008:4.2133157437886197] [-3.8888752214293114:4.2272318161461735] [-4.2211045119513679:4.1526717896615599] [-3.8448821111751825:3.9223225268492894] [-3.8400243369768821:4.2405890496456644] [-4.0829701777500604:4.2492766825991675] [-4.36896899051251:4.2289789552178627] [-4.2118106461630811:4.5361003270482882] [-4.076537822639037:3.9665992233877865] [-4.147055083930014:4.2734876699660695] [-4.1926068118163817:4.3920197422289977] [-4.1129351331206561:4.1624357292000544] [-4.333370496661388:3.8744318029675777] [-3.9647227906660918:4.3692667303129955] [-4.3821463897316351:3.839299289006711] [-4.0585787588676867:4.2776788519760238] [-4.3616623995822348:4.4218402201527454] [-3.7774938090763102:4.2907650307758178] [-4.1029025419208347:4.1159683868950694] [-4.6276004257129291:4.1816339840762415] [-4.3817926541104413:4.291031543104447] [-4.0589987578971156:4.4474826190755588] [-4.6517849411805043:4.2292054221856583] [-4.763049323310117:3.8649220218030775] [-4.1652122087418473:4.3878027088518659] [-4.3450282886089102:3.9883447829901737] [-4.9236978582278992:4.318200299006719] [-4.2702805653339961:4.4467698106926141] [-4.2619013993137536:4.21970296673011] [-4.5996651880694266:4.2353056033212733] [-4.1909614617420781:4.6301694177336872] [-4.0783492716381344:4.2208442754406805] [-4.1254072145102558:4.5244379291328478] [-4.0842620187293184:3.9468255475063967] [-4.4668655501263137:4.635109908276986] [-4.198573410435837:4.3056541155094914] [-3.9699051668711172:3.8085866273439026] [-4.6289679194303295:4.4909290333275633] [-4.1790083583904538:4.2312423226624905] [-3.9730857792758765:4.018856721150792] [-4.1998365688689105:3.8665397283287342] [-4.1347064955273884:4.1738390629673692] [-3.9048464159566025:4.2612533405263235] [-4.4088930056436393:4.3538993701720603] [-3.7762083491222214:4.5802673156511418] [-4.0785051659888243:4.1617001836825995] [-4.1512992704195595:3.7490675154040072] [-4.1832514721517597:4.1960129233280909] [-4.1434395095209524:4.5287398430464059] [-4.1877032433879471:3.9504730543803133] [-4.1767577223406729:4.1975447424828385] [-4.1216282189409617:4.1839478722545245] [-4.2078364890091517:4.057358475934647] [-4.2450534718054627:4.0606958590260396] [-4.164612187106429:4.416745894374464] [-4.6194384207605319:4.5707652000626933] [-4.3399944435255806:4.30828124685417] [-4.8113395819237059:5.2186713516514498] [-4.6039081898823655:4.4645965141902542] [-4.6099122380801756:4.3852939911433069] [-4.3010481010063453:4.1229574591704825] [-4.244791573427948:4.2014894832816809] [-4.1873275966317314:3.7708012917417499] [-4.2285659706852279:4.0209549137363263] [-3.8424739984941949:4.067711098416134] [-4.3564837271508354:4.7885740742186513] [-4.7232253911527904:4.1734818180105551] [-4.3546246056397209:4.2751545657888004] [-4.55513277459767:4.2812260948321912] [-4.0165345180571626:4.0663461715414062] [-4.2111977804674723:4.2064103961024557] [-4.4782998331401327:4.4152331477817377] [-4.3159484019169065:4.1487938203379064] [-4.2527824545328476:4.2524342968655562] [-3.9767329235057209:4.8437170789986883] [-4.3339709721400004:4.4946975469748942] [-4.2227918289037234:4.2288478384574377] [-4.368505407393326:3.9138714198777946] [-4.0894630767291602:4.2140863524480991] [-3.8752071897975964:4.2140135098633964] [-3.9479970907751869:4.1075021067189486] [-3.7158365723216447:4.3274673802911421] [-4.4861411351317901:5.1194979126521538] [-3.8547944213157552:4.3466194065387551] [-4.2049270192692587:4.5573656258111379] [-4.3280464279526516:4.1055096886970972] [-4.3138098376643761:4.3984939966268861] [-3.8963538175124857:4.3249935091389] [-4.2380929443338955:4.3943345144703301] [-3.8570803899425727:4.4248043284641385] [-3.8109662262484592:4.9696431452645733] [-4.265349983746578:3.841020290719467] [-4.1445668500055159:4.0610578412755283] [-4.2301545214584451:4.2151355506478065] [-3.7127370343175476:4.5701656384200193] [-4.6606091278416963:4.3188318214615089] [-4.185569473357698:4.2088284272552041] [-4.0066982068061128:4.3343152088897607] [-4.4649198382224835:4.3187256746101275] [-4.3119313357791595:4.237387775782266] [-4.5447009896383861:4.4429369397579572] [-4.145401111741144:4.839254690661372] [-4.3478712736415588:4.1096217655094955] [-4.7844451508108143:3.9324332309287962] [-3.6010559560120137:4.4258140131349357] [-4.6165538759565781:4.4346959245051316] [-4.1347602243823847:3.8464671825444676] [-4.0782806542816905:4.6431808705457831] [-4.1796123999525232:4.2957520121678758] [-4.1186363561401693:4.2848200930199738] [-4.2582926420958627:4.5750427584030202] [-3.8279225843342268:4.255559516057688] [-4.2008299329495937:4.5127674045383497] [-4.1572019461306251:4.1985487040970817] [-4.255951523915293:4.0055831512086719] [-3.9880934650866791:4.0473456071543819] [-4.2249371123453114:4.3106666013578998] [-4.9766415414253098:4.8885038653578263] [-4.2118896095144134:4.4549580070323058] [-4.4870844857842576:4.8342278031979999] [-4.2412554602029546:4.2893752712962074] [-4.3028983831054139:4.4184432813056977] [-4.3049537538563563:4.4765890055851205] [-4.2165908738300031:4.2767687609824234] [-4.0038538035947289:4.3976360241553643] [-4.106651265545822:4.1659890185813486] [-3.908588045737607:3.9522463700608759] [-4.4880149133370821:4.3781989277977837] [-3.9357720740071875:4.2109988256626369] [-4.5371851971696957:4.1093848062418674] [-4.1833784802754899:4.3737435075761875] [-3.7023898284066097:4.9994797364060366] [-4.0492557053078189:4.2522264620787356] [-4.1493781518032442:3.9356489037627482] [-4.0155316188638031:4.3221154843456304] [-4.0226805282567133:4.337789089848112] [-4.3969605741704214:4.187696409608467] [-4.253697296985461:4.0780877219259191] [-4.4656180291152525:4.348179814480952] [-4.2508272477160585:4.033514189210794] [-4.1724384676815749:4.2072219389263026] [-4.1065050661182969:3.9925479073989205] [-3.9646603797898545:4.5256556888530293] [-4.6211746535748484:3.991714505171347] [-3.8046901232855062:4.4580320720562332] [-4.4891025916408056:3.8251962839445195] [-3.7655134131104555:4.1159171860467492] [-4.5671396986106743:4.9442128843229272] [-4.2927967932129381:4.5338276674600948] [-3.6822631473661156:4.0678016991757922] [-4.4975193073379867:4.3231186507112263] [-4.1229873876829153:4.4896788932531511] [-4.2507784034181686:3.7844338250309928] [-4.0394090910483333:4.6375707575406162] [-4.394573121070076:3.8069138310876602] [-4.535579760598667:3.9252985645118486] [-4.8086477124860307:5.0359074911901915] [-4.6933918530194383:4.2314809169485335] [-4.4666452690516403:4.1384128759004728] [-4.6863840591175228:4.4001661957856664] [-4.0377191322262229:4.0501925242500638] [-4.5608982374594902:4.2682325317758103] [-4.1807504907803246:4.3904025596161267] [-4.1778561239624086:4.2088778322544691] [-4.3066617183929594:4.4738061399114484] [-4.268548289186775:4.3928842295564623] [-4.3941671415259611:4.451165750192942] [-4.0613913984581105:4.4515240179464044] [-4.3760333275140644:4.1052420705653647] [-3.8284109341288528:4.8968248672060115] [-4.5437862496537376:4.3458764829050311] [-4.3631834233349389:4.1270561024322001] [-4.1427290699944974:4.0781410930433903] [-4.071568284711252:4.051444683886265] [-4.119901574975521:4.6223485152891239] [-4.1219859743215341:3.9850902360654898] [-4.3859158692321234:4.1727346651799122] [-4.4323631309360625:4.7773744113786893] [-3.9368807566272466:4.0826599739030387] [-5.288231053128821:6.2310381890102624] [-3.7727424177929678:4.0528351752302099] [-4.375005256587273:3.8734155761069293] [-4.3031302073678575:4.1021088278145825] [-4.0405821211108099:4.0409722263611263] [-3.9870272297706721:4.6463472875808227] [-4.4553374294109211:4.445161958869388] [-4.2379123573517354:4.1514180964257452] [-4.0397030682024875:4.1022720198721396] [-4.0826895316027816:4.4614729214343178] [-4.1651529757945367:4.1959490621466022] [-4.6482796858868314:3.9845907605140831] [-4.6906271355700957:4.2183883320466196] [-4.6631331715313102:4.374745238159691] [-4.2309696580155718:4.320835897635332] [-4.6868673839195925:5.2694134689225738] [-4.1119273979564541:4.0187821655479556] [-4.2021573740993823:4.1956887970507797] [-4.0098996367466233:4.226925204057479] [-4.1804047644352806:4.2934463763226924] [-4.2247126861451321:4.3355164841086626] [-4.3161689819855962:4.053791657940387] [-4.487199394127968:4.4261021996803791] [-4.1444502255869162:4.4942007028372712] [-4.4744623763340465:4.0649031892381062] [-4.2481934725611925:4.6864407849548382] [-4.1588614040204801:4.0745806618864933] [-4.5472664721170384:4.744138891656779] [-3.774893244436329:4.1016080575928369] [-4.143984759125277:4.839153489452853] [-4.3839292022553211:4.2630975209709989] [-4.814122669596002:3.9336906499859019] [-4.5589716039905772:4.1663366226121594] [-4.5951137945103451:4.1707456533436584] [-4.2945641053438282:4.2081385660201471] [-3.6977964341705598:4.3871378572925828] [-4.2832013226308083:4.2702231519888656] [-4.0585058144054296:3.8932882489543705] [-3.8755684202349747:3.9893180173818341] [-4.1707835143066472:4.5127287975519472] [-4.4104794835182757:4.4245172979639085] [-4.9792403301444441:5.0809216038123681] [-4.1371091479106425:4.2147744939540068] [-4.925330149964914:4.0873000086749816] [-3.8651093838772073:4.4138583396887823] [-3.9132370935494372:4.4903207682647217] [-4.2672997997705284:4.3923196860432014] [-4.6083847634948674:4.13281135933003] [-3.8761344388397561:3.9767626590836582] [-3.7805103374305338:4.6189443866739639] [-4.0371189473217415:4.3132772535517816] [-3.9696775816060477:4.1074683482218806] [-4.091295631023609:4.1537549938313152] [-4.6370693048618117:4.5700759186515114] [-3.8418932836721171:4.5553241164801213] [-4.1165360701263323:4.2262940394090167] [-4.06345100120339:4.2536052048089781] [-4.163297685334137:4.0747096805365013] [-4.2475880393948788:4.3398747580392119] [-3.9071797812849494:4.4708018232297411] [-3.875904720478986:4.5613025545934631] [-4.208538873901313:4.6191033535813784] [-4.2062835482044809:4.1854376346583484] [-4.6650693165138106:4.3401094582998878] [-3.9650895507814097:4.0506275087937196] [-4.2583853336698674:4.4124338430592545] [-4.0779793642947091:4.2123331517136666] [-3.9826157768587014:4.2078184378736658] [-4.5024994479068265:4.2084696614567063] [-3.7010648030111177:4.24686897016168] [-4.4278504306489728:4.3874010898332543] [-4.7251752141457359:4.1958961758201339] [-4.0242475564153048:4.2054477738836757] [-4.2385706156157914:4.0497728085388029] [-3.9677236566313483:3.8385206533660519] [-4.8501939513644698:4.3489493225827482] [-4.2150334732625803:4.4291762450900736] [-4.0950130162942147:3.9949791920466651] [-4.5559625793447136:4.30150113277021] [-4.2800683290480848:4.4021549302052296] [-3.8884640679550553:4.4311997243700931] [-4.214922518085527:4.0857527325800751] [-4.0550332019173014:4.6491951703928889] [-3.955577154235395:4.3517419891137328] [-4.7440651222747263:4.8206489554315199] [-4.1113072729757665:4.4297891249452013] [-4.1221744390057973:4.1153122172443233] [-5.2597588207855033:4.3312930388017117] [-4.6726118944811024:4.0486584927800084] [-4.2816831430941091:4.8160805312973602] [-4.2229355178134496:4.7058381848185578] [-4.4260210679433651:4.4473912747855611] [-4.3589289148561159:4.3201030991179454] [-4.2781479132293851:3.9445871165057387] [-3.912573194742651:4.2985191160233125] [-4.3749566637252437:4.3777821247019171] [-4.2013737709936265:4.2433117017219626] [-3.7974439486454505:4.2814301157748949] [-4.292438936742343:4.2543402633182597] [-5.1982951132612856:4.8633724080979901] [-3.9198754734803503:4.3055823050668272] [-4.077113214665955:3.9976544674355954] [-4.3352579701296214:4.1575222034922881] [-3.9645259135449149:3.9803128117180457] [-4.5610046931251533:4.9257719359756358] [-4.0273622241605356:4.6919870955867431] [-3.9843141066018495:4.2378515463992823] [-4.0331516688365268:4.3235051082593241] [-3.8774820000191603:4.1829822556276364] [-3.9426988752023444:4.0540769744895373] [-4.1490791077136118:4.2942208082860471] [-4.2293775661949455:4.002786499187601] [-4.3336335852866492:4.1831676107521867] [-4.4279797953112761:4.4096826633689359] [-4.2581112780214729:4.0081859895927083] [-4.3462102763931556:3.8961449594859432] [-4.3304969758318315:3.9553990300588642] [-3.9416527174932443:4.1836325103099474] [-3.9037424862680643:4.2230607485513394] [-3.8472942386388054:4.0793043383979093] [-4.5032789201214038:3.9076380337601333] [-4.0368524955653413:4.2160688890210087] [-4.2053685041899458:4.4473410820712838] [-4.4723640741999775:4.1176327322035648] [-4.1395874974772457:4.7987988679458748] [-3.904554810554675:4.0740810249919752] [-4.3698920300342934:4.1868088848911871] [-4.447701859420448:5.8247557779211503] [-4.7587508796415907:4.3446830934634475] [-4.6440141534754753:4.5859235058588217] [-4.2939117409571947:4.3240642854704783] [-4.2168277220492136:4.4697719168604504] [-4.3163581490150511:3.8439537054970536] [-4.6064319083833283:4.6622070910004938] [-4.1083427688122569:4.0214134021750887] [-4.3005163060834679:4.1034412705794212] [-4.5199003176085615:4.4386379893314061] [-4.3753732639065364:3.9602702573206603] [-4.1567291970203799:4.3684778643445492] [-4.0594022677405466:4.2178822278173573] [-4.2076645051220316:4.1797963304227039] [-4.2176907122005369:4.3701371429808944] [-4.2513975604980248:4.4373750853305394] [-4.7157766696761083:4.4976229341655376] [-4.1947878849492142:3.9611190641540959] [-4.2903075227119025:4.1574598019907958] [-4.0255609486127897:3.9513317698503454] [-4.2852793655585995:4.1587254469506298] [-4.3383643262742009:3.9137622158760896] [-4.1120405092340331:4.0600984332275045] [-3.9951300636408784:4.1515907556091953] [-4.0411694134629448:4.3415880641591347] [-4.0230996597516979:4.1009172147762074] [-4.3679853554776793:4.3222532178979964] [-4.4873649216218006:3.8967291669895237] [-4.4033407950400703:3.9794086961646102] [-3.8850832902020307:4.3619779845078295] [-4.1112212734181162:4.495216539097191] [-4.28524033079551:4.2483442588008753] [-4.1156028877434174:4.1080726510654326] [-3.9966410134598154:4.239383312575292] [-4.0785034461291225:4.2674978370194365] [-4.0446021068469573:4.3831052996109916] [-4.4652600205819164:4.309239641860497] [-4.1932263098448033:4.2918746724565944] [-3.9835120056011286:4.3378774853634106] [-4.139832760845592:4.6390870203121501] [-4.4491507973498656:3.7134953454250872] [-4.596660338306723:4.0525170370865551] [-4.1298690403116751:3.801495794596629] [-3.7634439083208595:4.6508330689495576] [-4.6602180891160963:3.7764552042525512] [-3.8883226861610578:4.4089776783190286] [-4.1472330643627338:4.3696071209546963] [-3.8786552506083836:3.765973532051992] [-4.3781679226370143:4.1041460146500963] [-4.582171147892665:4.3305095912107499] [-4.2162944177227466:4.2018268727750243] [-4.356641291755035:4.3422998576046092] [-4.3691013043980016:4.0328244423410853] [-4.1336794501526199:4.0965422927395325] [-4.5536564633545416:4.1272650384616059] [-4.2026039272173588:4.2235771497214882] [-4.4401254517973872:4.2166952961797346] [-4.1023583934052672:4.3236792247283029] [-3.9819042265869267:4.2756206208732328] [-4.2618995867272229:5.9513483377561895] [-3.8655070089139492:3.8375086150437396] [-4.2204834711484986:3.8615051011012542] [-3.873898383925185:4.4440948505990043] [-4.5807892859128181:4.3832638915271911] [-4.4741381236188289:4.3054325697733207] [-4.3950298810778481:3.754090309316032] [-4.7786136358074787:4.4810841303528193] [-4.584142872551519:4.7563552036883596] [-4.2369076638528735:4.2125649442920832] [-4.5662111092563062:4.8237559674386468] [-3.8861269387120423:4.2080499413567409] [-3.96894876972932:4.1812991160268291] [-4.4267311782986711:4.5912938365715181] [-5.1106577770058532:5.7713815125550054] [-4.2292058462153381:4.2026649799316873] [-4.3216418987956731:4.2262047404051595] [-4.178211699120423:4.762964072767212] [-4.0189136197510376:3.8861612372035212] [-3.9817434570146557:4.1336781124362618] [-4.1303208102823303:4.6146214982918101] [-4.0736633324862224:4.1702706985691753] [-4.7549904075178544:4.0740834811479374] [-3.6491189981525745:4.471607591473302] [-4.0851199696779084:4.1307439216902875] [-4.4024474622473333:4.7884634952921186] [-4.3591046299346532:4.4911583486950031] [-4.6445348843988956:4.1455510025697118] [-3.9793499694784873:3.9961108541345425] [-4.1489812600694034:4.4401317840761525] [-4.1469240502266436:4.308572756571257] [-4.219445583367273:4.2336807042847013] [-4.3063514525350568:3.9782192578917712] [-4.4200478803078811:4.0355023199473168] [-3.9272909666557321:4.0927663713301614] [-3.9235205730151348:4.0502449268981131] [-3.9702231643165091:4.2849916857230266] [-3.859949016020356:4.2844004673894434] [-4.3499818360820868:4.1214978548355372] [-3.9791871466892195:4.2544284103858256] [-4.193902925499855:4.1447431945035946] [-3.8727744243647777:4.0419419639486298] [-4.1162075490181911:4.4764526470775721] [-3.8968367212427544:4.1788679071044585] [-4.4195850734132973:4.4949187557596542] [-4.6346532732169905:4.3136479169695985] [-4.1943857194795111:4.5377279520283684] [-3.7810396344194208:4.8241660754175655] [-4.0135470194609679:4.3148706958127088] [-3.7713109563826337:4.7400348137392969] [-3.9059904012420539:4.6480528616856187] [-4.0874008963384867:4.3223420222957341] [-4.1436773903534894:4.1008233850819655] [-4.2484513479995698:4.9047550182437307] [-3.8097948855531518:4.9153948399183163] [-4.0246631177041028:3.9438541070494466] [-4.0877808987503963:4.0593258704163491] [-4.2663845589657408:4.429603920986029] [-4.1764225790929039:4.0202280084983055] [-3.9062307965371659:4.2199189814472176] [-4.1791240381214534:4.2968091770525243] [-4.1848736996509439:4.4975112120736176] [-4.1108245988052703:4.1749356393767432] [-4.5884942270631264:4.0085553399217506] [-4.3873035870733883:4.396570958522136] [-4.0086260931247901:4.5852853725471308] [-4.5474764509322423:4.6219093289263276] [-3.8149724446679887:4.7287998244021257] [-4.1071636541249541:4.433427668217174] [-3.9508485003114688:4.1479881178486968] [-3.8230802282133456:4.5671697514547285] [-4.5768586789680121:4.1722339801063626] [-4.2221848171284275:5.1756373756481224] [-3.8794400122937076:3.8736468887021465] [-4.4930232319124626:3.7867307491329165] [-3.6838170701342596:4.2052071329444951] [-4.5398309945442872:4.0291737218465009] [-3.8812463305277078:3.9383584068913389] [-4.8029144920856703:4.0490627250493452] [-3.7445972829835745:4.0539051336359586] [-4.3065514794290518:4.3062243562671414] [-3.8466886014047725:4.0429329681192518] [-4.3587196804555095:4.6690783709909507] [-4.1657871654067646:3.8345314151404049] [-4.4913787600872679:4.0340498070495094] [-3.8486710572560852:4.0972546379578114] [-4.9967783950273743:4.5825629845887281] [-4.0187850125203397:4.326908241287839] [-5.3092133069159742:4.5325190399753739] [-4.1178701045892776:4.3255512696787175] [-4.1115079130832104:4.4842184711878454] [-3.9647818571269484:4.4508847460974632] [-3.89100295863547:3.9200500519799526] [-4.1504780852496399:4.1791626557622426] [-5.2019849670713922:4.2796455429852163] [-4.0900873032991996:3.9611839530888679] [-3.761176989233145:4.4876790339296013] [-3.8583478570604068:4.2529257531039493] [-4.3547100727480617:3.9692998108647304] [-4.0800628370310932:3.9714022583271786] [-3.9075924903649022:4.5177101961425823] [-3.677480217700253:4.4618289106019464] [-4.1863124806639123:3.8507484173396258] [-4.1959844032872473:4.097215898188475] [-4.3400246072859519:4.239496270974028] [-4.244154601836942:4.4090611104719457] [-3.7911520631757578:4.2692459206959219] [-4.5622813540163154:4.3807907042520249] [-4.4789724757403127:4.3406898835667613] [-4.3267387912544368:4.0278854638287243] [-4.5207324940998106:4.4595927401463484] [-4.1282433679784614:3.9175724484109171] [-4.4070371993419108:4.435019684620948] [-4.2780007750983495:4.1496755615349699] [-4.0192160644253967:4.4112770836758655] [-4.1785784763718068:4.2972459833933518] [-4.4896927468239296:4.0904529406136136] [-4.530034890294333:4.3823629481695274] [-4.5691909793018519:4.3088224227505778] [-4.1285145125915363:4.5720553231913295] [-4.6927036836344831:4.285565555670825] [-4.2968709308399564:4.2138641201718405] [-4.4004105747046998:4.1186016438991739] [-4.3645994945420643:4.1988754789497067] [-4.1129405348086143:4.044818813455807] [-4.4639997877898976:4.5199818908854619] [-3.936248755311099:4.2334497118132211] [-4.4108506334697468:4.0724054959691829] [-4.5784429164358738:3.9200487968183508] [-4.7551721139207652:4.2776506623104682] [-4.1136030606426317:3.9874855700131766] [-4.1565555431711783:4.1766861283849641] [-4.1437373593262654:4.1722508847756226] [-4.2558047602023539:3.7045669318050076] [-4.0957694350789682:5.142986225776685] [-4.3581611184862581:4.1059357684476847] [-3.9487158584843618:4.1856750649662402] [-3.9730369336272147:4.009632686563573] [-4.5342379523952498:4.1225465483846024] [-3.8070548927171894:3.7718282007955244] [-4.3943168395865682:3.9364264631414154] [-3.9253527894056228:3.9976215586453598] [-4.3627271006888417:4.0327956565813627] [-3.6953258599981464:4.3792251887275198] [-4.3749200863125592:4.171990931081961] [-4.213000258736403:3.9670908857209004] [-3.9505440878427178:4.3657069686532344] [-4.3341597871539372:4.1946776359114768] [-4.3217399472439926:4.1822530144669479] [-4.3168848920191136:4.0067422096082268] [-4.516516015664191:4.828609862301172] [-4.096041875716792:4.384930854596691] [-3.6093765789742283:4.045688688489304] [-4.1664612531781584:3.8552067301594022] [-3.7319118591666638:4.0227526828191316] [-3.8981462397842543:4.4677455253821954] [-4.0217908932395989:4.4984593558922192] [-4.1085911509805335:4.3487418208247783] [-4.8248544498332073:4.546210836093409] [-4.346410964190488:4.2544798418015093] [-3.9773018603759756:4.1483643623347444] [-4.2259275695289711:3.949258219332231] [-4.4889563410802227:3.9799543244844173] [-3.8247938904656644:4.2763754494590387] [-4.2985219923142468:4.1209869479477845] [-3.9257271069129835:4.2966033554151126] [-4.7377104014677327:4.306557639341249] [-4.2463546562144643:4.362767685624652] [-4.1792501608877046:4.4795335023114875] [-3.9492671308573009:4.2457075665059421] [-5.0310109746820544:4.6832658114377237] [-4.0694102222998643:4.1684508293223654] [-4.0696039646209261:4.2182623521412648] [-4.2485634804207688:4.6634094080144157] [-4.2810339481549837:4.4296387400063439] [-3.7997080484967451:4.5015186133033289] [-4.0798756251428019:4.2627418746834689] [-4.2911925466476912:4.1375777218114091] [-4.1412624759391798:4.1389015241436447] [-4.0428560568226874:4.1870597743394384] [-4.7006839565557392:4.1820727921794703] [-4.1800966333780822:4.5610358296711881] [-4.4483551778616937:4.4692859572235824] [-4.1105390113065514:4.1529758267875687] [-4.5852407786579228:4.0076719321962022] [-3.9238943354334128:4.1910792810270818] [-4.1640012688475725:4.3221249299664679] [-3.8561630620085423:4.308585885337501] [-5.2080867779997648:4.2199228027073961] [-4.2086082155739639:4.6488606787738691] [-4.0976707547251943:4.0041252421714431] [-4.1005753469358597:4.2990677372230381] [-4.47498057357567:4.3888778405549811] [-4.5916338721896999:4.153950306848766] [-4.1582814728897244:4.4400058342167679] [-4.4278601099284076:4.6423382361938632] [-4.1064623302463996:4.1695425719964376] [-4.053129940304002:3.9510808695401689] [-4.2659579000787824:4.2120777634184501] [-3.9430817824700792:4.2500410322758517] [-4.4012832397373964:4.2839430688109967] [-3.4884678463132328:3.9135991935239165] [-4.2307626815614761:4.1999188217340988] [-4.1562534284987747:3.9798667164295662] [-4.2179561257627389:3.9650155313176909] [-3.9996906956581846:4.0140984324689324] [-4.60661023742525:4.4503901003266604] [-4.2699586281147832:4.6628374848557055] [-3.7642291947002744:4.3421662391758256] [-4.2327474991436072:4.2332405494745009] [-4.2475121953273174:4.2119202612313469] [-4.3612381148104085:3.9570657527817832] [-4.8962254016315123:4.1539434690481167] [-4.0552630855366356:4.1290600324667164] [-4.4201123086695251:4.0937017400204523] [-4.6979574290545596:4.8961956736254946] [-4.4995495702191715:4.0781909411529975] [-4.0481286222859429:4.1784146142862841] [-4.6090564650577432:4.2528484216803646] [-4.6062880155084924:4.2322843484831845] [-3.7442811215417047:4.5800512938750551] [-4.6961765682258525:4.2046882368945147] [-4.1641115408844138:4.2629832089327016] [-4.1915767062537315:4.274206602023046] [-4.323383278339362:4.2865874124113947] [-4.2498377800764402:4.1895666685648623] [-4.2540667184669338:4.2753726224801021] [-4.2696984481492937:5.1331761163645444] [-4.3227915964605925:4.2933131574533325] [-4.0720304909322538:4.4038805014304785] [-4.0143922115246857:4.3217785718167034] [-4.3300166003082952:4.5052099905059251] [-5.0644520680027201:3.963738219368381] [-4.4432915793349954:4.0945323793837343] [-4.3287437135965421:4.0339020453350916] [-3.859598049690907:4.4370447610599131] [-4.3641061193926269:4.6219908477776945] [-4.0524952874111708:4.007372932891264] [-4.2301626347336967:4.0862991618943898] [-4.2216826277624753:4.538131170921119] [-4.1068993024459397:4.2647101125808566] [-4.0468584541008452:3.9847978985317449] [-4.0956443139797702:4.2516650917076193] [-4.4347042918506911:4.329761461791823] [-4.7083858720604157:4.6355763358365394] [-4.1529543923526298:3.9971138572246185] [-3.6622502308798874:4.092960140297385] [-4.1823197147568427:4.252976002089861] [-4.3990936047116849:4.5963022611789786] [-4.0872624536720465:4.145470445160151] [-3.9346268226629206:4.3937200852776765] [-4.6607127509936523:4.2547266082810467] [-4.5466541488905383:4.5897197986996972] [-4.2402206810661767:3.8367623729442646] [-4.222376169165166:4.3339099742651763] [-3.746029232718505:3.9384688999802111] [-4.4656287635102245:4.4409579994502257] [-4.3022820851216252:4.1885245531388042] [-4.08425304365141:3.8117357892743189] [-4.2854294607311418:4.1694091845814762] [-4.0336659402670252:4.0815391923510846] [-3.9046642331912151:4.2296138390503586] [-4.5738813579992348:4.3886829333528228] [-4.0361671943683941:4.2820169159675316] [-4.4471006797403483:4.4754508988098625] [-4.5564951767534874:5.1570727456569339] [-4.6731900460057627:4.5339014181795037] [-4.2814831400153421:4.289273735299882] [-4.0637446568532898:4.3321842550136553] [-4.1864334927537925:4.3727987674729842] [-4.2158955429905012:4.4230439834718416] [-4.4135062734655603:4.0257939470130637] [-4.5199125176975796:3.9660950309151248] [-4.2921290862796262:4.2309754309800471] [-4.4103270341839194:4.4948817763325097] [-4.5960862427884557:3.8812033389520582] [-4.7064586914719913:4.1778809575963392] [-4.8418291269573768:4.2926887066002113] [-4.2637218775450254:4.1495891923156476] [-4.3045929707187351:4.4210492564180228] [-4.3075668619181133:4.4921689532288767] [-4.5083293275872531:4.5074846049313093] [-4.1936934048323078:4.1349567331812178] [-4.6205540048556504:3.9908858722186102] [-4.1833956840961131:3.9655268709325178] [-4.6666389073946632:4.8466086104599473] [-4.2939026217200826:3.9219976239519729] [-3.6761513004820681:4.3141302646512516] [-4.0990417620644291:4.1201809323056384] [-4.098917473190701:3.8036507268836774] [-4.2475505918288938:4.307659549923458] [-4.1297642970568695:4.1804034522553781] [-3.9965422917044351:3.9866978186120288] [-3.7558467560279674:4.2357879392114066] [-3.9624990809676217:4.2662652005249351] [-4.3266472156259743:4.2204442401109201] [-3.7452533810223989:4.363951687528127] [-4.1419399922805411:4.1700423932252653] [-4.2518825801317925:4.0328751660523698] [-4.1363836064800124:4.0802412331193079] [-3.8845339696932921:4.0997482700264261] [-4.1308354062554722:4.2157413394635999] [-4.2949088947828153:3.9474787225678103] [-4.0111488605623347:4.4136014653651872] [-3.8019445607251083:3.8659022837974866] [-3.7784363765712015:4.7987217444151149] [-4.343904752101194:4.0195240528095519] [-4.1908906143940516:4.3665454536460357] [-3.7614216204572997:4.2392391614173315] [-4.0237392655281372:4.2094835974493394] [-4.5512413574817741:4.6250903610014094] [-3.2578588771208814:4.4994292780926077] [-4.1068349955173993:4.3487905637719262] [-3.9584961034969939:4.2541624703555012] [-4.5300091133994451:4.201474409274077] [-4.0157871911324499:4.5051853986480621] [-4.1492654400199962:4.2220914981802604] [-4.0769175018612573:4.0226879909043998] [-3.9993741440434927:4.3709439359046938] [-3.9918775619418572:4.3737826791692731] [-4.0780406068517854:4.1814729313083285] [-4.0649655388128503:4.3563906507406198] [-4.2199588685322746:4.2947084186134132] [-3.9019840392656868:4.3213284958788654] [-4.1009677432794964:3.8089008480184896] [-3.8686155377753924:4.1246289272206376] [-4.3247552666228852:4.0370425207254037] [-4.2983314338003753:3.8103992548043721] [-4.188031896859461:4.1297217103777442] [-4.5604174418618779:3.7373425417082551] [-4.6619768358648077:4.1517196981930038] [-4.1541728807151008:4.1448162660510963] [-3.8362695911878317:4.1861387119006608] [-4.0936462624420109:4.0398157845854774] [-4.5399177995594826:4.4387613193630342] [-4.0478226770863746:4.0868172966739627] [-4.4716923406515914:4.1706436353744456] [-4.3491864085119563:4.2387289789321718] [-3.86752270583577:4.173235786941671] [-4.277477310970597:4.1006184083203525] [-4.0823551255567416:3.853834453693576] [-4.1499783065684399:3.8207015115397742] [-3.8676825865096536:4.1818017549369344] [-3.9947793941748779:4.7491968907455] [-4.5262363551715001:4.8844214015910001] [-4.3086529592968574:4.3909586601806554] [-4.1672718582802979:4.4346278814533298] [-4.3702376398966019:4.667851788627293] [-4.3998060138852448:4.9105794453334211] [-3.7879185592820717:4.3117236168120092] [-3.7716024203880871:4.2471873557769291] [-5.1183001670548398:5.4034994832987477] [-4.0768721311579217:4.1170293294393554] [-3.9610138187182722:4.3503965529304285] [-4.5265657204822247:4.1169140448391639] [-4.1322433503134732:4.0146112828115879] [-4.05147902889997:4.3974145761360699] [-4.0997876033341178:4.2935335552487661]
tree_sizes=2845 2941 2964 2975 2971 2969 2959 2970 2979 2973 2966 2979 2984 2960 2975 2980 2969 2980 2975 2983 2983 2972 2976 2976 2999 2987 3015 3008 2987 2969 2988 2979 2972 2956 2996 2958 2989 2970 2983 2988 2988 2963 2987 2989 2972 2999 2974 2991 3010 2947 2943 2983 2981 2996 2994 2978 2962 2942 2951 2995 3000 2970 2974 3003 2972 2975 2947 2974 2986 2968 2999 2973 2971 2981 2954 2960 2988 2981 2990 2961 2972 3002 2984 2980 2991 2967 2947 2979 2960 2966 2971 2979 2963 2982 2964 2973 2979 2947 2973 2983 2968 2984 2992 3003 2992 2968 2968 2957 2963 2975 2961 2997 2995 2943 2987 2942 2946 2986 2976 2965 2999 3005 2976 2965 2987 2968 2974 2917 2975 3017 2991 2990 3022 2979 2982 2989 2963 2939 2984 2977 3001 2991 2999 2978 2961 2940 3006 2961 2965 2933 2984 2970 2978 2979 2957 2982 2958 2994 2975 2978 2979 2968 2966 2951 3001 2981 2962 2980 2974 2959 2989 2954 2995 2973 2990 2964 2969 2915 2985 3003 2935 2988 3012 3011 2941 2953 2951 2940 2979 3003 2994 2988 2999 2999 2992 3004 2999 2933 2961 2959 2960 2963 2943 2967 2948 2985 2924 2964 2988 2961 2976 2962 2990 2961 2981 3009 2975 2973 2994 3022 2970 3003 2949 2963 2962 2960 2991 2973 2986 2961 2968 2981 2973 2974 2960 2979 2959 2956 2970 2990 2997 3001 3003 2950 2970 2975 3000 2965 2976 2971 2911 2965 2978 2975 2995 2964 2994 2982 2943 2974 2969 2985 2977 2946 2911 2963 2966 2959 2933 2982 2977 2992 2949 2992 2965 2982 2912 2952 2935 2904 2971 2979 2902 2804 2979 2940 2980 3010 2839 2949 2997 2880 2255 2983 2149 2909 2501 2200 2744 2535 2802 2252 2080 2599 2263 2335 1960 1807 1263 1687 1961 1678 2529 2168 1951 2345 2092 1877 1986 1251 1998 1462 1968 1641 1619 2341 1635 1686 1734 1332 1519 2074 1058 1530 1450 1800 1412 1607 1453 991 1911 1903 1636 1698 1081 1165 1353 1167 1083 1083 1243 1450 1235 1723 1132 1460 1262 988 890 880 1625 1816 993 1170 908 1531 1620 1176 1159 1611 1542 1280 1078 708 1147 1359 1054 1239 1224 1260 1608 1241 900 711 981 1790 1252 1352 1085 991 1215 1165 1154 1067 973 900 525 878 987 903 1439 1249 879 984 695 1226 980 1155 796 977 1439 990 802 1177 628 1248 1320 1082 710 902 594 997 713 625 718 900 797 613 530 597 1405 1455 786 718 1070 1161 697 902 788 621 1168 809 716 709 809 902 1079 1064 605 626 623 718 812 808 617 966 1077 896 805 709 986 899 717 710 707 803 893 621 722 532 794 620 625 620 718 717 872 711 710 346 986 628 532 625 440 999 976 720 435 705 1086 621 704 621 441 523 522 791 522 431 534 436 528 438 526 902 620 621 614 346 716 716 709 435 343 532 721 440 804 625 526 587 526 712 435 814 530 622 529 535 809 716 434 435 411 529 526 441 723 527 720 622 615 433 341 778 803 537 529 342 876 714 531 442 530 805 713 714 532 521 728 904 722 624 703 625 524 533 346 342 615 535 433 531 440 536 440 344 439 344 621 603 438 532 341 777 533 435 629 611 528 898 442 434 439 627 719 344 438 345 698 617 425 518 429 800 429 620 440 435 627 998 531 343 343 621 535 532 438 432 539 534 439 345 342 626 534 624 716 536 525 889 430 521 331 531 437 533 342 439 619 531 431 440 341 525 432 518

Tree=0
num_leaves=31
num_cat=0
split_feature=1353 652 661 661 652 1349 661 1039 1049 1039 1039 560 1349 1096 580 1273 1200 1349 1349 1200 1213 1049 1200 1083 1039 1083 1096 580 1039 1381
split_gain=7048.52 3231.4 2968.19 2183.09 1800.05 1505.36 1176.59 943.995 921.525 909.748 854.929 780.987 734.973 712.8 680.375 628.288 552.065 514.74 495.477 489.839 457.149 449.063 434.152 417.405 408.587 401.496 379.512 366.993 332.264 326.762
threshold=-0.057942754166672453 0.34118528421127658 -0.12828106865715094 -0.089372953444621192 -0.40753639128908731 -0.17652033463579073 0.86515302871852517 -0.85195772161108152 -0.16397272202366903 -0.14504074750651549 -0.39116038640567347 0.59870699511076308 -0.3539682275414508 1.0000000180025095e-35 -0.075053167959805947 -0.40809861010440224 0.20178312649340555 -0.23432435264381027 -0.63945151937061151 0.076688441316108136 0.42869634821419006 -0.28264451731456181 -1.3068092024694247 0.08060551530337462 0.76839983543491852 0.19785628563773353 0.12354167177190523 -0.66897162535595278 -0.55703251815356392 -0.017268319291232657
decision_type=2 2 2 2 2 2 2 2 2 2 2 2 2 2 2 2 2 2 2 2 2 2 2 2 2 2 2 2 2 2
left_child=2 3 4 8 15 11 13 -5 18 22 26 29 -9 23 -12 -1 -11 -17 -2 28 -8 -14 -6 -3 27 -22 -7 -15 -10 -4
right_child=1 6 5 7 9 10 20 12 19 16 14 -13 21 24 -16 17 -18 -19 -20 -21 25 -23 -24 -25 -26 -27 -28 -29 -30 -31
leaf_value=14.485646456222819 14.385449258775912 14.508022337771001 14.32773982728569 14.557827570148431 14.452836781381405 14.43402871019507 14.566206299879342 14.348478306521525 14.601686106409078 14.407610802187548 14.313732455148029 14.43203137552484 14.382533758748243 14.585717863968178 14.422425279287822 14.30237992103126 14.542201487629537 14.430059482272181 14.522794409561637 14.639017481502009 14.34632492340797 14.479699598303034 14.616950359576908 14.612490582371953 14.57573153518651 14.517081909837447 14.550958480263441 14.705505910342117 14.501626129062322 14.240730266947185
leaf_weight=708 406 664 908 559 181 603 579 1046 589 610 923 443 679 343 1595 612 604 684 733 952 251 1569 1150 952 493 294 509 1366 794 961
leaf_count=708 406 664 908 559 181 603 579 1046 589 610 923 443 679 343 1595 612 604 684 733 952 251 1569 1150 952 493 294 509 1366 794 961
internal_value=14.4808 14.5322 14.4206 14.49 14.4813 14.3741 14.5947 14.4383 14.5475 14.5372 14.4145 14.3109 14.4178 14.6212 14.3823 14.4106 14.475 14.3692 14.4742 14.5835 14.5042 14.4503 14.5943 14.57 14.6585 14.4392 14.4871 14.6819 14.5447 14.2825
internal_weight=22760 12269 10491 7327 4549 5942 4942 3853 3474 2545 3630 2312 3294 3818 2518 2004 1214 1296 1139 2335 1124 2248 1331 1616 2202 545 1112 1709 1383 1869
internal_count=22760 12269 10491 7327 4549 5942 4942 3853 3474 2545 3630 2312 3294 3818 2518 2004 1214 1296 1139 2335 1124 2248 1331 1616 2202 545 1112 1709 1383 1869
is_linear=0
shrinkage=1


Tree=1
num_leaves=31
num_cat=0
split_feature=60 1279 1279 652 1200 580 1279 1383 1200 652 1279 1200 1055 1279 1383 60 510 1200 1049 652 580 1383 1039 487 513 1255 661 510 661 683
split_gain=11036.2 6328.74 3443.81 2139.33 1851.89 1543.65 1462.17 1005.59 896.612 831.046 775.327 957.895 691.18 575.986 510.585 506.371 483.146 462.502 455.308 401.273 385.371 369.52 360.629 350.554 318.772 343.578 315.409 310.527 297.853 297.565
threshold=-0.05060760899318225 0.09059142247908368 -0.038636973010262414 0.19576165117041985 -0.13348445903004266 -0.32825776802238971 -0.6865650577100213 0.24963474251145701 0.26182051646696219 -0.40753639128908731 1.1654574998215896 0.48217632193062449 0.27651314222467144 1.2073341081070319 0.64202068573339355 0.83671230074652969 0.5901274688485002 -0.93380588080587923 0.25339323104800165 -0.66299173234307995 -0.66897162535595278 0.090418082818568987 -0.69341100369528219 -0.94754603021078121 -0.14234331780962581 -0.41008219561534731 0.64979538047658858 0.46254920448554654 -0.64032291654779117 0.56572281236454047
decision_type=2 2 2 2 2 2 2 2 2 2 2 2 2 2 2 2 2 2 2 2 2 2 2 2 2 2 2 2 2 2
left_child=1 4 9 7 6 24 17 18 14 28 11 -7 19 -10 23 26 21 -1 -4 -6 -11 -8 -19 -5 25 -3 -9 -13 -2 -25
right_child=2 5 3 8 12 10 16 15 13 20 -12 27 -14 -15 -16 -17 -18 22 -20 -21 -22 -23 -24 29 -26 -27 -28 -29 -30 -31
leaf_value=-0.035063491904033094 0.12312112397074784 -0.25331966635696163 -0.024555259154263032 -0.102949986649238 0.015136909881784094 -0.13708602146627702 -0.093387266567949212 -0.092314344375778221 0.15046925251324511 0.0932654700231038 -0.20632189353857597 -0.040739459362928526 -0.0061212928668431645 0.035873406476426117 -0.083978814451023939 -0.013498587255315093 0 0.1350924013813804 0.072695957056210181 0.14347044144928595 0.16900436503359473 -0.19706139067956618 0.0082903515789714364 0.12023596285543836 -0.28352520112098628 -0.098956551439776413 -0.20975842691085145 0.098710296124797967 0.02952242762911263 -0.012839777562379216
leaf_weight=1061 532 346 1288 121 334 1448 839 676 1470 934 792 509 775 645 398 527 299 386 763 1005 2870 628 554 519 927 277 372 230 997 238
leaf_count=1061 532 346 1288 121 334 1448 839 676 1470 934 792 509 775 645 398 527 299 386 763 1005 2870 628 554 519 927 277 372 230 997 238
internal_value=0.000954332 -0.0748616 0.0649029 0.0187725 -0.00633828 -0.163688 -0.0484459 -0.0345213 0.0758939 0.125476 -0.121104 -0.0898546 0.0684331 0.115825 0.00923867 -0.094597 -0.114732 0.00986161 0.0114155 0.111902 0.150598 -0.138317 0.0610672 0.0521574 -0.244948 -0.186023 -0.134799 0.0021362 0.062534 0.0778147
internal_weight=22760 10410 12350 7017 5881 4529 3767 3626 3391 5333 2979 2187 2114 2115 1276 1575 1766 2001 2051 1339 3804 1467 940 878 1550 623 1048 739 1529 757
internal_count=22760 10410 12350 7017 5881 4529 3767 3626 3391 5333 2979 2187 2114 2115 1276 1575 1766 2001 2051 1339 3804 1467 940 878 1550 623 1048 739 1529 757
is_linear=0
shrinkage=0.1


Tree=2
num_leaves=31
num_cat=0
split_feature=60 661 661 652 652 1083 1353 1096 1039 513 513 1083 1096 1349 504 580 1195 510 652 563 1349 513 580 1353 563 36 1039 1096 737 1349
split_gain=8944.79 2921.72 2465.43 2041.98 1355.17 974.697 893.438 742.362 710.292 650.386 649.485 648.122 618.559 544.654 500.292 476.28 416.647 399 391.944 387.298 382.43 354.487 350.517 324.147 319.331 300.773 299.043 297.64 292.764 287.321
threshold=-0.05060760899318225 -0.098382200267407557 -0.22040717426343945 0.24420702280108555 -0.23322226480222222 0.26169666335056746 0.4709685601902821 -0.20770074900178825 -0.90978665174013951 0.33440368432723849 -0.48217754819336606 -0.1662008836481467 -0.13785955513652429 -0.1601539392115873 0.37327666273591881 -0.65874619413134072 0.88412786020473788 0.66342076466178035 -0.36309921824052521 1.0000000180025095e-35 -0.088586653339236113 0.93741250948075971 0.36439060151784813 -0.35794530071597813 1.212949934785603 -0.16103165282266643 0.27337429229691218 0.54224992749558554 0.027994929126022295 -0.1601539392115873
decision_type=2 2 2 2 2 2 2 2 2 2 2 2 2 2 2 2 2 2 2 2 2 2 2 2 2 2 2 2 2 2
left_child=1 4 7 6 10 9 8 26 -4 15 -1 14 23 -10 29 -3 24 -7 -9 -17 -12 -8 -11 -5 28 -15 -2 -13 -14 -6
right_child=2 5 3 12 11 17 21 18 13 22 20 27 16 25 -16 19 -18 -19 -20 -21 -22 -23 -24 -25 -26 -27 -28 -29 -30 -31
leaf_value=-0.001871819310968656 0.094065334733818465 -0.17502385068228216 0.070807150647162129 -0.055392190573899817 -0.12065250502087857 -0.083617127055192919 0.073677182833004437 0.088378540945664663 -0.14091174244581597 -0.23493523729635246 -0.14702644626573966 0.055112084017218677 0.10478684012870132 -0.092511756904003095 0.075148717159790893 -0.0256878540715899 0.034353925606802754 0.025969714196648876 0.17035268608099022 -0.13068630150129565 -0.041500758176747171 -0.054813676337089494 -0.13313488360608414 0.053864602909316883 0.019064807411280124 -0.0040294998820728746 0.004831765605933451 0.15902770057736526 0.19562497204663049 0.0019782023223122304
leaf_weight=1016 1064 769 377 367 400 1233 976 863 845 958 903 924 757 663 399 751 573 445 2084 685 582 269 586 999 221 940 599 410 753 349
leaf_count=1016 1064 769 377 367 400 1233 976 863 845 958 903 924 757 663 399 751 573 445 2084 685 582 269 586 999 221 940 599 410 753 349
internal_value=0.000843297 -0.0674096 0.0584168 0.0238418 -0.0120002 -0.118171 -0.0248356 0.116323 -0.0560072 -0.146598 -0.0640036 0.0402093 0.0779449 -0.075783 -0.0144985 -0.111041 0.109599 -0.0542611 0.146593 -0.076234 -0.106117 0.0454706 -0.196844 0.0241073 0.13415 -0.0410069 0.0622688 0.0876147 0.150615 -0.0629933
internal_weight=22760 10410 12350 7740 4983 5427 4070 4610 2825 3749 2501 2482 3670 2448 1148 2205 2304 1678 2947 1436 1485 1245 1544 1366 1731 1603 1663 1334 1510 749
internal_count=22760 10410 12350 7740 4983 5427 4070 4610 2825 3749 2501 2482 3670 2448 1148 2205 2304 1678 2947 1436 1485 1245 1544 1366 1731 1603 1663 1334 1510 749
is_linear=0
shrinkage=0.1


Tree=3
num_leaves=31
num_cat=0
split_feature=60 1279 1279 580 1200 20 1055 1279 652 1279 1273 60 652 652 1279 510 580 1383 60 1039 580 1383 1383 580 1200 1200 1383 1055 661 563
split_gain=7382.99 5184.4 2661.95 1359.12 1355.19 1304.17 957.262 824.657 775.263 731.47 657.898 613.482 557.674 523.467 483.035 468.99 421.827 399.066 394.865 389.756 386.218 385.898 374.867 350.347 348.648 347.734 332.006 325.312 322.667 286.21
threshold=0.010347296386865228 0.09059142247908368 0.23514823762898598 -0.21693545794124588 -0.63191349138053676 -1.0000000180025095e-35 -0.19619202074276323 -1.0922960333157714 -0.083561218681024854 1.4680659506902694 -0.24530317389517936 0.90586549083398926 0.53375154181507423 0.85328898699589417 -0.72245624206821157 0.40085463139370631 -0.18148352344002183 0.42620436207238527 -0.84740229742602791 -0.45642678246106921 -0.64739353690692514 1.1270091290053592 0.50147881981953668 1.7230224032139847 -0.12275305758344533 0.53593611371021843 0.78326552459739995 -0.48547204759995061 -0.11887936729807633 -0.080913377053365695
decision_type=2 2 2 2 2 2 2 2 2 2 2 2 2 2 2 2 2 2 2 2 2 2 2 2 2 2 2 2 2 2
left_child=1 4 8 25 7 11 26 -1 19 12 18 17 22 14 -8 -12 27 -4 -5 -2 -16 29 -7 -11 -21 -3 -6 -9 -27 -10
right_child=2 3 5 10 6 9 13 16 21 23 15 -13 -14 -15 20 -17 -18 -19 -20 24 -22 -23 -24 -25 -26 28 -28 -29 -30 -31
leaf_value=0.020539961849749808 0.10615547551963633 -0.22013475583140119 -0.065585273189872909 -0.10442611285656887 0.10905915481511033 0.063301252796253149 0.054320722542287127 -0.065968342895693241 0.17364921957074994 -0.10059642503581152 -0.15947712610706941 0.011585377221874232 0.12010665113382478 0.10090040293217842 -0.1445688681975861 -0.057929239277126038 -0.023155123892374219 -0.19946114292786921 0.024194360783743995 -0.027605906564230738 -0.024767583942982521 0.039349147890830737 -0.045124008682019219 0.041513830838170285 0.071779179338969476 0.017356365752907898 -0.012062720338951132 -0.17540315623689881 -0.17844534709982507 0.11272912825367053
leaf_weight=935 1048 1528 553 378 1549 861 589 491 1698 461 1299 527 1074 405 347 733 561 394 630 657 1252 408 499 270 747 128 256 675 220 1587
leaf_count=935 1048 1528 553 378 1549 861 589 491 1698 461 1299 527 1074 405 347 733 561 394 630 657 1252 408 499 270 747 128 256 675 220 1587
internal_value=0.00075708 -0.0532625 0.0607928 -0.132089 0.00157672 0.00349374 0.0357262 -0.0546399 0.103953 0.0397765 -0.0903842 -0.0740229 0.0661973 -0.00302238 -0.0225614 -0.123185 -0.0956083 -0.122114 -0.0236545 0.0599159 -0.0512262 0.133008 0.0231438 -0.0474548 0.0249433 -0.199236 0.0916096 -0.12994 -0.10531 0.144457
internal_weight=22760 11976 10784 4916 7060 4639 4398 2662 6145 3165 3040 1474 2434 2593 2188 2032 1727 947 1008 2452 1599 3693 1360 731 1404 1876 1805 1166 348 3285
internal_count=22760 11976 10784 4916 7060 4639 4398 2662 6145 3165 3040 1474 2434 2593 2188 2032 1727 947 1008 2452 1599 3693 1360 731 1404 1876 1805 1166 348 3285
is_linear=0
shrinkage=0.1


Tree=4
num_leaves=31
num_cat=0
split_feature=60 1279 1279 1096 1353 1383 1096 580 1383 1363 652 60 1279 1255 560 487 30 1039 661 580 661 652 510 1213 1255 919 1279 661 30 36
split_gain=6051.92 3996.94 2270.53 1453.75 1451.32 1067.14 977.843 919.617 665.222 663.041 539.594 506.644 456.318 425.174 416.674 392.668 392.099 385.523 383.849 365.771 357.891 337.081 335.514 325.203 272.735 256.397 249.983 248.578 246.661 240.882
threshold=-0.13192157867583523 0.2467004402318998 -0.047848246340045753 0.067750099948610518 0.5858156928827164 0.49166450906262221 -0.24678979592171055 0.4376635013448294 -0.210970862586389 -0.59041038511572619 0.19576165117041985 0.60753827562170692 1.4369664468533196 -0.067967448872610539 0.7232906354799874 -0.32686245818976856 -0.49305664935992599 -0.53441366456171957 0.35910399501526541 -0.45137617391531382 0.19779115833284219 -0.79259355200088966 -0.21775528623245666 0.61501741246692421 -0.28806009451274545 1.0000000180025095e-35 0.66960704821636596 -0.45752629662567218 0.32802747232852286 0.16100329903120389
decision_type=2 2 2 2 2 2 2 2 2 2 2 2 2 2 2 2 2 2 2 2 2 2 2 2 2 2 2 2 2 2
left_child=1 3 6 8 5 10 19 14 15 21 18 26 29 25 24 -1 -10 -8 -4 -2 -6 -5 -19 -12 -3 -11 28 -15 -7 -9
right_child=2 7 4 9 20 11 17 12 16 13 23 -13 -14 27 -16 -17 -18 22 -20 -21 -22 -23 -24 -25 -26 -27 -28 -29 -30 -31
leaf_value=-0.05490246286426273 -0.013569668215346635 -0.23514966909463209 0.011524836428939186 0.0074427962168084304 0.11504318422319644 -0.12491754116101353 0.16456673226998836 -0.080633300992541887 -0.14324808627035274 0.0071850320639024528 0.09130661276115716 -0.021573318118709724 -0.17735311928597486 0.14425141734366373 -0.073375631868435515 0.043407011815668112 -0.050764850796421679 0.035926449654068215 -0.081465756545514204 0.071833042019329982 0.034904217069333519 0.14047608541518139 0.12469728259669527 -0.012959393388012417 -0.15861634415602882 -0.10516402072197682 -0.1803720058109014 0.015382189381849563 0.020499893148844862 0.019841873001823405
leaf_weight=771 803 973 1247 260 1143 357 1500 541 813 433 992 798 309 244 344 853 1113 650 681 1294 1136 807 1354 416 1076 368 497 410 164 413
leaf_count=771 803 973 1247 260 1143 357 1500 541 813 433 992 798 309 244 344 853 1113 650 681 1294 1136 807 1354 416 1076 368 497 410 164 413
internal_value=0.00067225 -0.0589822 0.0452431 -0.00914444 0.00892424 -0.0203942 0.0933187 -0.141567 -0.0504439 0.048785 0.0130603 -0.0820719 -0.0717046 0.00448738 -0.178141 -0.00296839 -0.0901712 0.125697 -0.0211122 0.03891 0.0753816 0.108602 0.0962181 0.0601715 -0.195397 -0.0439417 -0.128871 0.0645172 -0.0782838 -0.0366627
internal_weight=22760 9728 13032 6072 7431 5152 5601 3656 3550 2522 3336 1816 1263 1455 2393 1624 1926 3504 1928 2097 2279 1067 2004 1408 2049 801 1018 654 521 954
internal_count=22760 9728 13032 6072 7431 5152 5601 3656 3550 2522 3336 1816 1263 1455 2393 1624 1926 3504 1928 2097 2279 1067 2004 1408 2049 801 1018 654 521 954
is_linear=0
shrinkage=0.1


Tree=5
num_leaves=31
num_cat=0
split_feature=60 1279 1279 20 1200 1055 1200 1383 1055 1200 1349 652 1195 1279 60 1096 510 1096 652 1383 63 1279 60 683 1200 1349 1363 513 487 1055
split_gain=5176.35 3897.59 2065.9 1601.67 1085.54 1023.76 1012.52 926.688 704.189 692.715 624.091 620.456 617.889 466.157 427.449 425.508 398.762 365.746 356.979 351.094 350.741 315.157 302.878 295.111 304.308 293.582 290.653 287.294 271.004 261.233
threshold=0.12125457826828456 0.23514823762898598 0.64375430477484863 -0.28697342523760688 0.85465711664856669 -0.19619202074276323 0.1450037599792672 0.25960571343545308 -0.68554967296522762 0.89079281011819378 -0.51478194582873404 0.15579186099838924 -0.40772472386700986 1.1862186876502534 1.2333544186104857 -0.058540587229421064 -0.14497852361899954 -0.18603544611652179 0.70850023586976774 0.6076496080488748 0.14013009650250344 0.95642427312304201 -1.2805491407092224 -0.56219364460692167 0.85465711664856669 -0.66320817024737699 0.35751252411551715 1.349571606997696 -0.099436004223047977 -0.14696884424421783
decision_type=2 2 2 2 2 2 2 2 2 2 2 2 2 2 2 2 2 2 2 2 2 2 2 2 2 2 2 2 2 2
left_child=1 3 6 7 10 15 12 8 -1 14 -3 22 29 -6 26 -5 -12 -8 27 -14 -10 28 -7 -13 -25 -9 -4 -11 -18 -2
right_child=2 4 9 5 13 11 17 25 20 18 16 23 19 -15 -16 -17 21 -19 -20 -21 -22 -23 -24 24 -26 -27 -28 -29 -30 -31
leaf_value=0.054580710719057769 0.12872172462268416 -0.20207298258309314 -0.035918700149651053 0.045122264392090834 0.031870022439233502 -0.13625722184972189 0.079308472405090105 -0.18164352054673072 -0.084851935980808674 0.036932177081862541 -0.15539440573076316 0.1579036617773224 0.039212351801797968 -0.10311394243790449 0.032343831350098266 0.14756416944568851 -0.098854494406890328 0.15029353693235448 0.099033380807685173 -0.047845664376988839 0.01512929702282371 -0.14030394196042636 -0.017619624734720868 0.00052605300743785042 0.14933900054650648 -0.079384529927116365 -0.1378809925838452 -0.09175183707396431 0.013810069862006506 0.042514561927168952
leaf_weight=935 947 1170 519 765 600 256 1204 482 1132 486 1154 243 1544 439 344 912 381 2028 520 656 496 460 1402 672 173 753 653 266 467 596
leaf_count=935 947 1170 519 765 600 256 1204 482 1132 486 1154 243 1544 439 344 912 381 2028 520 656 496 460 1402 672 173 753 653 266 467 596
internal_value=-0.00100773 -0.0426236 0.0538921 -0.00111042 -0.115548 0.039721 0.0829816 -0.0487885 -0.0142478 -0.0187118 -0.141351 0.00192248 0.0473219 -0.0247718 -0.0644498 0.10124 -0.112151 0.12407 0.0354229 0.0130063 -0.0541029 -0.0734388 -0.0363809 0.0607113 0.0318641 -0.119928 -0.0932928 -0.00804588 -0.0363345 0.0958451
internal_weight=22655 12892 9763 8221 4671 4423 6975 3798 2563 2788 3632 2746 3743 1039 1516 1677 2462 3232 1272 2200 1628 1308 1658 1088 845 1235 1172 752 848 1543
internal_count=22655 12892 9763 8221 4671 4423 6975 3798 2563 2788 3632 2746 3743 1039 1516 1677 2462 3232 1272 2200 1628 1308 1658 1088 845 1235 1172 752 848 1543
is_linear=0
shrinkage=0.1


Tree=6
num_leaves=31
num_cat=0
split_feature=1279 1200 580 1039 20 1039 1200 1055 1279 20 1096 1096 580 1353 1083 510 580 1096 580 228 1279 487 510 1244 1353 652 560 652 1083 563
split_gain=4021.93 3113.55 2283.88 1809.35 1118.66 1015.37 881.498 879.149 646.234 701.207 594.655 588.193 492.19 490.419 476.859 475.579 382.168 377.491 369.764 354.711 335.167 333.768 293.651 283.632 263.055 258.124 253.837 251.743 249.803 248.185
threshold=0.46692384104894963 1.0000000180025095e-35 0.55127208807638495 -0.92391183868259985 -0.57216732877111454 0.28154936736786035 0.85465711664856669 -0.18733443236204328 1.5002809292398298 1.0132099785205935 -0.24678979592171055 -1.0000000180025095e-35 -0.12725794634813326 0.064835601058289991 0.44746139684131009 0.26926898695202339 1.6350974564314833 0.10391879769827785 -0.66897162535595278 0.32385758825790606 0.91773423028026568 -0.090939789325957962 0.8459918887865262 0.40920937869506324 -0.06672223943343232 -0.98614003690364449 0.26292459977562022 -0.033015412505828907 0.25226231207036204 1.2346711203528493
decision_type=2 2 2 2 2 2 2 2 2 2 2 2 2 2 2 2 2 2 2 2 2 2 2 2 2 2 2 2 2 2
left_child=1 3 6 11 13 10 14 17 9 19 24 18 28 -5 22 -7 -10 -6 -1 27 -8 -16 26 -12 -3 -13 -2 -4 -9 -11
right_child=2 5 8 4 7 15 20 12 16 29 23 25 -14 -15 21 -17 -18 -19 -20 -21 -22 -23 -24 -25 -26 -27 -28 -29 -30 -31
leaf_value=-0.044986012710583168 -0.19734412632667184 0.0093243450278726724 -0.026780135343384193 -0.12363807561619636 0.0029331297541917494 -0.01327985625199106 0.042350940294989252 -0.1231193583869015 -0.12285506649967851 0.1482818515820804 0.16257135219225682 0.0067720257857103562 -0.0022694757043529657 -0.028833561743103177 -0.14050855158319395 0.07887107316702531 0.0030661840329085973 0.094159900258094786 0.064206181320364514 -0.070191005149250682 -0.079014873868100965 0 -0.062955812275498707 0.083256971095897692 0.096900101146276618 0.13209102408441553 -0.11851901441296885 0.085154937787404017 -0.027349337843623475 0.015526808629145371
leaf_weight=560 1455 598 365 1556 947 1226 392 781 531 524 1865 205 1432 866 311 1017 426 890 684 564 527 376 291 644 849 1054 641 430 443 205
leaf_count=560 1455 598 365 1556 947 1226 392 781 531 524 1865 205 1432 866 311 1017 426 890 684 564 527 376 291 644 849 1054 641 430 443 205
internal_value=-0.000900681 0.027362 -0.0636753 -0.00881694 -0.0352333 0.0823937 -0.113403 -0.00557356 0.00140184 0.0327468 0.112901 0.0639334 -0.0424482 -0.0899982 -0.13912 0.0283127 -0.0663915 0.0474574 0.0146575 -0.00938243 -0.0267238 -0.0642221 -0.160395 0.142495 0.0611157 0.112125 -0.173612 0.0331978 -0.0889665 0.111779
internal_weight=22655 15617 7038 9418 6915 6199 3993 4493 3045 2088 3956 2503 2656 2422 3074 2243 957 1837 1244 1359 919 687 2387 2509 1447 1259 2096 795 1224 729
internal_count=22655 15617 7038 9418 6915 6199 3993 4493 3045 2088 3956 2503 2656 2422 3074 2243 957 1837 1244 1359 919 687 2387 2509 1447 1259 2096 795 1224 729
is_linear=0
shrinkage=0.1


Tree=7
num_leaves=31
num_cat=0
split_feature=60 1279 1279 20 20 1279 1200 563 563 1039 20 1200 1055 1353 60 661 1096 1096 652 1279 1349 1200 1213 1083 487 1008 560 563 61 1096
split_gain=3981.31 2565.07 1593.82 1579.01 1067.24 914.969 868.353 807.987 759.265 589.207 529.488 467.136 451.243 433.225 415.027 378.542 375.293 337.113 330.663 309.945 281.011 267.61 260.593 260.592 239.386 232.309 226.404 215.115 211.233 207.159
threshold=-0.67277803760875254 -0.020107320995955021 -0.33094747181825651 0.60705630468806282 -0.16244389505700649 0.84672811298677875 0.05829875302839916 0.99771732326051998 0.91807825101110174 -1.0187461395759958 -0.019836855759481974 -0.32479766541323374 0.08888323001838988 0.21839648849466817 0.78568642387583087 -0.14934184226974334 -0.077953083452601393 0.056642101935623392 0.28627545840305141 1.3331857007243091 -0.54785028298341321 -0.61836241559583216 -0.36550274646533737 0.19785628563773353 -0.74954618585111144 -1.324485785986635 0.92328928543650302 0.17832541384543724 -1.3014176173807528 0.17519005369104509
decision_type=2 2 2 2 2 2 2 2 2 2 2 2 2 2 2 2 2 2 2 2 2 2 2 2 2 2 2 2 2 2
left_child=2 4 11 5 9 6 12 13 18 29 25 17 20 19 -7 -12 -8 -1 24 -5 -3 -11 -13 -9 -6 -4 -17 -18 -19 -2
right_child=1 3 10 7 8 14 16 23 -10 21 15 22 -14 -15 -16 26 27 28 -20 -21 -22 -23 -24 -25 -26 -27 -28 -29 -30 -31
leaf_value=-0.08282471863780444 0.043811450641140906 -0.091920184587462372 -0.034207636773741494 0.059025569082156538 0.015850518941278421 -0.1356423489573407 -0.017580099341813739 -0.075159878766463725 -0.0027799793449640683 -0.039154529681562314 -0.014563723226908659 0.12379347660655125 -0.1144347039716275 0.11573677375909482 -0.027684922205427523 -0.13566129495675663 0.11558491291364817 0.14198062401435793 0.15319692564054518 -0.066294475998550359 0.00044192424847170047 0.026204041484480991 0.0051243683582797676 0.019742293921065239 0.10741787813116487 -0.17328626814088546 -7.6863502890065134e-05 0.017633171805658335 -0.01335245715039815 0.12795370791081637
leaf_weight=874 650 447 142 789 370 1244 708 567 594 1048 593 303 858 1241 518 871 589 107 1568 258 1197 1551 495 575 1498 1463 152 384 425 576
leaf_count=874 650 447 142 789 370 1244 708 567 594 1048 593 303 858 1241 518 871 589 107 1568 258 1197 1551 495 575 1498 1463 152 384 425 576
internal_value=-0.000810976 0.0226904 -0.0755254 -0.0125828 0.0648454 -0.0437914 -0.0181651 0.0413575 0.10079 0.0268108 -0.120354 -0.00973538 -0.0555735 0.0756827 -0.104255 -0.0791777 0.0372164 -0.0445881 0.118831 0.0276002 -0.0244485 0 0.0510048 -0.0269883 0.0895846 -0.161351 -0.116043 0.077556 0.0173678 0.0838944
internal_weight=22655 17230 5425 9375 7855 5945 4183 3430 4030 3825 3221 2204 2502 2288 1762 1616 1681 1406 3436 1047 1644 2599 798 1142 1868 1605 1023 973 532 1226
internal_count=22655 17230 5425 9375 7855 5945 4183 3430 4030 3825 3221 2204 2502 2288 1762 1616 1681 1406 3436 1047 1644 2599 798 1142 1868 1605 1023 973 532 1226
is_linear=0
shrinkage=0.1


Tree=8
num_leaves=31
num_cat=0
split_feature=60 1279 1349 1279 1363 1200 737 1255 1039 1039 63 20 737 1049 1055 563 580 1353 1055 1273 1279 563 1151 20 487 1049 487 188 580 580
split_gain=3371.82 2507.97 1364.32 1144.56 955.732 834.985 689.025 630.286 590.932 543.275 514.625 471.863 447.227 422.645 412.356 393.562 362.497 315.572 303.445 293.387 287.349 282.753 275.642 267.642 262.055 263.212 234.005 218.579 214.714 211.187
threshold=0.20663101654797653 -0.33094747181825651 -0.54785028298341321 0.94375663475962457 -0.373295810580965 -0.93380588080587923 -0.019791063620173893 -0.098604865437210656 0.43597016469032518 -0.61749979442510516 0.16030977540116673 -0.22594391363100691 -0.13905204453341571 -0.100846069868244 -0.12832574423919821 0.54888255718929979 -0.28282615156433727 0.10152313693735883 0.41301925341897294 -0.18593499462067756 0.548811080040991 0.1470323488887236 0.69267623005695889 0.1475919730882426 -0.51107361273833851 0.098525883337944251 -0.50012843211943381 -0.58964919073611222 -0.27413158502712082 1.3579363620892053
decision_type=2 2 2 2 2 2 2 2 2 2 2 2 2 2 2 2 2 2 2 2 2 2 2 2 2 2 2 2 2 2
left_child=1 5 16 6 10 17 14 21 26 -7 24 -11 -5 -9 23 -13 -3 27 -14 -15 -18 -6 -10 -2 -4 -26 -8 -1 -21 -20
right_child=3 2 4 12 7 9 8 13 22 11 -12 15 18 19 -16 -17 20 -19 29 28 -22 -23 -24 -25 25 -27 -28 -29 -30 -31
leaf_value=-0.019720836543672626 0.038325904565909147 -0.16932363593001543 -0.094630474621682614 -0.10993035332058082 -0.073143429432724935 0.10537773352734775 0.066712711218546036 -0.077523169714215218 -0.0063669954542473596 -0.034921999917669977 0.08232122613281935 0.094460921829803424 0.058595746915461017 0.077791934618046066 -0.0081376215007849303 -0.026878612843781142 -0.050237854509796266 0.02358562483871118 -0.085062862336671194 -0.1123091695067841 -0.14423754725598195 -0.15415775904685991 0.089945601272417908 0.11885346256700302 -0.039836443397051877 0.087649813808692523 0.14024863974770857 -0.11247488973688369 6.3648192831863295e-05 0.022029564631520771
leaf_weight=515 1522 1136 352 458 1013 1231 608 1115 659 867 789 935 580 395 1441 365 779 585 415 213 592 810 526 584 394 270 1884 533 771 318
leaf_count=515 1522 1136 352 458 1013 1231 608 1115 659 867 789 935 580 395 1441 365 779 585 415 213 592 810 526 584 394 270 1884 533 771 318
internal_value=-0.000729447 -0.0320554 -0.0647833 0.0467838 -0.0391969 0.0239825 0.0644617 -0.0647659 0.094859 0.0522732 0.0216837 0.0218065 -0.025035 -0.0317737 0.0327738 0.0600195 -0.126984 -0.0345719 0.00432013 0.00491392 -0.0913422 -0.109543 0.0360427 0.0609852 -0.024984 0.0113596 0.122576 -0.067495 -0.0239323 -0.0379888
internal_weight=22655 13660 8629 8995 6122 5031 7224 4317 3677 3398 1805 2167 1771 2494 3547 1300 2507 1633 1313 1379 1371 1823 1185 2106 1016 664 2492 1048 984 733
internal_count=22655 13660 8629 8995 6122 5031 7224 4317 3677 3398 1805 2167 1771 2494 3547 1300 2507 1633 1313 1379 1371 1823 1185 2106 1016 664 2492 1048 984 733
is_linear=0
shrinkage=0.1


Tree=9
num_leaves=31
num_cat=0
split_feature=60 1383 1039 20 60 1279 1055 1279 580 563 1383 1200 580 737 63 1255 1279 20 459 513 929 1279 661 1434 737 1349 1279 1273 1383 652
split_gain=2888.97 2318.72 1434.18 1169.62 1015.6 817.617 673.197 639.098 596.04 498.1 422.527 405.003 404.694 389.177 373.61 371.126 351.327 346.619 319.005 305.19 307.883 281.263 277.114 268.651 250.808 234.352 233.976 229.567 229.47 226.412
threshold=-0.87843979417991858 0.58538216717292613 -0.41182301761485185 0.74357572823354368 0.60753827562170692 -0.45360747331819101 -0.17555237068985974 -0.48829314117736583 -0.72163178900542968 1.2346711203528493 -0.61511627281568548 -0.07252503258839095 -0.13646885710946044 -0.04801075467840047 0.27289543204006195 0.21451835216545853 0.57326719626558542 -0.16244389505700649 -1.0000000180025095e-35 -0.34517381551987519 0.61532142205513529 -1.0396406343216755 0.56813465587804479 -0.32767753756890811 0.35647060376472545 0.30250981147628925 0.65757516818223338 0.25607354760798456 1.1642469207447168 0.3075525304291975
decision_type=2 2 2 2 2 2 2 2 2 2 2 2 2 2 2 2 2 2 2 2 2 2 2 2 2 2 2 2 2 2
left_child=5 2 8 6 7 13 11 -3 21 18 -7 26 -8 23 28 -12 -14 27 -5 -6 -21 -2 -16 -1 -20 -17 -4 -10 -9 -15
right_child=1 4 3 9 19 10 12 14 17 -11 15 -13 16 29 22 25 -18 -19 24 20 -22 -23 -24 -25 -26 -27 -28 -29 -30 -31
leaf_value=-0.016829024957985904 0.086260173811275029 0.0063059534288213859 0.0066193983562941559 0.15314385180368681 0.084765011118101696 -0.041837427184517897 -0.082267215484641401 -0.08871350793131684 0.095883566544832904 -0.0098266045963164121 -0.16487901927703597 0.068340096406014017 0.016779004153045601 0.0050139437592092986 -0.0044142074916406629 -0.1135603938001441 -0.064510053236821172 0.14083889713128478 0.013584068794865534 -0.044638166766005127 0.055977475207615895 -0.010598484597207062 -0.11570511156699569 -0.13165099065624955 0.10314128021342153 0.012011659782531575 -0.11657638845538627 0.01070741933286784 -0.16581445863583982 0.14130845095234865
leaf_weight=561 471 785 1074 653 521 698 1273 884 1299 571 1298 1331 1496 468 618 418 818 1563 550 788 491 798 358 330 771 219 177 437 769 167
