tree
version=v4
num_class=1
num_tree_per_iteration=1
label_index=0
max_feature_idx=250
objective=regression
feature_names=20280 20281 23400 23401 23402 23403 23404 23405 23406 23407 23408 23409 23410 23411 23412 23413 23414 23415 23416 23417 23418 23419 23420 23421 23422 23423 23424 23425 23426 23427 23428 23429 23430 23431 23432 23433 23434 23435 23436 23437 23438 23439 23440 23441 23442 23443 23444 23445 23446 23447 23448 23449 23450 23451 23452 23453 23454 23455 23456 23457 23458 23459 23460 23461 23462 23463 23464 23465 23466 23467 23468 23469 23470 23471 23472 23473 23474 23475 23476 23477 23478 23479 23480 23481 23482 23483 23484 23485 23486 23487 23488 23489 23490 23491 23492 23493 23494 23495 23496 23497 23498 23499 23500 23501 23502 23503 23504 23505 23506 23507 23508 23509 23510 23511 23512 23513 23514 23515 23516 23517 23518 23519 23520 23521 23522 23523 23524 23525 23526 23527 23528 23529 23530 23531 23532 23533 23534 23535 23536 23537 23538 23539 23540 23541 23542 23543 23544 23545 23546 23547 23548 23549 23550 23551 23552 23553 23554 23555 23556 23557 23558 23559 23560 23561 23562 23563 23564 23565 23566 23567 23568 23569 23570 23571 23572 23573 23574 23575 23576 23577 23578 23579 23580 23581 23582 23583 23584 23585 23586 23587 23588 23589 23590 23591 23592 23593 23594 23595 23596 23597 23598 23599 23600 23601 23602 23603 23604 23605 23606 23607 23608 23609 23610 23611 23612 23613 23614 23615 23616 23617 23618 23619 23620 23621 23622 23623 23624 23625 23626 23627 23628 23629 23630 23631 23632 23633 23634 23635 23636 23637 23638 23639 23640 23641 23642 23643 23644 23645 23646 23647 23648
feature_infos=[-5.2071495038909577:5.8687344705909306] [-3.9757786428448121:4.6026521220919605] [-4.8469851114327804:4.8892825567641847] [-4.5091451197812038:4.5693366207835622] [-4.0652276806976362:4.5262199690328133] [-3.5786959316370295:4.7122078937927689] [-4.586378682486659:4.210097668778003] [-4.7822748323518169:4.6744684672623444] [-4.5140828192202376:5.2316951829109257] [-2.7283017293028942:4.4391302369560766] [-2.6051816544446709:4.5368267901490684] [-3.1534680724091184:5.0714691398099161] [-3.4348526370362578:4.663838143634635] [-5.1301351877157195:4.8412850171918143] [-3.1735448169108573:4.9751334364209017] [-4.6929511292645323:4.3730379734844522] [-4.538796093176491:4.782949874820619] [-4.932392989698867:4.9089594881363157] [-3.4369498024188911:4.5372125054663295] [-4.6273225301772536:4.9145216237599492] [-4.3868818636692959:5.1381655835039215] [-4.5901262947388108:4.5218385064789874] [-3.1054817452214234:4.9667959534371793] [-4.4022986190535516:4.6995337369632511] [-4.0021413762738849:5.3322079780795502] [-4.7650331209372148:4.5901569336772239] [-3.5040833799803113:4.4764995655823681] [-4.5711591593873226:4.7163590187122546] [-4.937786282354919:5.1577486716186804] [-5.1392732684893669:5.026335663451631] [-2.9776540561638853:4.6648870763585677] [-4.2075774831919137:4.6255249136934946] [-5.0394533707911195:5.0528936184398017] [-4.5938181255490012:4.5701468916647263] [-4.6762258120314701:4.1209976353971927] [-3.6570729030576223:5.1172038561902697] [-5.1132712566829177:4.9496205478971023] [-2.7942074461454469:4.5144060685992731] [-5.3436600421715115:5.137979071895395] [-4.847661910601289:4.9524332001302511] [-4.8510407445858919:5.312725897549976] [-4.1985190685613247:4.3174921413228589] [-5.1235806159676613:5.0273384753495032] [-4.296707592508394:4.4871456505626481] [-4.7099705367282674:4.602292147242288] [-4.6819762494680646:4.7263843414544473] [-3.6460279010589152:4.8453335586034374] [-4.6732529992310221:4.2216756249493201] [-4.9460128046638472:4.5159622592003865] [-3.9094618601409961:4.8182634032523168] [-4.2087965606121323:4.6173063685653473] [-4.5158030827684348:4.4836349086977325] [-4.0127524426051711:4.8595673118020484] [-4.6435752740311731:4.6350291880117132] [-4.9296971736606414:3.4219576760951083] [-4.8098040953099517:3.7624096256583086] [-4.6683233624493132:4.281793236629384] [-4.314722203027701:4.8282778974719225] [-4.6794585520277945:4.2479395173047241] [-4.5021603742366203:4.6839404734657863] [-4.4192853732451036:4.4291622885723223] [-4.6837643436092247:4.6537783766340199] [-4.1869278716938707:5.4940944715738738] [-4.7723305357365016:4.7769043245197071] [-3.7368080713785727:4.7312636625360991] [-4.4955702435784275:4.7805788661180824] [-3.8867223560276041:4.9087462445261689] [-3.2001301817372649:4.8376565219835337] [-4.1284265811161545:4.941451571579087] [-4.0079810212973142:5.1120860570519726] [-4.1968309330009603:4.7348640759394449] [-3.6047129687217252:4.8382528897256165] [-5.2962244020411324:5.499096509650113] [-4.3018774528611212:4.9526270346376737] [-3.6039309512959292:5.1113196617321268] [-4.936142413581126:5.3423841207309231] [-2.4553703729668577:5.6571734371683338] [-2.789348590021826:15.369453064835596] [-2.3419710579377147:5.573431552709307] [-2.6960271600945251:5.883845415477909] [-5.7634844453322049:6.2356125422786244] [-4.8922341461252117:4.9687012060510343] [-4.4533733454529321:5.0056211941645978] [-1.8242284385811383:4.9539016584561635] [-1.9447366955584338:4.6706521023843663] [-1.8778654357841933:4.8096076273370603] [-2.0720722426864531:4.7150649151572113] [-2.0800885794854302:4.7715057968357266] [-2.0012175973910473:5.0832810123937833] [-1.8730908478450849:4.7213668038234493] [-2.1940883328870595:4.8486926294788102] [-2.329066511511237:4.7166043798177695] [-2.2290687728543812:4.7861784296265242] [-2.5840032605845025:5.0490203540145711] [-2.7381547932855783:4.5841731862251152] [-2.3002664046177728:4.8784589601497581] [-2.1359289737761897:4.7460985760265073] [-2.4239786363976163:4.9197980175096836] [-2.7248729740524795:4.6038549025771278] [-2.4512615738794157:4.9718160619713858] [-2.7512035823586132:4.8883475948941317] [-2.7932780991385568:4.5960605039197917] [-2.5608618521987485:4.9906249130338551] [-2.6025260873721372:4.684740746606141] [-3.1161898236504051:4.4880990885241818] [-3.464048462458988:4.9608651246265509] [-3.2473079712673321:4.6303136940727496] [-3.1487113206892046:4.5208984403076373] [-3.0377749103224754:4.451393243090096] [-3.0355987640828528:4.4940079346661062] [-2.8935901432885922:4.5883244818178683] [-2.9684409020485858:4.8123009387946176] [-3.4032048990627488:4.7265301425461823] [-3.2331290221124092:4.7667339560820077] [-3.3923743545942284:4.6770084030711097] [-3.4077840657447216:4.6335348514522163] [-3.3422979917166695:4.5648971073967202] [-2.810412147400704:5.0416560235816021] [-3.5269824796262426:4.651795172340786] [-3.9410837975962085:4.45025210880641] [-3.7890300317776786:4.6863981354862556] [-3.7263586698169462:4.5069960499823845] [-3.6093656436882036:4.6098184606556991] [-3.5946741916267144:4.5634059705770262] [-3.0220249434292201:4.8245256384907123] [-3.2943776583326749:4.4922959278835028] [-4.4157754272187661:4.7323290039614241] [-4.2076386578602847:4.8032094457666599] [-4.0718817658000077:4.4349333915937708] [-3.9434472161700849:4.5314368183324563] [-3.8536070222096095:4.6024960877139236] [-3.1476310962568714:4.8559142423847588] [-3.979724049724771:4.4350314424234716] [-4.4418102679817144:4.9137657600124172] [-4.2157032508305798:4.5799432041520909] [-4.4085440107183294:4.8439542253225421] [-4.4216892432999186:4.6721489088434156] [-4.3388451148252987:4.7847812030374017] [-3.2044839985395073:4.7451046741768401] [-4.1203713174072458:4.4374857147521212] [-4.5230730194477866:4.51684025244497] [-4.3874518248907037:4.6732350323573275] [-4.3868148041277246:4.568453506137323] [-4.5896444687291762:4.5026784779896092] [-4.6153111000903024:4.6345905664337419] [-2.9470399718387705:4.9745216611976391] [-3.8401688411042953:4.5827061600693817] [-4.2954590476212227:4.4058914251626504] [-4.2975037188402458:4.4911510043108205] [-4.2732599355699072:4.532500353024929] [-4.6731535906714106:4.7140788833020686] [-4.5099423448062499:4.5194707823755138] [-2.5150235604199342:5.0033324987519343] [-3.2814557886966931:5.2216554203583305] [-3.0671592491658637:5.3127572715577323] [-2.7097766162652683:5.4090594886250996] [-3.285507992151957:5.2619895710183062] [-3.0002627119540959:5.123565730718191] [-4.1265402397735915:5.1335247837211773] [-3.0090829238089021:4.7502932973394616] [-2.7531560169106535:5.2096746948757104] [-3.3354362828998156:5.0516104303197693] [-3.3426752080618551:5.2834002296389082] [-2.8917260776945524:5.1685947235828715] [-2.8263288117681995:5.1531490305655794] [-2.7579414912878351:5.384969746028248] [-2.9357007061793454:4.9482720809012939] [-4.4445594323816069:5.1976317174411735] [-4.9351181632464032:5.1162335312929752] [-4.5798368185206746:4.9819791858238629] [-4.6924844280393039:4.9449375415832204] [-4.6701614017230737:5.129854120204743] [-4.6939142186236449:4.8364020022622229] [-3.2532783397978737:4.4776935183711073] [-4.6428687834691509:4.9516119030524575] [-4.8659552241730113:4.719144945987428] [-4.9550292450625797:4.7750992175341631] [-5.022795243087014:4.7680860525328592] [-4.8556099598467446:4.6027969273324612] [-4.9966448752365835:5.2923791309458048] [-3.434722809892949:4.7257428816896336] [-7.9583667977311077:3.8773447813906219] [-5.5011906303017408:4.4294990245899761] [-5.4931243670270327:4.9883357258697183] [-5.1687711756182626:4.7027490227465432] [-8.9268524517946251:2.7046796867496377] [-9.6665501979322137:5.2010594624648059] [-5.369129604578637:4.7698758582083975] [-5.8221252628616176:4.6913751450970276] [-5.5807165645821319:5.1637762798624731] [-6.0481363487728581:5.4378763723783807] [-8.6417250016316096:4.8118720267122521] [-5.378456929826247:4.9041644519220036] [-5.3394127446866211:4.7752157648723976] [-5.7398611539403932:5.5446125406847342] [-5.446761106691298:5.1939219521783491] [-4.9916777389721991:4.7016340445134741] [-5.0644590207288456:3.2153491135227363] [-5.5460888954900147:2.7514788543240956] [-5.0135494093319108:4.3561573812726238] [-4.6910029713360002:4.9524636662063131] [-4.8050539992935963:4.0901279941454307] [-4.7384868832286751:3.494919939144995] [-4.797518394375567:3.5248251046703873] [-4.7878571080339176:3.723155843891389] [-4.5165999520867759:4.2610083745444616] [-5.1303936318698833:4.8565729125046913] [-4.9540043227946189:3.820588699079805] [-4.9605140658604547:3.7463403918554401] [-5.0149941893336418:4.2976522382518176] [-4.6148950140193294:4.4286123753930511] [-4.5478135936495807:4.3378767787780772] [-4.8788270220329855:2.527319524860137] [-4.8116299745323294:3.6924669441695173] [-4.9059482923485396:4.4781861354026509] [-4.3237348790099519:4.6199947901378913] [-4.7056478783779898:4.5766496361086624] [-8.6320316376232604:2.9209108534487442] [-8.2887239866829194:3.9742862482622194] [-5.5790015344391515:2.9110831941390898] [-4.0919101054508467:4.8254773409688561] [-4.4716296055526348:4.3027282832391949] [-6.522008356456519:2.9260625612726945] [-5.2411827682496233:4.9883795750511766] [-5.3594211578269109:3.4251445067986666] [-3.9297180973512282:4.7086565317747526] [-5.192790783472061:4.7267976194504522] [-5.8633751012607354:4.1919103227014061] [-4.9174063004364861:5.3419027270802744] [-5.5856736727677534:2.8038360719159319] [-3.4264994671709013:4.6334017869362629] [-8.8948924926932573:3.1096795190664417] [-5.6024905088286605:5.4075338651079328] [-6.8481863716085671:6.3832398514769331] [-4.9245793595180558:5.3321927307136461] [-3.8603711766351241:5.0375783416940267] [-5.1466215725834603:5.4952558182888289] [-6.0725407404904361:3.6869517041051885] [-5.8079250231992585:3.0563382170641686] [-6.8864695057527534:6.3025342361019927] [-4.7431282208627668:4.7150582942208557] [-3.906449832238073:5.0792764588349444] [-4.8842622392499591:3.0580245229844518] [-5.0630930172377404:2.887787626853406] [-5.2067759271018339:4.8188399241875759] [-4.503369857189198:4.5405091503659749] [-4.5304425374425783:4.7970790594043136] [-4.7040546475209641:4.0229923558957736] [-5.0400028828086798:3.0593861751684228] [-4.4345911198401797:4.8007788566997469] [-4.6897184970295553:4.4939248794795414]
tree_sizes=2909 3060 3046 3043 3041 3065 3052 3036 3037 3078 3054 3080 3094 3067 3083 3098 3070 3089 3089 3086 3049 3079 3100 3085 3074 3069 3094 3073 3047 3089 3071 3090 3086 3097 3074 3103 3098 3097 3080 3077 3079 3092 3076 3074 3093 3089 3090 3101 3096 3098 3099 3090 3078 3085 3083 3104 3101 3094 3101 3110 3092 3080 3089 3090 3097 3104 3059 3086 3079 3095 3109 3079 3082 3111 3082 3099 3068 3068 3102 3082 3104 3097 3054 3083 3109 3102 3077 3098 3091 3080 3093 3107 3063 3106 3049 3072 3082 3078 3101 3049 3082 3066 3078 3101 3115 3107 3059 3080 3085 3098 3102 3110 3085 3079 3115 3070 3103 3061 3090 3099 3103 3045 3105 3121 3081 3064 3112 3094 3086 3105 3033 3096 3065 3104 3084 3101 3096 3100 3022 3095 3098 3070 3067 3092 3081 3084 3072 3093 3088 3088 3071 3082 3074 3064 3114 3065 3068 3102 3091 3070 3087 3101 3080 3127 3063 3097 3073 3095 3028 3086 3102 3067 3075 3087 3042 3065 3070 3110 3059 3047 3046 3054 3082 3072 3051 3100 3081 3111 3087 3061 3104 3074 3070 3071 3099 3075 3103 3059 3045 3086 3078 3011 3059 3076 3003 3096 3099 3023 3054 3047 3082 3043 3031 3068 3063 3089 3028 3043 3012 2994 3066 3089 3017 3068 3021 3013 3049 3003 3025 3024 3075 3060 3088 3078 3102 3011 3110 2999 3056 3021 3064 3039 2962 3081 3069 3027 3051 3079 2997 3053 3006 3022 3082 3019 2994 2995 3040 3075 3084 3104 3088 3050 3012 3040 3021 3028 3065 2947 2945 3054 3100 3035 3003 3000 3006 3029 3036 3068 3045 3099 3077 3083 3021 3044 3017 3010 3035 3084 3049 2996 2972 3093 3047 2850 2920 2981 2993 3028 2937 3027 3025 3029 2986 3008 3041 3039 3068 2981 2942 2881 3008 3028 3035 3029 2974 3019 3024 2980 3051 2974 3037 3028 2971 3005 2972 2971 3003 2966 2996 2859 3033 3051 3049 3028 2979 2971 2961 3012 2868 2956 3020 3047 3037 2947 2867 2988 3027 3038 2976 2915 2976 2946 3019 2983 3014 2975 2951 3004 2928 2967 3077 2964 2979 2982 3001 3062 3027 3079 2962 3010 3044 2999 2978 3029 2921 2962 3005 2957 2979 2931 3013 2929 2966 2977 2972 3036 3054 3045 2955 2989 3068 3025 2885 3027 2949 2994 2942 2950 3043 2982 2995 2988 3048 3010 2992 3015 3016 2962 2999 3047 2945 3037 2985 2973 2998 2953 3055 3037 3042 2964 3006 3026 2977 3018 2889 2956 2990 3010 3027 3051 3029 3063 3012 2982 3027 3030 2947 2875 3027 2928 3026 2925 2990 2961 3027 3037 2908 2910 3026 2937 2939 2972 2957 2904 3030 2959 3070 3018 2847 2973 2948 2950 2982 2997 2948 2916 2953 2943 2977 3003 3035 3028 2941 2983 3005 2902 3052 3038 2984 2987 3052 3090 2982 3025 3014 2919 2986 3041 3059 2899 2960 2984 2994 2969 3048 2995 3000 2998 3045 2960 2995 2911 3027 2957 3008 3046 3010 2999 2984 3055 3024 2993 2964 2982 2982 2974 3060 3006 3033 2974 3004 3026 2964 2966 2927 2909 3060 2960 3028 3030 3019 2989 3036 2996 3021 2994 3027 3023 3025 2914 2981 2966 3027 2991 3030 3033 3042 2977 2980 2969 2968 2894 2879 3019 2983 2952 2998 3019 2907 3003 2959 3014 2907 3049 2982 3005 3010 2998 3003 2938 2995 3018 3003 3037 3010 2953 3012 2917 2999 2936 2962 2873 3028 2945 2999 2997 3006 2938 2890 2917 2986 3025 2946 3013 2944 2994 2962 2990 2994 3016 3009 2901 2968 2977 2937 3060 3020 2962 2902 2815 2991 2996 2923 3055 2872 2920 2991 2961 2959 3033 3039 3007 3032 3005 3026 3052 2927 2915 3010 2958 2965 3027 2974 2980 2934 2917 3034 2922 2961 2948 3011 2830 2994 2892 2977 2952 2912 2890 2965 2927 2962 2916 2882 3003 2897 3012 3018 2936 2990 2899 3013 3035 2948 3021 2974 2946 2959 2948 3012 2907 3045 2952 2986 3008 3036 2956 2974 2850 2940 2911 2944 3038 2999 2942 3011 2994 2945 2996 2952 2869 3021 2912 2970 2999 2920 2933 2937 2996 2964 2984 2997 2958 2939 3006 3052 3008 2958 3017 3023 2958 3017 2957 2910 3002 2963 3053 2955 2952 3001 2964 2955 3011 2934 2894 2954 3009 2992 2985 2999 2949 2995 2995 2995 2890 2978 3068 2908 3012 2850 3005 2963 3002 2993 2928 3035 2926 2944 2969 2938 2882 3002 2986 2906 2993 3005 2941 2959 2993 2967 2928 2954 2912 2859 2990 2963 2989 2964 2928 2878 2993 2977 3022 2931 2884 2931 2963 3049 3001 2966 2982 2968 2925 2971 2990 2947 2988 3013 2929 2944 2966 3054 2906 3002 3010 2954 3006 3024 2918 3001 2985 2997 2935 2989 2970 2933 2985 3076 2997 2912 2962 2952 3022 2974 2921 3025 3030 3019 2952 2880 2906 3046 3010 2948 2974 2898 2954 2912 2937 2954 2970 2975 2993 3077 3008 2982 2985 2929 2984 3038 2907 2989 2997 2970 2976 2999 2984 3013 2971 2972 2882 2900 2996 2922 3004 2982 3043 2949 2970 3074 2994 2945 2988 3031 3012 2857 2964 2944 3003 2996 3016 2944 2983 2929 2939 2876 2980 2948 3032 3013 2977 2999 2979 2959 3009 3014 3011 3030 2961 2941 2945 2961 3018 2979 3028 3017 3084 2951 3012 3017 2955 2940 3028 3050 2908 2934 3002 3029 2926 3013 2966 2998 2943 3049 2992 2897 3033 2954 2978 2939 3013 2955 3022 3013 2914 3012 2958 2992 3002 2877 3003 2979 3034 3028 2967 2960 3021 2943 2796 2948 3022 2976 2976 3026 3051 3049 2944 2959 2987 3049 3030

Tree=0
num_leaves=31
num_cat=0
split_feature=78 73 73 67 67 67 67 246 246 231 231 246 231 231 62 246 73 67 67 62 73 73 73 73 67 73 73 78 73 78
split_gain=109919 40315.6 34804.9 23076.4 17924.9 17334.4 16850.7 10026.9 7433.18 6775.57 5645.58 4262.26 4070.7 3797.99 3196.53 2751.18 2361.4 2053.15 2034.55 1989.46 1902.68 1888.7 1664.43 1611.61 1548.85 1470 1438.24 1388.78 1387.94 1294.09
threshold=-0.18732605291867341 -0.23796407779261011 -0.21757673634200966 0.57380088556929465 -0.055795448811520272 -0.073953560361111656 -0.33420492614445463 -0.22243746319272706 -0.067823115939079748 -0.49110722903564691 -0.52207135189562937 -0.18384957302483887 -0.33534987498543639 -0.27765895252090528 -0.17512504030827139 -0.28197337475107054 -0.93772349823512291 -0.29375271054544938 -0.2202638843033847 0.24237993018528844 0.57323541463919991 -0.98773546739340712 -1.0560774899063807 -0.87527160234013779 -0.21202975160716395 0.49267872173544636 -0.80256094326784144 1.276325437633554 0.32516226777891383 0.176945288524294
decision_type=8 8 8 8 8 8 8 10 8 10 10 8 10 10 8 8 10 10 10 10 10 10 10 10 10 10 10 8 10 8
left_child=1 4 6 7 8 15 11 19 21 29 -5 -2 -6 -8 17 27 -10 -9 -16 24 -11 -1 -15 -13 -3 -17 -14 -4 -12 -7
right_child=2 3 5 10 12 9 13 14 16 20 28 23 26 22 18 25 -18 -19 -20 -21 -22 -23 -24 -25 -26 -27 -28 -29 -30 -31
leaf_value=14.373597019485834 14.416917191450812 14.219915610629105 14.300082261178407 14.2967835589854 14.414879649813823 14.350894037612797 14.541237261699273 14.320588850984389 14.494790151608623 14.555534905475747 14.51024284813688 14.569534521511814 14.605017922646198 14.674432400914638 14.249264487772296 14.432595408974832 14.394364843667452 14.426203860452054 14.320388407445284 14.183621610188933 14.48795118032052 14.281701374889662 14.61372448161635 14.479092877656743 14.298846618981491 14.359505634410095 14.523983227538018 14.400403428214986 14.427116137820995 14.441628111557009
leaf_weight=3421 6091 9072 6422 2946 2361 2475 5182 5467 4012 9790 3121 4319 4250 7675 9465 5845 5605 2762 7093 11338 7340 6571 11502 3678 3493 5186 4642 1773 5680 4295
leaf_count=3421 6091 9072 6422 2946 2361 2475 5182 5467 4012 9790 3121 4319 4250 7675 9465 5845 5605 2762 7093 11338 7340 6571 11502 3678 3493 5186 4642 1773 5680 4295
internal_value=14.4136 14.3382 14.498 14.2908 14.4312 14.4363 14.5671 14.2604 14.3735 14.4931 14.4165 14.48 14.5318 14.6175 14.305 14.3656 14.4362 14.3561 14.2797 14.2142 14.5266 14.3131 14.6381 14.528 14.2418 14.3983 14.5628 14.3217 14.4567 14.4085
internal_weight=172872 91299 81573 60437 30862 43126 38447 48690 19609 23900 11747 14088 11253 24359 24787 19226 9617 8229 16558 23903 17130 9992 19177 7997 12565 11031 8892 8195 8801 6770
internal_count=172872 91299 81573 60437 30862 43126 38447 48690 19609 23900 11747 14088 11253 24359 24787 19226 9617 8229 16558 23903 17130 9992 19177 7997 12565 11031 8892 8195 8801 6770
is_linear=0
shrinkage=1


Tree=1
num_leaves=31
num_cat=0
split_feature=78 67 67 231 246 231 1 246 62 1 1 78 1 67 78 72 67 67 233 72 67 67 67 67 231 72 246 72 1 67
split_gain=89414.3 31085.7 24409.2 14552.4 13612.2 9610.03 8521 6165.53 5714.01 5132.76 4640.93 3690.46 3026.52 2689.07 2524.6 2233.97 2123.99 2117.47 1787.37 1693.65 1633.61 1562.1 1515.65 1508.74 1413.29 1399.97 1311.16 1299.16 1140.79 1136.89
threshold=-0.30690575669105419 -0.16199277697992426 0.30569577783389074 -0.32383743678753302 1.0000000180025095e-35 -0.27765895252090528 -0.94953165828727559 0.27282107572698411 -0.16565499858552543 -0.16721304997347181 -0.34191545800720019 0.44395467682979639 0.87507635173980847 -0.71056343411305589 0.25900876934461542 -0.26740931784938182 -0.6652990127196402 0.39233715222360521 0.68436512308134312 -0.15280974887084819 1.0418726184951503 1.3116260920199301 -0.64750727555490528 -0.49501172359186013 -0.84738886343475739 -0.41070054015762786 -0.17388863946241215 -0.29394107527275121 0.58639853218145388 -0.75719032397612973
decision_type=8 8 8 10 10 10 8 8 8 8 10 10 8 10 8 8 10 8 8 10 10 8 10 10 10 10 8 10 10 10
left_child=2 6 4 11 10 24 13 14 16 19 23 20 -7 26 -8 -10 -6 -11 25 -5 28 -14 -9 -1 -4 -12 -2 -19 -3 -16
right_child=1 3 5 9 8 12 7 22 15 17 18 -13 21 -15 29 -17 -18 27 -20 -21 -22 -23 -24 -25 -26 -27 -28 -29 -30 -31
leaf_value=-0.12674765386636455 -0.024736414588182227 -0.00079891730186167987 -0.13327123847705238 0.14544588611342946 -0.04390601006305378 0.098138277813507702 -0.099266867437162135 -0.010855339726229008 -0.14069211431507186 0.064973215710712323 -0.19223606042183705 0.1017331781685431 -0.044593444503906711 0.1152035478901877 -0.076587895690157365 -0.061536878748029926 0.045728205824767901 0.077316241300183497 -0.21476211265060552 0.20990546077655559 0.063968061349967756 0.080524221412849886 0.066863680448693036 -0.050792634810908344 -0.037036748411114061 -0.12878145196563076 0.064267203141062781 0.15145532148200846 -0.085957896977235812 0.0047298830280034093
leaf_weight=7331 3050 4803 3099 6376 5233 9094 10110 4601 6209 6178 6201 4964 2958 6158 2603 8469 5338 3057 8348 11781 2579 1503 5491 4113 3045 8178 3601 11029 2346 5026
leaf_count=7331 3050 4803 3099 6376 5233 9094 10110 4601 6209 6178 6201 4964 2958 6158 2603 8469 5338 3057 8348 11781 2579 1503 5491 4113 3045 8178 3601 11029 2346 5026
internal_value=-0.000149018 0.0659151 -0.0784385 0.116283 -0.11042 0.0180058 7.4109e-05 -0.0309777 -0.0547019 0.148654 -0.15157 0.0315871 0.0650482 0.0675758 -0.0664853 -0.0950693 0.00130906 0.113972 -0.177752 0.187316 -0.00416921 -0.00230958 0.0313865 -0.0995066 -0.0856858 -0.156204 0.0233818 0.135414 -0.0288306 -0.0229629
internal_weight=172872 93753 79119 53113 59420 19699 40640 27831 25249 38421 34171 14692 13555 12809 17739 14678 10571 20264 22727 18157 9728 4461 10092 11444 6144 14379 6651 14086 7149 7629
internal_count=172872 93753 79119 53113 59420 19699 40640 27831 25249 38421 34171 14692 13555 12809 17739 14678 10571 20264 22727 18157 9728 4461 10092 11444 6144 14379 6651 14086 7149 7629
is_linear=0
shrinkage=0.1


Tree=2
num_leaves=31
num_cat=0
split_feature=73 67 67 246 232 232 246 76 67 73 62 62 62 1 73 73 67 67 62 62 67 73 62 67 56 73 76 67 73 62
split_gain=74978.3 33364.2 32534.8 8812.05 8765.1 7939.6 7313.68 5463.23 4642.61 4550.92 3662.85 3544.52 3374.34 3217.8 2785.82 2739.92 2573.1 1828.28 1826.02 1770.51 1668.25 1508.88 1442.3 1432.29 1429.33 1390.12 1289.68 1282.87 1267.17 1158.71
threshold=-0.13716060040512518 -0.25334963505885433 0.22826039555781988 -0.2032690844175927 0.11671565634721721 0.13536510665804577 -0.22243746319272706 0.35625705519328182 -0.49501172359186013 -0.87527160234013779 -0.85743206847681541 -0.48514074535055318 -0.27220839792510693 0.54712937063036893 -0.81656470728082697 0.62827796861495644 0.55820971653032758 -0.87786950787624496 -0.19441987600672925 -0.85743206847681541 1.1528441009594459 0.42801745676806535 0.68457958115298545 0.24957366364147787 -0.32639223543054302 -1.2312758487543478 0.58121805018274975 1.3116260920199301 0.30432325318092707 -0.21309713025271212
decision_type=8 8 8 8 8 8 10 8 10 10 8 8 8 10 10 10 8 10 8 8 8 10 10 8 8 10 10 8 8 10
left_child=1 3 4 10 8 15 11 21 18 19 25 -3 -10 26 -8 -4 -13 -11 -2 -5 -15 -6 -17 -16 -20 -1 -7 -24 -14 -19
right_child=2 6 5 9 7 13 14 -9 12 17 -12 16 28 20 23 22 -18 29 24 -21 -22 -23 27 -25 -26 -27 -28 -29 -30 -31
leaf_value=0.086814770975319366 -0.068452245615924279 0.14385069873158726 0.093844840281780806 0.14958754750132591 -0.13393465735600313 -0.014433998008680369 0.20254838333290076 -0.067262973242948484 0.034699632181320682 -0.047995406145160055 -0.087404770399608117 -0.0078572277909980687 -0.0074058990175708385 -0.12746493109338045 0.093472037418213694 0.059119425212463217 0.10275408596569345 0.074046620016283191 -0.17530555494562147 0.06043677598296894 -0.020680508666124989 -0.18801361607387057 -0.060617011419315393 0.16098899766034735 -0.094593110362967331 -0.020625695807072495 0.088964550139774293 0.045096705258493304 -0.082641159966097541 -0.010751475589693589
leaf_weight=1765 8230 5118 10908 4074 8751 6029 12430 7512 5622 4116 10194 4987 3180 4181 4922 4818 3625 3689 4332 4985 2270 13024 2872 8979 4550 3768 1505 1905 7688 2843
leaf_count=1765 8230 5118 10908 4074 8751 6029 12430 7512 5622 4116 10194 4987 3180 4181 4922 4818 3625 3689 4332 4985 2270 13024 2872 8979 4550 3768 1505 1905 7688 2843
internal_value=-0.000134906 0.0746565 -0.0581251 0.00395513 -0.10093 0.0199169 0.137176 -0.140934 -0.0660423 0.0485154 -0.0518492 0.0779205 -0.0281303 -0.0381536 0.168047 0.0595508 0.0386568 0.00413831 -0.102539 0.100609 -0.0899848 -0.166317 0.0205003 0.137136 -0.134046 0.0135759 0.00617279 -0.018354 -0.0606786 0.0370704
internal_weight=172872 75495 97377 35434 62889 34488 40061 29287 33602 19707 15727 13730 16490 13985 26331 20503 8612 10648 17112 9059 6451 21775 9595 13901 8882 5533 7534 4777 10868 6532
internal_count=172872 75495 97377 35434 62889 34488 40061 29287 33602 19707 15727 13730 16490 13985 26331 20503 8612 10648 17112 9059 6451 21775 9595 13901 8882 5533 7534 4777 10868 6532
is_linear=0
shrinkage=0.1


Tree=3
num_leaves=31
num_cat=0
split_feature=73 79 247 246 246 79 79 70 70 232 70 79 70 70 73 70 73 88 73 73 73 73 73 73 73 73 73 73 49 73
split_gain=61517.7 27076 13631.6 13347 7390.79 7058.91 5923.85 4420.16 3177.79 2933.14 2913.61 2852.71 2622.73 2275.08 2213.48 2177.86 2078.85 1699.79 1515.25 1482.55 1432.47 1366.69 1175.84 1171.64 1170.15 1125.15 1095.86 1087.1 1062.78 1060.23
threshold=-0.32112684668962838 -0.15420814526478419 -0.070607715499627355 -0.40339522454493676 -0.16428728442870263 -0.3549587255290792 -0.042209814941640951 0.2305572785285285 -0.17584158515861895 1.0062068873705534 0.13153219460025231 0.84429793273088294 0.05520124218327864 -0.46890001518629115 0.35568413460759363 -0.047874104251986994 0.61718111223132943 -0.65584539172228029 0.47051046580883332 0.36614603975537013 -1.5089278771557921 -1.1501377680157729 0.41790224465031395 0.55048148607372716 -1.0034639620963144 -1.1501377680157729 0.42801745676806535 -0.80256094326784144 -0.60712870482548087 -1.2312758487543478
decision_type=8 8 10 8 10 8 8 8 10 8 8 8 8 8 10 8 10 8 10 10 8 10 10 10 10 10 10 10 8 10
left_child=3 2 7 6 11 8 15 14 20 12 18 17 26 25 -2 29 -9 -3 -6 -12 -5 -8 -19 -14 -10 -7 -4 -15 -26 -1
right_child=1 4 9 5 10 13 21 16 24 -11 19 -13 23 27 -16 -17 -18 22 -20 -21 -22 -23 -24 -25 28 -27 -28 -29 -30 -31
leaf_value=-0.0080781392924739008 -0.030343690837050841 -0.10812681662281931 -0.1155574900518956 0.097565673863751604 0.043706508606623763 0.14596716876729904 0.13596370583666259 0.045050706033133707 0.14519645074661086 -0.18567075002677255 0.11584411966342341 0.013576500125304994 -0.041627754113072478 0.18398532193001696 -0.10587352926398177 0.017614086159806874 -0.03990778707342111 0.004122432928142592 -0.022068018674910608 0.048234983977273355 -0.002632784668750806 0.047383683471418914 -0.066140751046706733 -0.11494693926495303 -0.0059643149852839604 0.06892854633208606 -0.17109492566564327 0.13365365051541778 0.09815112988858346 -0.094505892579835604
leaf_weight=1991 6778 4880 7210 1787 7243 3090 2627 6472 3751 8578 5710 8255 4948 10185 9151 4699 5183 4195 6768 7608 7004 5260 5469 3943 1312 5033 7237 7670 3774 5061
leaf_count=1991 6778 4880 7210 1787 7243 3090 2627 6472 3751 8578 5710 8255 4948 10185 9151 4699 5183 4195 6768 7608 7004 5260 5469 3943 1312 5033 7237 7670 3774 5061
internal_value=-0.000121785 -0.0454337 -0.0910489 0.0784135 0.00870127 0.109242 0.00992883 -0.0395329 0.0603405 -0.135552 0.043779 -0.0333243 -0.117094 0.142399 -0.0737738 -0.0350361 0.00722625 -0.0599773 0.0118999 0.0772725 0.0176959 0.0769783 -0.0355943 -0.0742183 0.102693 0.0983244 -0.143433 0.16241 0.0712031 -0.0701847
internal_weight=172872 109628 59500 63244 50128 43606 19638 27584 17628 31916 27329 22799 23338 25978 15929 11751 11655 14544 14011 13318 8791 7887 9664 8891 8837 8123 14447 17855 5086 7052
internal_count=172872 109628 59500 63244 50128 43606 19638 27584 17628 31916 27329 22799 23338 25978 15929 11751 11655 14544 14011 13318 8791 7887 9664 8891 8837 8123 14447 17855 5086 7052
is_linear=0
shrinkage=0.1


Tree=4
num_leaves=31
num_cat=0
split_feature=73 67 67 79 232 73 233 231 1 67 79 248 1 67 79 1 67 79 79 73 79 66 67 247 73 67 209 67 73 84
split_gain=50269.4 27420.6 22042.7 9804.09 7092.79 6194.63 5531.9 4936.9 3886.42 3060.96 2964.14 2953.68 2646.84 2288.09 2209.81 2078.08 1874.43 1768.93 1681.02 1513.74 1408.18 1397.9 1319.58 1305.54 1102.12 1075.02 1019.03 984.267 980.493 878.718
threshold=-0.019375185118239643 -0.32614348931108422 0.36707674614017077 0.11203950828970123 0.56849770759752849 -0.89117284917700501 0.20356979227332542 -0.52207135189562937 -0.24517945725249293 0.57380088556929465 0.10241668079001538 0.32871446498701556 -0.98950930749465682 -0.38209008731805533 -0.18442077324968206 0.34666224055246658 1.3116260920199301 0.21983426135044534 -0.45833360282916574 -0.92180339536488165 -0.37473077385550885 0.10489808253923404 -1.0725075137399289 0.37228980083044844 -0.5910240140152917 0.50074050001486314 -0.2179218318532434 1.3116260920199301 0.55048148607372716 -0.79340321607859632
decision_type=8 8 8 8 8 10 8 10 8 8 8 8 8 10 8 8 8 8 10 10 8 8 10 10 10 8 10 8 10 10
left_child=1 5 3 6 8 12 18 17 19 24 25 20 22 29 -13 -9 -17 27 26 -3 -7 -15 -1 -14 -10 -6 -2 -4 -8 -5
right_child=2 4 7 13 10 11 28 15 9 -11 -12 14 23 21 -16 16 -18 -19 -20 -21 -22 -23 -24 -25 -26 -27 -28 -29 -30 -31
leaf_value=0.028866756399551857 -0.068670006168060085 0.19141243025418045 -0.11055770624109902 -0.10034456971689441 -0.051964130994276096 -0.03846443608603977 -0.1242300518598618 0.085500885098929558 0.088935942507076662 0.13379788564436693 0.096415290026799771 -0.1171992299413433 0.043152349015744267 0.041250743454452482 -0.029197384206062927 -0.015904264284036795 0.067260000091178856 0.01386353157588157 -0.045020071476947573 0.13248451852236012 0.034513987065617716 -0.038876373265623668 0.13188744984862497 -0.03505406377945941 0.023018068912196207 0.040826990061739891 -0.12308861880638022 -0.0067886449536605723 -0.16951282160059333 -0.035828064108192996
leaf_weight=1924 6055 7956 3496 3371 3592 5699 8516 8661 5085 10072 3655 6365 4652 5737 5207 6266 4764 3079 9203 9937 4926 3502 3593 3937 5114 1906 8186 1252 11407 5757
leaf_count=1924 6055 7956 3496 3371 3592 5699 8516 8661 5085 10072 3655 6365 4652 5737 5207 6266 4764 3079 9203 9937 4926 3502 3593 3937 5114 1906 8186 1252 11407 5757
internal_value=-0.000108759 0.055599 -0.0523069 -0.0854872 0.105757 -0.00976482 -0.111424 0.0221125 0.12472 0.0946608 0.0266226 -0.0427045 0.0420319 -0.0242137 -0.0776565 0.0488279 0.0199758 -0.0450288 -0.0784438 0.158733 -0.00458274 0.010823 0.0960741 0.00724631 0.0559433 -0.019702 -0.0999989 -0.0833145 -0.150196 -0.0597257
internal_weight=172872 83620 89252 61734 47317 36303 43367 27518 38164 20271 9153 22197 14106 18367 11572 19691 11030 7827 23444 17893 10625 9239 5517 8589 10199 5498 14241 4748 19923 9128
internal_count=172872 83620 89252 61734 47317 36303 43367 27518 38164 20271 9153 22197 14106 18367 11572 19691 11030 7827 23444 17893 10625 9239 5517 8589 10199 5498 14241 4748 19923 9128
is_linear=0
shrinkage=0.1


Tree=5
num_leaves=31
num_cat=0
split_feature=78 73 73 67 67 67 246 67 246 78 231 78 231 246 231 67 71 231 62 70 1 70 78 70 76 78 158 78 62 246
split_gain=51871.4 18031.6 13628.3 11965.5 8292.52 6462.38 5727.51 5660.94 3082.33 2644.79 2524.54 2469.48 2365.91 1995.41 1965.7 1942.41 1895.52 1548.77 1510.84 1208.02 1085.55 976.846 961.417 941.922 929.171 887.422 855.117 853.112 835.355 813.972
threshold=-0.13049254120465056 -0.44017170979220999 0.077262484253242392 0.70748888116741704 -0.45430300245936572 -0.037540033180262576 -0.26219034613036191 -0.14469108305381645 0.35288074018202181 -0.81133383035517737 -0.58608785833599908 0.67224260721751783 -0.71534413174477529 0.33293334001141522 -0.42263034630400798 -0.22868715876277054 -0.1607094277991746 -0.60393344831220364 0.77211746608885623 -0.38346581782607153 -1.1269558952014036 0.33777114828589511 1.9446511413688621 -0.12111608072732259 -1.2813524991835041 -1.3040580260562999 -0.86250242359585849 0.39666051129994584 0.29656426752953197 0.47219543002474468
decision_type=8 8 8 8 8 8 10 8 10 10 10 8 10 8 10 10 10 10 8 8 10 8 8 10 8 10 10 8 10 8
left_child=1 5 4 6 13 8 16 22 19 24 -5 14 -9 20 -6 28 23 -7 26 -1 -2 -18 29 -3 -8 -12 -17 -14 -11 -4
right_child=2 3 7 10 11 17 9 12 -10 15 25 -13 27 -15 -16 18 21 -19 -20 -21 -22 -23 -24 -25 -26 -27 -28 -29 -30 -31
leaf_value=-0.075003767668113744 0.050620246544776662 -0.11983830252676525 -0.067697808207294471 -0.070727222544032617 0.030569101374956355 -0.013459745219945177 -0.24198699997377845 -0.016079189407495347 0.046624173997209535 -0.051286853406108092 -0.21000450484562611 0.15624519026457079 0.042715855168738465 0.085365800243020637 0.11632392525104196 -0.058507252240389246 -0.17649509913757003 0.10476814773725568 -0.068248068710182894 -0.0087111805378823886 -0.021223307833105595 -0.11706307158156343 0.032043054074593673 -0.066231957304699829 -0.10215025466397601 0.044938362859480878 0.033894533889704627 0.092850385313543754 -0.10445256446676579 -0.007382172129085084
leaf_weight=6096 3298 10320 7997 2573 3334 1273 510 4520 5462 8053 136 14211 7005 4655 13870 1234 7995 8163 3151 5040 5790 4362 1595 4894 8243 9169 5227 6696 4738 3134
leaf_count=6096 3298 10320 7997 2573 3334 1273 510 4520 5462 8053 136 14211 7005 4655 13870 1234 7995 8163 3151 5040 5790 4362 1595 4894 8243 9169 5227 6696 4738 3134
internal_value=0.000194693 -0.0484307 0.061946 -0.0746615 0.0969776 0.022689 -0.0931763 0.0108087 -0.0148518 -0.0637593 0.0168372 0.125325 0.0465627 0.0321331 0.0997399 -0.0455027 -0.126393 0.0887657 -0.0114694 -0.0450525 0.00479884 -0.155578 -0.0403435 -0.102638 -0.110408 0.0411141 0.0161565 0.0672642 -0.0710327 -0.0507649
internal_weight=172744 96639 76105 70605 45158 26034 58727 30947 16598 31156 11878 31415 18221 13743 17204 22403 27571 9436 9612 11136 9088 12357 12726 15214 8753 9305 6461 13701 12791 11131
internal_count=172744 96639 76105 70605 45158 26034 58727 30947 16598 31156 11878 31415 18221 13743 17204 22403 27571 9436 9612 11136 9088 12357 12726 15214 8753 9305 6461 13701 12791 11131
is_linear=0
shrinkage=0.1


Tree=6
num_leaves=31
num_cat=0
split_feature=73 67 67 246 232 246 1 76 234 62 67 1 67 67 1 1 71 67 76 73 70 71 246 232 62 67 76 246 184 62
split_gain=34329.8 17170.4 16222.4 6512.97 5491.97 4386.8 3621.6 3458.43 3343.85 2344.97 2189.67 2185.66 2124.87 1925.07 1834.07 1802.47 1740.34 1491.77 1474.36 1360.38 1131.28 1059.22 975.209 971.857 907.775 963.014 862.453 843.442 835.426 823.392
threshold=-0.086862161582143285 -0.037540033180262576 0.12277292938064847 0.20350268628859672 0.60879342648408563 0.10580098723724447 -0.4806141216284498 0.35625705519328182 0.80440622877233825 0.45650601508953764 -0.94446725047954405 -0.12786641223834253 1.1818737874650613 -0.89944233828956577 -0.64762947999255172 0.25668548340056158 -0.24403009752082758 -0.65627705711194195 0.2769658435375732 -1.0200547370897435 0.26214350522241647 -0.13309282414678761 0.047699853523950245 0.98406847249072005 -0.4953529558939001 0.63903542212148234 -0.85212866600148629 0.2923021571231888 0.42643278126376732 -0.87109932035156412
decision_type=10 10 8 10 8 10 10 8 8 8 8 8 8 8 10 8 10 10 8 8 8 8 10 8 8 10 10 10 8 8
left_child=1 3 5 6 9 7 13 16 11 -4 29 -3 27 -1 -12 17 23 -7 26 -15 21 -8 -13 28 -10 -26 -6 -11 -2 -5
right_child=2 8 4 10 18 15 20 -9 24 12 14 22 -14 19 -16 -17 -18 -19 -20 -21 -22 -23 -24 -25 25 -27 -28 -29 -30 -31
leaf_value=-0.037222993131345965 -0.053365079891537159 0.14404115533021561 0.063266547297814529 0.04701178275762824 -0.22385372424438443 -0.053920658530932378 -0.05205786371833189 -0.044956742689819154 0.096872629716324696 -0.061828589523098179 0.12285229083650125 0.053506911885561295 0.051804315493436441 0.087534368964427928 0.046059816368714368 -0.074313222747693017 -0.1441740780394084 0.01430947675324073 0.006931433289120219 0.010278402954797046 -0.0037172982411504199 -0.12002265650895393 0.10867778904860488 -0.13592176818892376 -0.038021871156247306 0.056603699126753199 -0.073487882139367466 0.0024645073537805555 -0.11402888720163139 -0.03679432713561346
leaf_weight=5238 6397 14233 13390 2013 411 5717 6834 9451 1646 3884 5255 5182 5615 3528 7705 8832 11771 7269 2517 6485 2847 3491 8623 3631 2137 2157 5846 4266 3573 2800
leaf_count=5238 6397 14233 13390 2013 411 5717 6834 9451 1646 3884 5255 5182 5615 3528 7705 8832 11771 7269 2517 6485 2847 3491 8623 3631 2137 2157 5846 4266 3573 2800
internal_value=0.000172029 0.0480761 -0.041312 0.00837428 0.0112369 -0.0746533 -0.0213043 -0.0966914 0.102036 0.0334721 0.0558621 0.116482 0.00444813 0.0118419 0.0772502 -0.0394506 -0.115938 -0.0156936 -0.0575146 0.0375609 -0.0597159 -0.0751047 0.0880152 -0.091446 0.033747 0.00939912 -0.0835131 -0.0281216 -0.0751741 -0.00163426
internal_weight=172744 80174 92570 46196 35929 56641 28423 34823 33978 27155 17773 28038 13765 15251 12960 21818 25372 12986 8774 10013 13172 10325 13805 13601 5940 4294 6257 8150 9970 4813
internal_count=172744 80174 92570 46196 35929 56641 28423 34823 33978 27155 17773 28038 13765 15251 12960 21818 25372 12986 8774 10013 13172 10325 13805 13601 5940 4294 6257 8150 9970 4813
is_linear=0
shrinkage=0.1


Tree=7
num_leaves=31
num_cat=0
split_feature=78 73 73 67 67 67 231 232 67 182 73 246 70 231 246 1 78 232 78 71 78 246 78 78 71 246 1 67 232 184
split_gain=39084.4 12846.7 9192.97 8877 6450.74 4884.26 4350.41 4027.41 2442.11 2365.88 1986.74 1824.06 1752.6 1549.42 1515.13 1456.98 1361.34 1189.54 1163.97 1159.68 1140.5 1125.88 999.083 962.796 949.556 948.159 839.878 830.29 817.321 807.862
threshold=-0.36286584961724427 -0.42909949651923235 -0.71980923170908973 -0.29375271054544938 0.74183553206770025 -0.58798295168706727 -0.5692632198461306 0.25059305770258494 -0.43013686218380115 0.72966753128470396 0.91146005684993181 -0.48593320886649777 -0.20268623056765173 -0.64030352186386941 0.38471924246021932 1.0883922612997041 0.42838937748111139 0.3128460823173424 0.51213873379722274 0.28365733347793337 1.8659228755762374 0.55096805940956006 0.27216045324221833 0.54872553855127049 0.19696791363340588 -0.077152289339312521 -1.6037854596856687 0.74183553206770025 0.19140267590402327 1.298418964093728
decision_type=8 8 8 8 8 8 10 8 8 8 10 8 8 10 8 8 8 8 8 8 8 8 8 8 10 10 10 8 8 8
left_child=2 5 8 14 7 21 18 9 28 12 16 22 24 -6 20 -14 25 -10 27 -9 29 26 -7 -13 -4 -8 -2 -5 -1 -3
right_child=1 3 4 6 13 11 10 19 17 -11 -12 23 15 -15 -16 -17 -18 -19 -20 -21 -22 -23 -24 -25 -26 -27 -28 -29 -30 -31
leaf_value=0.0029209723796554819 0.08446314057633314 -0.051130201634279449 -0.0589743982134339 -0.069215124238269088 -0.076557614981674085 0.018346402652623613 0.017894980834520801 -0.10347380984735595 0.091009088073049638 -0.11360564668462032 0.013153179159963883 0.10464821649450347 -0.0010660112339501008 0.030525874177025021 0.0024071257637801554 -0.087252722649523828 0.1052877910694168 -0.0054409646828159561 0.030472668464627581 -0.15554083045293499 0.02633241484543325 0.082221087457423514 0.096586024174993901 0.14843429215313783 -0.12897548733624961 0.073185318935877083 -0.00861189560660011 0.0060376380356609478 -0.07321062598776526 -0.11150225639058296
leaf_weight=4196 1151 11423 9249 4037 1684 2862 4631 15508 4714 6761 6881 11883 9354 6783 6791 2484 8865 1741 3409 6008 1580 2675 3856 8938 2477 9567 6062 2283 2113 2778
leaf_count=4196 1151 11423 9249 4037 1684 2862 4631 15508 4714 6761 6881 11883 9354 6783 6791 2484 8865 1741 3409 6008 1580 2675 3856 8938 2477 9567 6062 2283 2113 2778
internal_value=0.000153835 0.040884 -0.0553959 0.013035 -0.0717151 0.0871834 0.0415253 -0.084933 0.0216698 -0.061414 0.0604033 0.108835 -0.0464095 0.00915597 -0.0370173 -0.0192047 0.0744767 0.0649242 -0.0165267 -0.118049 -0.0540126 0.026822 0.0633442 0.123481 -0.0738235 0.0551914 0.00619036 -0.0419589 -0.0225128 -0.0629894
internal_weight=172744 99672 73072 62245 60308 37427 39673 51841 12764 30325 29944 27539 23564 8467 22572 11838 23063 6455 9729 21516 15781 9888 6718 20821 11726 14198 7213 6320 6309 14201
internal_count=172744 99672 73072 62245 60308 37427 39673 51841 12764 30325 29944 27539 23564 8467 22572 11838 23063 6455 9729 21516 15781 9888 6718 20821 11726 14198 7213 6320 6309 14201
is_linear=0
shrinkage=0.1


Tree=8
num_leaves=31
num_cat=0
split_feature=78 73 73 67 67 67 232 67 246 233 73 73 78 234 248 78 78 70 78 232 234 70 89 67 71 78 78 1 1 233
split_gain=31756.1 10656.2 7916.03 7018.05 5086.54 4161.96 3265.99 2923.22 2683.98 1813.11 1747.9 1710.27 1383.67 1372.15 1299.27 1212.95 1180.69 1159.75 1068.01 1033.95 894.542 893.023 833.671 788.379 769.182 762.999 735.384 734.893 680.683 674.935
threshold=-0.33821120719821068 0.18471485084335734 0.16579325180726415 -0.45430300245936572 0.34207001707700352 0.045830249249351383 0.29137279185960452 0.94585254393513629 -0.55068858761230388 0.26591513664059768 -0.80256094326784144 -1.0383209985284982 0.67224260721751783 0.95466320644505254 0.54972247773686644 0.36666537560173867 -1.1346221277273598 -0.57547326866396775 0.74485282043809942 0.23044354426794905 0.63284815222146162 0.082633157003095398 -0.4068410751340284 -0.6652990127196402 0.11566194491399971 0.79657740677167721 0.38099787528844459 1.1092955514348932 -1.0190079852582377 0.29471811096858613
decision_type=8 8 8 8 8 8 8 8 8 8 10 10 8 8 10 8 10 8 8 8 8 8 8 10 8 8 8 8 10 8
left_child=2 3 4 11 6 15 10 9 18 16 23 28 20 26 -13 29 -4 -12 -5 -6 -10 -18 -19 -1 -23 -16 -7 -9 -2 -3
right_child=1 5 7 8 19 13 -8 27 12 -11 17 14 -14 -15 25 -17 21 22 -20 -21 -22 24 -24 -25 -26 -27 -28 -29 -30 -31
leaf_value=-0.0054944925359228401 0.093452555996694081 -0.036756975946079087 -0.1450493762688603 0.014238522800652754 0.077804175057886241 0.026658011560782752 -0.081796226496788693 0.030217818775232087 0.09535740576745573 -0.1161814490902128 -0.071554063159434286 0.019790233531675385 0.12908849969546207 -0.018763475525994097 -0.072201118620759772 -0.0052782988830444542 -0.079935386571157924 -0.039973951581077659 0.084870525726569765 0 0.040690948382495699 0.0058925454372536247 0.024815667512256012 0.063528563680923134 -0.061625920469124629 0.0069778138333463141 0.073791987928314817 -0.054292532737399452 0.025354088853703313 -0.08629522605354889
leaf_weight=3146 2834 6465 1878 5914 5678 8823 9885 2636 16594 14966 4804 7548 11447 4509 3486 7098 10345 4189 3374 2446 3700 2887 3765 3460 4015 1852 5351 1684 3101 4864
leaf_count=3146 2834 6465 1878 5914 5678 8823 9885 2636 16594 14966 4804 7548 11447 4509 3486 7098 10345 4189 3374 2446 3700 2887 3765 3460 4015 1852 5351 1684 3101 4864
internal_value=0.000138903 0.0380472 -0.048355 0.0641516 -0.0155718 -0.00404108 -0.0350251 -0.0802369 0.0873457 -0.0900571 -0.0111174 0.013559 0.101192 0.0292011 -0.00686564 -0.0377718 -0.0695777 -0.0327538 0.0399632 0.0543961 0.0854203 -0.0613148 -0.00924462 0.0305901 -0.033318 -0.0446443 0.0444953 -0.00261976 0.0579763 -0.0580814
internal_weight=172744 96960 75784 59850 37373 37110 29249 38411 41029 34091 19364 18821 31741 18683 12886 18427 19125 12758 9288 8124 20294 17247 7954 6606 6902 5338 14174 4320 5935 11329
internal_count=172744 96960 75784 59850 37373 37110 29249 38411 41029 34091 19364 18821 31741 18683 12886 18427 19125 12758 9288 8124 20294 17247 7954 6606 6902 5338 14174 4320 5935 11329
is_linear=0
shrinkage=0.1


Tree=9
num_leaves=31
num_cat=0
split_feature=78 73 67 73 67 67 231 231 70 67 246 66 73 185 78 71 62 234 67 231 181 84 78 67 47 246 71 246 62 62
split_gain=26056.7 10080.6 7364.99 5647.49 3118.5 3103.31 2743.04 2668.48 2654.09 2207.31 2053.34 1508.41 1407.91 1398.04 1300.98 1258.84 1208.33 1188.38 1166.61 1148.24 877.754 845.932 791.736 756.272 735.722 709.881 703.667 677.537 658.49 656.335
threshold=-0.4306825614911805 -0.5910240140152917 0.03686936357124989 -0.17781589277861543 0.57380088556929465 -0.63017868890572448 -0.37176829395317362 -0.71534413174477529 0.36065024856395517 -0.67453025013814605 -0.80581752419941843 -0.065460324611861409 0.52618308215412368 -0.27558945853880962 -1.1781078981070718 -0.019789365931988954 0.30740456310073144 0.509087002251015 -0.4788931296855129 -0.79876095860081875 0.72325895608519508 -0.52853624439555369 0.176945288524294 1.1240211351825151 -0.41718344392828582 0.76633479108653646 0.32862914681832006 0.43907445198291456 -0.79695727790438708 -1.3029180527393249
decision_type=8 8 8 8 8 8 10 10 8 8 8 10 10 10 10 8 10 8 10 10 8 10 8 8 10 8 8 10 8 8
left_child=3 5 6 4 10 25 -3 22 13 21 -1 20 24 -5 -10 -15 18 28 -12 -16 -11 -8 -4 26 -9 29 -21 -17 -7 -2
right_child=1 2 7 8 -6 17 9 12 14 11 16 -13 -14 15 19 27 -18 -19 -20 23 -22 -23 -24 -25 -26 -27 -28 -29 -30 -31
leaf_value=-0.086348950067826988 0.058407741366991409 -0.067128212671542578 -0.044060646265432518 -0.12266519906783485 0.078736802153194854 0.13050132599488959 -0.063334733850854127 0.040150995821472718 -0.13461952181777234 0.048114581932657489 -0.017896348758270741 -0.030912169998408387 0.027794949138037248 -0.054049610372697746 -0.089801957499809154 -0.12285566530605892 -0.053405421115095691 0.053430931140149955 0.048123489857263377 0.0058356137683048198 -0.023504934448203431 -0.0092120559811240867 0.02150637714258884 0.040985285673019553 0.08651103470321958 0.08020687465350948 -0.053544187012570202 -0.059739328604665201 0.091644363931632944 -0.010933526401433635
leaf_weight=4233 1902 9530 3650 8299 3421 6943 6332 4743 1180 10267 6352 4593 10622 12659 2222 5861 4162 5692 4616 3839 2042 5354 3703 2228 12811 1756 4123 2457 12354 4798
leaf_count=4233 1902 9530 3650 8299 3421 6943 6332 4743 1180 10267 6352 4593 10622 12659 2222 5861 4162 5692 4616 3839 2042 5354 3703 2228 12811 1756 4123 2457 12354 4798
internal_value=0.000125284 0.0305371 0.00985326 -0.0494745 -0.00921755 0.0760653 -0.020668 0.042612 -0.0708576 -0.00515911 -0.0247894 0.0179249 0.0566142 -0.0878225 -0.0342723 -0.0740037 -0.00752441 0.0937908 0.00984693 -0.0246719 0.0361908 -0.0385868 -0.010976 -0.010406 0.0740193 0.0236145 -0.0248563 -0.104291 0.105663 0.00868807
internal_weight=172744 107092 73647 65652 22784 33445 38118 35529 42868 28588 19363 16902 28176 29276 13592 20977 15130 24989 10968 12412 12309 11686 7353 10190 17554 8456 7962 8318 19297 6700
internal_count=172744 107092 73647 65652 22784 33445 38118 35529 42868 28588 19363 16902 28176 29276 13592 20977 15130 24989 10968 12412 12309 11686 7353 10190 17554 8456 7962 8318 19297 6700
is_linear=0
shrinkage=0.1


Tree=10
num_leaves=31
num_cat=0
split_feature=73 67 67 62 246 246 231 1 71 67 67 66 76 67 68 68 89 67 62 246 56 221 1 0 62 71 73 70 77 70
split_gain=17183.7 11504.7 5472.08 4696.77 3346.23 3190.36 2903.57 2155.79 1787.92 1642.97 1506.56 1642.99 1416.93 1275.21 1155.9 1093.1 1032.42 1015.13 1003.05 997.582 983.874 1089.37 948.29 880.365 862.063 842.861 821.045 809.217 784.838 748.482
threshold=0.28387005238159096 -0.073953560361111656 -1.0000000180025095e-35 -0.8328755938557445 -0.80581752419941843 0.48306891995279838 -0.17546977797575167 -0.019518877571295865 -0.24403009752082758 -0.93296623645266663 -0.87786950787624496 -0.40063692473726603 -1.0389839234697529 0.90133599968614997 0.17124564480947035 -0.46839937523406128 -1.1271064951377565 1.3116260920199301 -0.31907410046598855 -0.75334807942536774 -1.1898075912689963 -0.81314406146329932 0.34666224055246658 -0.89873684552831812 0.16877086953276829 0.17647564985444039 -1.4791300909209839 -0.46890001518629115 -0.24345058438067849 -0.46890001518629115
decision_type=10 8 8 8 10 10 10 8 10 10 8 10 8 8 10 10 10 8 8 10 10 10 8 8 8 8 10 10 10 8
left_child=1 3 8 9 18 10 17 28 19 26 -5 27 -8 14 -9 -11 -14 25 -3 -2 -7 -22 -18 -24 -10 -4 -1 -12 -6 -21
right_child=2 4 6 5 7 20 12 13 24 15 11 -13 16 -15 -16 -17 22 -19 -20 29 21 -23 23 -25 -26 -27 -28 -29 -30 -31
leaf_value=0.064060139236449987 -0.079202844233487724 0.050985821817032567 -0.02847071830853818 -0.077327478791823695 0.065498579061103485 -0.045220631521057923 -0.18202205591767595 0.066186555266282684 -0.063994870791437605 0.083996982535310877 -0.029661694016240782 -0.057070208286873918 -0.081365552425729001 0.077481332320708765 0 0.021998434576848705 0.05453807001225789 0.0090818449053821689 -0.022941133552067231 -0.052043398083129647 -0.013988661722174093 0.059300846500943631 -0.11286902792621373 0.014429994419965975 -0.11046213305774968 -0.087257793728427929 -0.021321907919821512 0.027434601421084732 0.10871469592208304 -0.0060178059809222993
leaf_weight=1426 6259 2791 4656 8713 6098 1857 343 4397 7180 6969 4607 9462 901 8900 6607 4850 7459 2741 5347 7831 3047 6002 580 8081 9242 5203 5318 5376 14158 6487
leaf_count=1426 6259 2791 4656 8713 6098 1857 343 4397 7180 6969 4607 9462 901 8900 6607 4850 7459 2741 5347 7831 3047 6002 580 8081 9242 5203 5318 5376 14158 6487
internal_value=-0.000167452 0.024896 -0.039821 -0.00526711 0.0608944 -0.0249543 -0.00803565 0.0727431 -0.0655474 0.0361338 -0.0427446 -0.0272165 0.0184605 0.0493102 0.0264701 0.0586058 0.0225509 -0.0445867 0.00235765 -0.0458523 0.0209319 0.0345698 0.0283995 0.00582337 -0.0901865 -0.0595572 -0.00318035 0.00103481 0.0957371 -0.0312294
internal_weight=172888 105925 66963 57627 48298 39064 29964 40160 36999 18563 28158 19445 17364 19904 11004 11819 17021 12600 8138 20577 10906 9049 16120 8661 16422 9859 6744 9983 20256 14318
internal_count=172888 105925 66963 57627 48298 39064 29964 40160 36999 18563 28158 19445 17364 19904 11004 11819 17021 12600 8138 20577 10906 9049 16120 8661 16422 9859 6744 9983 20256 14318
is_linear=0
shrinkage=0.1


Tree=11
num_leaves=31
num_cat=0
split_feature=78 232 67 73 67 73 73 246 232 181 67 67 221 73 1 184 79 78 233 246 86 70 78 68 67 70 221 246 79 72
split_gain=20321.9 8275.4 4843.12 4110.25 3059.55 2889.74 2835.13 1902.04 1890.18 1629.86 1365.8 1287.48 1279.95 1226.52 1141.86 1014.22 989.694 949.683 885.768 774.494 734.888 711.194 699.235 694.684 1397.46 677.762 660.296 634.984 630.314 616.075
threshold=-0.051869195813079937 0.3128460823173424 -0.2202638843033847 -0.6534011768743736 -0.4867102533880544 0.31487509656950019 -0.6919551959043061 -0.7145760912171174 1.3696556560456579 1.2107154934211894 0.99167125641344678 -1.0000000180025095e-35 -0.62294614536931781 1.1462136069098154 -0.11835665940750321 0.50561471845084094 -0.54145304288964902 -0.92620452855361968 0.027702477886204193 0.36333889027073912 -0.56818568910709732 -0.47838046012795005 0.79657740677167721 -0.1140590917320765 0.31720734667165634 -0.084342749843328513 -0.15845079082703553 0.96184756507407154 -0.54765651060463882 0.66595619976509324
decision_type=8 8 8 8 8 8 10 10 8 8 8 8 10 10 10 8 10 10 8 8 10 10 8 10 8 10 10 8 10 10
left_child=1 2 6 11 18 17 21 -6 10 12 14 19 -8 22 25 27 -7 -4 -5 -2 -16 -1 -9 -19 -25 -3 -22 -14 -10 -11
right_child=3 8 5 4 7 16 9 13 28 29 -12 -13 15 -15 20 -17 -18 23 -20 -21 26 -23 -24 24 -26 -27 -28 -29 -30 -31
leaf_value=-0.010543510495179809 0.03486313456331129 -0.052935805543380454 -0.019789255934769531 0.019223188503432694 -0.00453154969244396 -0.050921671155639253 -0.07370123592429105 0.047945533626372036 -0.13159928590133893 -0.12163272789077745 0.017515731534762078 0.10283118978600417 -0.016684054840371429 -0.00041673876772376959 -0.11329571728320216 -0.062545125933788692 0.0047895185959464029 0.089897998543684715 -0.036584262867463531 0.088655579073431398 -0.091833034376900824 0.048571028671147431 0.083996315237774899 -0.0096724002500180751 0.062014855028198396 0.0022409869727179326 -0.039633131301236774 0.047804212579687887 -0.080807453148859371 0.0026568100031659583
leaf_weight=4252 7452 6239 2017 4340 7382 4919 7204 14882 4485 3636 2512 10475 8465 3738 4192 4370 9019 3880 8197 4225 4430 3882 8554 3785 9550 3434 5473 1859 5601 439
leaf_count=4252 7452 6239 2017 4340 7382 4919 7204 14882 4485 3636 2512 10475 8465 3738 4192 4370 9019 3880 8197 4225 4430 3882 8554 3785 9550 3434 5473 1859 5601 439
internal_value=-0.000151898 -0.0281782 -0.00739432 0.041789 0.0250618 0.0198024 -0.0338582 0.0404183 -0.066612 -0.0499968 -0.0524426 0.0773214 -0.0391479 0.052647 -0.0598582 -0.0221657 -0.0148407 0.0449343 -0.0172252 0.0543811 -0.078042 0.0176128 0.0611312 0.0525481 0.0416313 -0.0332995 -0.0630485 -0.00501649 -0.103465 -0.108126
internal_weight=172888 103643 67277 69245 47093 33170 34107 34556 36366 25973 26280 22152 21898 27174 23768 14694 13938 19232 12537 11677 14095 8134 23436 17215 13335 9673 9903 10324 10086 4075
internal_count=172888 103643 67277 69245 47093 33170 34107 34556 36366 25973 26280 22152 21898 27174 23768 14694 13938 19232 12537 11677 14095 8134 23436 17215 13335 9673 9903 10324 10086 4075
is_linear=0
shrinkage=0.1


Tree=12
num_leaves=31
num_cat=0
split_feature=78 246 73 246 73 79 70 70 77 186 73 70 86 246 231 78 78 73 78 70 184 57 122 246 227 89 194 70 51 76
split_gain=16724.2 7384.31 3421.56 3085.18 2772.39 2740.22 1718.49 1505.26 1492.63 1464.28 1461.82 1251.05 1242.78 1205.94 1025.14 958.838 938.704 938.701 908.954 863.223 767.05 758.894 690.416 664.453 643.294 641.347 629.371 620.124 594.024 591.576
threshold=0.062827121019202181 0.23339399532727398 -0.60352245341364141 -0.22243746319272706 0.25452332806311095 -0.34204530758202473 -0.16675858320828693 -0.22915837598260205 0.61373100876076569 0.056181769362581215 -1.0560774899063807 0.82487465793941195 -0.68873208030434885 -1.258651821234489 -0.8713816361442791 -0.72911875924313507 1.7937150202339154 0.85321688502579962 -0.90668721496723104 -0.33838006778619473 3.083278491144116 0.12868482320626351 -0.068034092282061087 -1.0999624369173457 0.062121248645783937 -0.44061623515028575 -0.12634163155434644 0.027770887000182057 -0.24476495256260816 -1.1011520176602672
decision_type=8 10 10 10 8 10 8 10 10 10 8 8 10 8 10 10 8 10 10 8 8 8 8 8 10 10 10 10 10 10
left_child=1 2 7 10 6 12 18 -1 17 -7 -2 21 -4 -11 -14 29 19 22 -3 -12 28 -6 -5 -9 -18 -23 -25 -17 -8 -16
right_child=3 4 5 8 11 9 20 23 -10 13 16 -13 14 -15 15 27 24 -19 -20 -21 -22 25 -24 26 -26 -27 -28 -29 -30 -31
leaf_value=-0.032310507205540601 0.066749191267487282 -0.070191062850301605 -0.10595833165528545 0.039567997751907863 -0.0035430957038002455 -0.056758254646540642 0.037724426448181594 -0.032646289319770247 0.092767759463208449 -0.065450575164989491 -0.039439591709813232 0.02676087500260256 -0.096462909120011986 0.0096297359081052494 -0.17573419760991069 -0.050458907343462922 -0.0057448343931029034 0.0057793901081062207 0.013402553714423476 0.010211874575075809 -0.038734018280698453 -0.10024220957119129 0.074850183014162713 0.0044184677413280238 0.069650284451877556 -0.036949509802320105 0.069987255419544578 -0.0018167252786642771 0.080454716197951193 -0.069409226767749702
leaf_weight=7470 4247 1521 8521 11958 4870 9972 6152 1340 10217 2692 6092 4311 6163 10364 580 6404 1832 4466 8904 8205 818 2167 10516 2401 2909 6331 3819 4473 7070 6103
leaf_count=7470 4247 1521 8521 11958 4870 9972 6152 1340 10217 2692 6092 4311 6163 10364 580 6404 1832 4466 8904 8205 818 2167 10516 2401 2909 6331 3819 4473 7070 6103
internal_value=-0.000137592 -0.0229431 -0.0427852 0.0422808 0.0101448 -0.0542891 0.0319546 -0.000445486 0.0601691 -0.0279031 0.0137114 -0.0200084 -0.073115 -0.00582034 -0.0612891 -0.0489062 0.00184769 0.0477815 0.00114723 -0.0109124 0.0547906 -0.03513 0.0561046 0.0309743 0.0404208 -0.0531678 0.0447668 -0.0305055 0.0606195 -0.0787615
internal_weight=172888 112446 70302 60442 42144 55272 24465 15030 37157 23028 23285 17679 32244 13056 23723 17560 19038 26940 10425 14297 14040 13368 22474 7560 4741 8498 6220 10877 13222 6683
internal_count=172888 112446 70302 60442 42144 55272 24465 15030 37157 23028 23285 17679 32244 13056 23723 17560 19038 26940 10425 14297 14040 13368 22474 7560 4741 8498 6220 10877 13222 6683
is_linear=0
shrinkage=0.1


Tree=13
num_leaves=31
num_cat=0
split_feature=78 73 67 231 232 185 67 234 72 76 70 70 68 67 62 246 79 68 71 78 67 68 73 73 78 80 71 67 89 56
split_gain=14002.4 6464.08 5017.59 2596.51 2263.6 1989.76 1917.5 1841.95 1603.5 1262.74 1224.59 1165.31 1110.63 1332.88 1100.4 988.802 981.608 778.828 735.668 734.567 712.37 634.302 610.068 597.579 586.813 572.98 566.459 543.629 533.841 520.984
threshold=-0.58535878636296956 -0.64057689133668261 0.17494379851794603 -0.37176829395317362 0.18192645853569156 -0.45784705920247598 -0.74788536446804954 1.1289259082772569 -0.45926188306703553 -1.3575299883582155 -0.45966165156188959 -0.093623064537027775 0.33236955184087708 0.79742774613965228 0.45650601508953764 0.47219543002474468 -0.57385262457684949 -0.1740589144596108 -0.29901768664203904 0.60653001926038097 -0.87786950787624496 0.74233534962084613 -1.6437347634579311 0.55048148607372716 0.82241320819961194 0.3596592314448111 0.1553499680454378 -0.2202638843033847 -1.2790180569305214 -0.69977226959933725
decision_type=8 8 8 10 8 10 8 8 8 8 10 10 10 8 8 10 8 10 10 8 8 10 10 8 8 8 8 10 10 8
left_child=4 6 3 26 8 -5 22 12 14 -10 18 -11 -4 24 27 19 -6 20 -7 -8 -12 -15 -2 -13 -14 -23 -3 -1 -18 -16
right_child=1 2 7 5 16 10 15 -9 9 11 17 23 13 21 29 -17 28 -19 -20 -21 -22 25 -24 -25 -26 -27 -28 -29 -30 -31
leaf_value=-0.052546255145251665 0.060795878965338584 -0.041876336680087473 0.076212712173476901 -0.044277118420233512 -0.091895105279167569 0.0026883925123866986 0.036003335830996581 -0.018356198011168608 -0.15064962271729099 -0.029987407420993002 -0.0025234056550446546 0.040102315846527063 -0.016291461901787995 0.10080956854655621 -0.15481962994016654 0.091052408638065713 -0.12968785513786557 -0.0012151666542358588 -0.047441180363505468 0.078500938675480136 0.059056642809711235 0.017398798036757857 -0.0059164286353208988 -0.020342308322422942 0.05409268526624661 0.058336009933251103 -0.088290966133429669 0.0063816987154248096 -0.041049382346185367 -0.073938752439792338
leaf_weight=5186 1779 9938 7101 9145 10797 9239 11164 6163 594 7858 2453 6048 6278 1973 1255 10074 741 5903 4272 6474 7809 6248 5910 2228 1457 7673 3625 2221 8964 2318
leaf_count=5186 1779 9938 7101 9145 10797 9239 11164 6163 594 7858 2453 6048 6278 1973 1255 10074 741 5903 4272 6474 7809 6248 5910 2228 1457 7673 3625 2221 8964 2318
internal_value=-0.000124851 0.017569 0.00322438 -0.0166645 -0.0458928 -0.00349025 0.0537279 0.0314773 -0.0272213 -0.00769471 0.00906398 -0.00238258 0.0414884 0.0310262 -0.0569177 0.0659894 -0.0710974 0.027644 -0.0131296 0.0516375 0.0442904 0.047595 0.00946555 0.0237685 -0.0029584 0.0400037 -0.0543297 -0.0348122 -0.047894 -0.102558
internal_weight=172888 124678 89277 52384 48210 38821 35401 36893 27708 16728 29676 16134 30730 23629 10980 27712 20502 16165 13511 17638 10262 15894 7689 8276 7735 13921 13563 7407 9705 3573
internal_count=172888 124678 89277 52384 48210 38821 35401 36893 27708 16728 29676 16134 30730 23629 10980 27712 20502 16165 13511 17638 10262 15894 7689 8276 7735 13921 13563 7407 9705 3573
is_linear=0
shrinkage=0.1


Tree=14
num_leaves=31
num_cat=0
split_feature=73 67 1 79 246 62 209 233 122 73 67 68 67 185 189 67 68 246 67 88 35 86 68 67 67 69 35 67 184 221
split_gain=9328.33 6779.74 3752.39 3291.53 1895.81 1871.06 1838.91 1772.86 1456.03 1370.36 1239.72 1101.25 1166.61 1090.61 1075.78 992.288 1006.99 907.978 808.969 707.314 649.337 642.145 624.063 646.514 619.507 667.544 614.595 600.177 598.982 673.363
threshold=0.40803825532594401 0.14317376816938324 -0.46162055868705359 0.05477469992250561 -0.67878444952963946 0.6305641395449223 -0.14115237606737935 -0.028192310511623398 -0.51704336497249703 -1.0560774899063807 -0.38209008731805533 0.20140730038717239 0.50074050001486314 -0.50111679435286338 -0.10590143586924297 -0.77686066364427819 -0.41749571081900838 0.45013655405085834 1.068673841475998 -0.45328258757046108 -0.48499398840860902 -1.2355707643104057 0.77719756257605843 1.2443247406320512 -0.8249188628390739 -0.57314630125667498 -0.54021029035876567 1.068673841475998 0.50561471845084094 -0.3687827742551375
decision_type=10 8 8 8 8 8 8 8 8 10 8 10 8 10 10 10 10 10 8 10 10 10 10 8 8 10 8 8 8 10
left_child=1 2 4 7 -1 11 8 18 -4 -6 -5 -3 -13 -8 -15 -11 -17 27 20 -9 -2 -12 -14 -24 -16 -26 -23 -7 29 -22
right_child=3 5 6 10 9 17 13 19 -10 15 21 12 22 14 24 16 -18 -19 -20 -21 28 26 23 -25 25 -27 -28 -29 -30 -31
leaf_value=-0.018086406745256987 -0.061303441062413047 0.095947394896486821 -0.023804263124104268 -0.036934500882950159 0.069849717851340726 -0.034289716541690725 -0.080086324228056463 -0.089869643330986237 0.042794600303994713 -0.0098292513939782031 -0.084053405865173181 0.0087357274741553491 0.089980445610823148 -0.059901756668498098 -0.046259636628139748 0.071808630287105685 0.0097403770696036038 0.050370813206359048 0.021690272931371948 -0.052465282462008093 -0.034266298651961458 -0.0081635464040544729 0.018727013618916211 0.06791839466734878 0.043392631299471164 -0.01558186380566795 0.036135695346367937 0.021960907213737283 -0.07422453980210085 0.02764632518642204
leaf_weight=8753 6022 7272 7231 6401 8087 3745 5290 9537 6004 6787 610 5075 5876 7070 3541 4979 5547 4631 2893 11015 3839 4814 4281 7262 2817 6003 8872 3832 1572 3230
leaf_count=8753 6022 7272 7231 6401 8087 3745 5290 9537 6004 6787 610 5075 5876 7070 3541 4979 5547 4631 2893 11015 3839 4814 4281 7262 2817 6003 8872 3832 1572 3230
internal_value=-0.000113904 0.0165601 -0.00203259 -0.0324697 0.0220075 0.0485117 -0.0236771 -0.0499047 0.00637215 0.0358441 -0.000342035 0.0620379 0.0510457 -0.0397842 -0.0287793 0.0199248 0.0391554 0.0154859 -0.0265174 -0.0698539 -0.0360645 0.0160101 0.0633415 0.0497243 -0.0109313 0.00320276 0.0205182 -0.00577721 -0.0184072 -0.00590637
internal_weight=172888 114083 72109 58805 34153 41974 37956 38108 13235 25400 20697 29766 22494 24721 19431 17313 10526 12208 17556 20552 14663 14296 17419 11543 12361 8820 13686 7577 8641 7069
internal_count=172888 114083 72109 58805 34153 41974 37956 38108 13235 25400 20697 29766 22494 24721 19431 17313 10526 12208 17556 20552 14663 14296 17419 11543 12361 8820 13686 7577 8641 7069
is_linear=0
shrinkage=0.1


Tree=15
num_leaves=31
num_cat=0
split_feature=78 246 70 1 67 1 77 72 181 221 88 71 231 246 78 122 73 73 49 208 221 67 73 67 79 73 185 89 246 79
split_gain=10777.2 5023.63 3703.78 2172.66 2092.52 1853.45 1734.02 1367.81 1105.95 1364.44 1048.75 1046.27 980.418 967.17 873.906 848.252 687.153 665.403 657.097 723.643 627.628 602.677 602.364 569.565 548.351 530.516 527.206 506.831 504.032 475.147
threshold=0.062827121019202181 -0.58478545423529982 0.12127495037392226 0.27836552975866691 -0.64750727555490528 0.41611921866340884 0.33150864940693597 -0.92711284486560974 0.95557407124960825 -0.75147017459056298 -0.4862162224791246 0.18689850741078165 -0.8713816361442791 -0.49652996982571901 -0.90668721496723104 -0.24691219375754889 -1.0383209985284982 0.91146005684993181 -0.45681076943559606 -1.330080506235223 -0.039554316114746406 0.96794146005472614 0.65126131721867753 0.40527347784292972 -1.1786972979345578 -1.8700093556170214 -0.058866558323893252 -0.61389550586003183 0.97884934923727196 -0.57385262457684949
decision_type=8 10 8 10 8 8 10 10 8 10 8 8 10 10 10 10 8 10 10 10 10 8 10 8 10 10 10 10 10 8
left_child=1 10 3 8 22 16 13 -7 9 -3 25 27 -12 -6 24 28 -4 -15 -18 -20 -14 -13 -2 -16 -9 -1 -17 -5 -11 -27
right_child=4 2 5 11 6 7 -8 14 -10 15 12 21 20 17 23 26 18 -19 19 -21 -22 -23 -24 -25 -26 29 -28 -29 -30 -31
leaf_value=0.050051851331425659 0.0072625165447648592 -0.037280374772569451 0.085352383276754804 -0.071396396631902767 -0.0011263070282719603 -0.073119137480868221 0.067201339975168708 -0.17761214582481599 -0.057476212549133925 -0.01896550024217071 -0.065969003843735816 -0.099765208669643571 -0.040106595494022429 0.047362324491592001 -0.0085332755637713593 -0.00077418984786134916 0.0053956800024302816 0.00045470103313996967 -0.024068094212986932 0.05840334565872464 0.0065533283887108844 0.0035415033165378828 -0.051025938864164025 0.035529765533457901 -0.031505964497336406 -0.095587152111074061 0.051941815960365359 -0.020722953801571992 0.045134772583817206 -0.058784228164852348
leaf_weight=350 10426 6944 2965 2725 8153 2497 18525 307 3842 6968 6478 5060 5876 17659 4992 2671 5658 3675 1203 8639 5626 625 2133 7058 1627 5920 6392 7336 1484 8988
leaf_count=350 10426 6944 2965 2725 8153 2497 18525 307 3842 6968 6478 5060 5876 17659 4992 2671 5658 3675 1203 8639 5626 625 2133 7058 1627 5920 6392 7336 1484 8988
internal_value=-0.000290826 -0.0186402 -0.0049089 -0.0242007 0.0336996 0.0193927 0.043206 -0.00495693 -0.00761265 0.0002035 -0.0512564 -0.0539785 -0.0348317 0.0281106 0.00718716 0.0150955 0.0411513 0.0393062 0.0326539 0.0482691 -0.0172431 -0.0883227 -0.00260384 0.0172357 -0.0551164 -0.0705714 0.0363537 -0.0345089 -0.00764363 -0.0734431
internal_weight=172802 112231 78993 44047 60571 34946 48012 16481 28301 24459 33238 15746 17980 29487 13984 17515 18465 21334 15500 9842 11502 5685 12559 12050 1934 15258 9063 10061 8452 14908
internal_count=172802 112231 78993 44047 60571 34946 48012 16481 28301 24459 33238 15746 17980 29487 13984 17515 18465 21334 15500 9842 11502 5685 12559 12050 1934 15258 9063 10061 8452 14908
is_linear=0
shrinkage=0.1


Tree=16
num_leaves=31
num_cat=0
split_feature=78 246 78 78 73 73 232 246 56 186 79 122 77 186 182 57 57 209 87 209 77 209 215 89 213 1 49 73 71 49
split_gain=8898.71 3993.52 2357 1945.4 1599.48 1575.42 1463.54 1287.91 1163.23 1116.76 996.311 979.369 858.491 807.567 749.938 732.726 729.224 678.091 646.21 625.604 605.07 545.237 544.853 542.017 535.904 491.651 481.456 438.491 436.005 420.74
threshold=-0.53097186535135743 0.13459204561449864 0.44395467682979639 -0.9804176672324777 0.25452332806311095 -1.2090979916060343 1.2394063462360145 0.47219543002474468 -1.0986896137237498 0.15055699463853184 -1.2298348503198604 -0.80619917909355876 0.85551069289306281 0.31846305793117757 1.3002562873001102 0.5870640194732053 0.62483817822648569 0.61849713886745084 -0.26491446524690221 -1.0000000180025095e-35 0.13127204757478986 0.67722363820994702 0.5624870828379247 -0.41555287293879228 -0.42339421676657435 1.0883922612997041 -0.38963355412086381 0.65126131721867753 -0.28102356070235185 -0.50670259293242004
decision_type=8 10 8 10 10 8 8 10 10 10 10 10 10 10 8 8 10 10 10 8 8 10 10 10 10 10 10 10 8 8
left_child=3 2 6 10 8 -5 9 13 -3 -2 -1 -10 26 19 21 23 29 22 -18 -7 -13 24 -11 -9 -15 -19 -4 -28 -12 -6
right_child=1 4 12 5 16 7 -8 15 11 17 28 20 -14 14 -16 -17 18 25 -20 -21 -22 -23 -24 -25 -26 -27 27 -29 -30 -31
leaf_value=-0.13637227741187549 -0.028685450224459064 0 -0.0069568623684229712 0.045340150356138198 -0.0056700263856686462 -0.030027135036480131 -0.055836984719050055 -0.0060881438035553445 0.022624433194829961 0.040116296197568457 -0.034026137107680599 0.048652806938230424 0.063232073967466426 -0.031788192001721741 -0.089042945183644501 -0.031132810981146172 -0.060177957583040821 -0.0034633176096125536 0.0049062138615389725 -0.069877538630797778 0.080906676510712205 -0.03151352858343856 -0.010585149955938393 0.054704648775840518 0.039327846152063264 -0.080737297845693931 0.039406783781639254 -0.0088947585308504547 -0.073005065319460619 0.041620353852075458
leaf_weight=1786 14144 4512 6356 3120 2475 6719 7400 2831 7415 7485 5179 12059 4664 1593 1342 3820 1947 9906 6974 9738 11495 5270 2936 3011 3129 898 7906 2444 6640 7608
leaf_count=1786 14144 4512 6356 3120 2475 6719 7400 2831 7415 7485 5179 12059 4664 1593 1342 3820 1947 9906 6974 9738 11495 5270 2936 3011 3129 898 7906 2444 6640 7608
internal_value=-0.000263444 0.0150697 -0.00183401 -0.0338443 0.034977 -0.0228505 -0.0153917 -0.0285466 0.0475204 -0.00691275 -0.066585 0.0544313 0.0252752 -0.0394811 -0.0188673 0.0028547 0.0115293 0.00757401 -0.00925262 -0.0536436 0.0644203 -0.00937623 0.0257845 0.0251672 0.0152272 -0.00994615 0.0146421 0.0279533 -0.0559757 0.0299639
internal_weight=172802 118624 64139 54178 54485 40573 42769 37453 35481 35369 13605 30969 21370 27791 11334 9662 19004 21225 8921 16457 23554 9992 10421 5842 4722 10804 16706 10350 11819 10083
internal_count=172802 118624 64139 54178 54485 40573 42769 37453 35481 35369 13605 30969 21370 27791 11334 9662 19004 21225 8921 16457 23554 9992 10421 5842 4722 10804 16706 10350 11819 10083
is_linear=0
shrinkage=0.1


Tree=17
num_leaves=31
num_cat=0
split_feature=78 70 71 62 67 62 67 234 184 67 182 62 71 0 70 81 76 85 158 228 73 67 69 232 0 246 246 44 73 237
split_gain=7397.83 4102.08 2514.47 2145.28 1663.19 1469.06 1459.71 1263.23 1212.24 1086.78 1081.89 1075.16 892.045 890.007 853.054 796.134 681.746 644.099 706.185 640.354 617.388 580.157 786.591 546.024 544.32 528.659 526.237 513.147 484.513 482.725
threshold=0.062827121019202181 0.11168748188697041 -0.60456902635318666 0.84857913457526768 -0.16199277697992426 0.28579053247892311 -0.22868715876277054 0.63284815222146162 2.4199438265819935 1.8579889748106482 0.49022554228705206 -0.77330511525622891 0.99379095676771978 -0.50697556233540242 -0.63639537944131197 -0.24710690363230012 -0.20490195511619999 -0.39475599748240553 0.035092437731501523 0.34484392730972141 -0.81656470728082697 -1.0181080334893189 -0.77341632269968019 -0.32934435628668907 -1.3097149202478535 -0.98189529445719359 0.58675147667287375 0.29674225540110294 0.13639893609504439 -2.5620615192572642
decision_type=8 8 8 8 8 10 8 8 8 8 8 8 8 10 10 10 10 10 8 10 8 10 10 8 10 8 8 10 8 10
left_child=1 2 10 7 13 6 26 8 20 12 14 -6 25 -2 -1 -13 -15 -7 -19 -9 -3 -18 -23 -8 -22 -5 -4 -24 -16 -17
right_child=4 3 5 9 11 17 23 19 -10 -11 -12 15 -14 16 28 29 21 18 -20 -21 24 22 27 -25 -26 -27 -28 -29 -30 -31
leaf_value=-0.011390798633944625 0.035488060851058371 0.073186309266103852 -0.061008517108282437 -0.0728497057161267 0.07298243614345265 -0.094948110667367025 0.034882208906205671 -0.033514354920418772 -0.03368643077952925 0.041331875276852809 -0.038253238311639792 0.0085597900373216677 -0.073505587669728617 0.036489728322089222 0.057509076357863648 -0.017178804750753372 -0.058044419926842242 -0.069959232241367422 -0.011321470296898844 0.02145473468743617 -0.033827069397271071 0.033425073765207723 -0.045098629654037409 -0.017390645955373318 0.036171046692159564 -0.004578918771776414 -0.014944085009638933 0.0060785000879544047 0.0045069233462993628 0.049556453655087249
leaf_weight=10282 8325 4470 10937 1382 8560 6368 3144 5325 2481 2059 7635 9328 4335 3315 3870 1151 2456 7824 2815 3507 1183 3709 4402 5471 16345 6399 3249 3501 3150 15824
leaf_count=10282 8325 4470 10937 1382 8560 6368 3144 5325 2481 2059 7635 9328 4335 3315 3870 1151 2456 7824 2815 3507 1183 3709 4402 5471 16345 6399 3249 3501 3150 15824
internal_value=-0.000239269 -0.0154424 -0.0318163 0.00687248 0.0279217 -0.0474154 -0.0307808 0.0207457 0.0324476 -0.0256925 -0.0068929 0.0421544 -0.0371288 0.00859943 0.00691967 0.0320979 -0.00425181 -0.0696815 -0.0544962 -0.0116308 0.0399315 -0.0138916 -0.00450154 0.00163171 0.0314149 -0.0167845 -0.0504973 -0.0223683 0.0338053 0.0450005
internal_weight=172802 112231 64745 47486 60571 39808 22801 33311 24479 14175 24937 34863 12116 25708 17302 26303 17383 17007 10639 8832 21998 14068 11612 8615 17528 7781 14186 7903 7020 16975
internal_count=172802 112231 64745 47486 60571 39808 22801 33311 24479 14175 24937 34863 12116 25708 17302 26303 17383 17007 10639 8832 21998 14068 11612 8615 17528 7781 14186 7903 7020 16975
is_linear=0
shrinkage=0.1


Tree=18
num_leaves=31
num_cat=0
split_feature=79 67 1 209 66 67 186 246 208 186 186 246 66 81 185 182 62 246 246 66 89 185 66 67 66 239 70 70 71 62
split_gain=5725.17 3505.95 2444.35 1982.17 1703.66 1837.75 1619.6 1450.93 988.625 960.449 879.809 873.441 830.987 807.572 761.572 716.955 647.827 631.698 625.126 581.804 553.582 530.881 509.183 824.7 490.375 481.688 470.733 464.372 592.56 460.849
threshold=-0.50312737075893488 -0.45430300245936572 -0.12786641223834253 0.23890442041546148 -0.71390275900375311 -1.0725075137399289 0.066984696532826904 0.48306891995279838 -0.33948044573380426 0.56534113011233467 0.14512527689353497 -1.258651821234489 -1.0416477312640418 -0.23697439492612785 -0.23864866932944132 2.1715956966660124 0.60319779123295458 1.10279285159153 -1.258651821234489 -1.2010833874892428 -0.78395077768680166 -0.47851842441476555 -0.40063692473726603 0.17494379851794603 0.018304057013962479 -0.48024549727020377 -0.79052821555380581 0.89476259803387237 0.60597689190173953 0.56505788290241732
decision_type=8 8 8 10 10 10 10 10 10 10 10 10 10 10 10 8 8 10 10 10 10 10 8 8 10 10 10 8 8 8
left_child=3 4 11 6 5 19 17 10 25 16 27 -3 -7 -13 -11 -6 -5 29 -12 -2 -9 -10 -15 24 -24 -8 -16 28 -4 -1
right_child=1 2 7 9 15 12 8 20 21 14 18 13 -14 22 26 -17 -18 -19 -20 -21 -22 -23 23 -25 -26 -27 -28 -29 -30 -31
leaf_value=-0.02396247699810819 -0.012196934419289472 -0.0075511960023863902 -0.019829305610128693 -0.047750284581084552 -0.031908120441726688 0.058872180696386202 -0.041076692228293438 -0.018976233953849668 -0.022897118656297691 -0.06597387866355961 -0.034455045536532967 0.028933164875606307 0.0070566487515182344 0.097027095762782165 -0.040867693435752105 -0.098618391847525882 -0.091154749513006644 0.0094460014080615523 0.02225964008071258 -0.066681279252206738 0.040732409568661386 0.05662859121429873 0.04829334609113347 0.072128470772443803 -0.0058505680699788747 0.011129461795404541 0.012993140867255086 0.0013758607682430178 -0.076143977386394196 -0.062325067599971765
leaf_weight=7684 5422 3098 6687 11966 11964 5157 2818 1751 977 2779 2324 13643 7803 3245 2402 1873 4894 3237 11673 3095 12947 5583 4257 9873 2729 4711 4976 5254 2614 5366
leaf_count=7684 5422 3098 6687 11966 11964 5157 2818 1751 977 2779 2324 13643 7803 3245 2402 1873 4894 3237 11673 3095 12947 5583 4257 9873 2729 4711 4976 5254 2614 5366
internal_value=-0.000216129 0.0126169 0.0241922 -0.0260298 -0.0136225 0.00398671 -0.00848211 0.00805323 0.0163204 -0.0457385 -0.00507321 0.0431216 0.0277194 0.0477884 -0.0213643 -0.0409872 -0.0603884 -0.0299675 0.0128037 -0.0320657 0.0335836 0.044705 0.060555 0.0534946 0.0270755 -0.0083499 -0.0044805 -0.0222985 -0.035723 -0.0397821
internal_weight=172802 115409 80095 57393 35314 21477 30376 43250 14089 27017 28552 36845 12960 33747 10157 13837 16860 16287 13997 8517 14698 6560 20104 16859 6986 7529 7378 14555 9301 13050
internal_count=172802 115409 80095 57393 35314 21477 30376 43250 14089 27017 28552 36845 12960 33747 10157 13837 16860 16287 13997 8517 14698 6560 20104 16859 6986 7529 7378 14555 9301 13050
is_linear=0
shrinkage=0.1


Tree=19
num_leaves=31
num_cat=0
split_feature=73 79 70 70 246 87 231 73 185 239 48 73 221 89 234 62 72 231 213 185 221 84 72 62 221 247 79 48 1 246
split_gain=5300.15 3930.32 2292.16 1415.66 1333.24 1301.32 1128.31 1111.87 963.979 834.811 828.511 737.391 666.65 590.207 579.281 574.07 573.641 603.84 547.821 480.547 517.855 480.119 456.053 453.132 450.29 452.969 444.68 407.714 384.736 380.51
threshold=-0.74644532988043688 -0.50312737075893488 -0.29253599506108036 -0.56541467495821307 -1.1955355037700783 -0.095265343378005102 0.14074753457557618 0.67478009208597334 -1.0997075513346417 0.21831851099579716 -0.0097765145042710746 -1.5089278771557921 0.14587118540660707 -0.29982932230107101 1.0096511116846292 -1.2814228405016437 -0.6339065139395611 0.11971130709420071 -1.2006969884787668 1.1026283531193533 -0.64971375040825885 -0.91465179899491866 -1.9916870689823125 -0.45504011513548359 -0.35822971181785973 -0.83303543671722058 0.38865375523628404 0.094220155510988307 0.82626693355706171 0.61052880846760338
decision_type=8 8 8 8 8 10 10 8 10 10 8 10 10 10 8 8 8 10 10 8 10 8 8 10 10 8 8 10 10 10
left_child=3 5 8 15 -4 16 12 10 -3 -10 22 -5 -7 23 21 -1 28 -18 -8 20 -19 -13 -6 -11 25 -20 29 -17 -2 -9
right_child=1 2 4 11 7 6 18 26 9 13 -12 14 -14 -15 -16 27 17 19 24 -21 -22 -23 -24 -25 -26 -27 -28 -29 -30 -31
leaf_value=0.040773717940932069 -0.062690106467638826 -0.058790150730108785 -0.032324010427039085 0.071878414364481572 -0.1228122653109552 -0.044709775133679817 -0.027778146810483295 -0.026161439190701893 -0.027964834632155003 0.0098233707311929375 0.046118744884716616 0.0058585407682416333 0.0035722604817779204 0.031783220112151511 -0.014409001261882565 -0.025842996699199886 -0.064271529373528008 -0.057755439679181043 0.047807391070244655 -0.079336047651121483 0.0043999607840108888 0.049368053404415468 0.016670565933877501 -0.038003957382474231 0.064299008341906591 -0.026825908617411038 0.019329727231925446 0.016679884243342828 -0.12023446024350899 0.015146440952565236
leaf_weight=3252 5705 5020 5423 7597 235 11862 2285 7365 14373 4609 16779 3162 3743 5523 2106 5389 5914 1809 1465 1247 5113 13399 16655 3457 2291 1817 6668 3861 1498 3180
leaf_count=3252 5705 5020 5423 7597 235 11862 2285 7365 14373 4609 16779 3162 3743 5523 2106 5389 5914 1809 1465 1247 5113 13399 16655 3457 2291 1817 6668 3861 1498 3180
internal_value=-0.000196023 -0.00961752 0.00250012 0.0323654 0.0147678 -0.0338059 -0.0175288 0.0197977 -0.018427 -0.0111591 0.0303672 0.0455512 -0.0330979 0.00658098 0.0348033 0.00462192 -0.0517209 -0.0398942 0.0133265 -0.0221735 -0.0117836 0.0410927 0.014686 -0.0106173 0.0302735 0.00634504 -0.00084845 -0.00803991 -0.074757 -0.0136565
internal_weight=172802 134036 89287 38766 56305 44749 23463 50882 32982 27962 33669 26264 15605 13589 18667 12502 21286 14083 7858 8169 6922 16561 16890 8066 5573 3282 17213 9250 7203 10545
internal_count=172802 134036 89287 38766 56305 44749 23463 50882 32982 27962 33669 26264 15605 13589 18667 12502 21286 14083 7858 8169 6922 16561 16890 8066 5573 3282 17213 9250 7203 10545
is_linear=0
shrinkage=0.1


Tree=20
num_leaves=31
num_cat=0
split_feature=78 73 67 68 67 66 1 68 68 70 67 67 70 80 0 182 67 77 76 76 68 67 70 70 16 73 70 0 79 70
split_gain=5403.28 3132.19 2436.91 1637.77 1648.01 1345.83 1233.7 1188.13 1155.22 1049.26 951.631 943.144 910.418 853.158 836.986 730.437 647.791 647.752 614.72 545.769 455.933 539.757 441.174 439.647 437.24 432.575 393.637 385.004 382.768 376.219
threshold=-0.61630603160053987 0.62827796861495644 -0.6652990127196402 -0.61704857044613448 0.018209483410461306 -0.19985858422704686 0.52293412527444139 0.20140730038717239 -0.83679886730423936 0.16938540744094421 -1.0317965533019386 0.50074050001486314 0.69835764410425072 -0.21124806130895821 -1.2802778772631676 2.6481650631462164 1.7389144805282573 0.44408440155983081 -1.2321066629210733 -0.73633306988970892 0.9130600072722701 1.1528441009594459 -0.20268623056765173 0.18942651386754822 -0.41999077345717578 -1.7681724148303235 -0.70052641213594391 -1.9004788092056328 -0.2751246913879643 -0.8386359069470809
decision_type=8 10 8 8 8 8 8 8 8 8 10 8 10 10 8 8 8 8 8 10 10 8 8 10 8 8 10 8 8 10
left_child=6 2 8 29 5 22 12 24 10 28 19 27 15 -13 -8 17 18 25 -16 -2 -15 -22 -5 -7 -6 -1 -12 -9 -3 -4
right_child=1 9 3 4 7 23 14 11 -10 -11 26 13 -14 20 16 -17 -18 -19 -20 -21 21 -23 -24 -25 -26 -27 -28 -29 -30 -31
leaf_value=0.071494066263964609 0.043644115679928562 -0.052609501764472148 0.036858318528979916 0.0072138133326931312 0.03316562620099766 -0.038444608345111167 -0.1369902500128348 -0.21051539189212926 -0.036403913109539394 0.0038740563066021814 0.012710317615302211 0.0070561215836760054 0.025916530481579454 0.067458152116699963 -0.13100350116092038 -0.07492701459285929 0.048078497149931385 0.019481420947900386 -0.044959564158460835 -0.023451685210100281 -0.0078527009024783982 0.045602096850934429 0.046792024009982079 0.0033977320256831159 0.07741988376192456 -0.028934774920462088 0.066673995884988707 -0.0034122131355630555 -0.021778803024054806 0.084827117886937475
leaf_weight=435 1461 6567 2360 6293 3300 7196 1085 89 9195 13197 2556 8010 4156 6562 892 2589 694 3682 13324 6987 2393 8695 5150 3824 7253 17580 2935 7449 10659 5700
leaf_count=435 1461 6567 2360 6293 3300 7196 1085 89 9195 13197 2556 8010 4156 6562 892 2589 694 3682 13324 6987 2393 8695 5150 3824 7253 17580 2935 7449 10659 5700
internal_value=0.000245452 0.0106903 0.0194407 0.0282694 0.0230759 0.00103534 -0.0297889 0.0343802 -0.00888333 -0.0173095 0.00923765 0.0250615 -0.0172653 0.0341993 -0.0520219 -0.024677 -0.0457877 -0.0186515 -0.0504113 -0.0117814 0.0464871 0.0340211 0.025075 -0.0238817 0.0636375 -0.0264743 0.0416593 -0.00597895 -0.033566 0.0708563
internal_weight=172268 127831 97408 74274 66214 22463 44437 43751 23134 30423 13939 33198 28442 25660 15995 24286 14910 21697 14216 8448 17650 11088 11443 11020 10553 18015 5491 7538 17226 8060
internal_count=172268 127831 97408 74274 66214 22463 44437 43751 23134 30423 13939 33198 28442 25660 15995 24286 14910 21697 14216 8448 17650 11088 11443 11020 10553 18015 5491 7538 17226 8060
is_linear=0
shrinkage=0.1


Tree=21
num_leaves=31
num_cat=0
split_feature=78 246 195 78 70 71 78 72 185 213 71 232 221 181 221 246 1 232 57 185 232 208 86 67 129 181 213 67 38 70
split_gain=4377.46 2867.61 1537.97 1496.87 1516.56 1267.32 1098.36 1069.85 1050 1055.71 977.115 956.486 887.584 1027.71 750.651 672.088 652.736 651.013 601.708 580.305 578.157 550.171 510.782 503.024 486.566 528.686 481.433 455.946 447.654 407.042
threshold=-0.61630603160053987 0.047699853523950245 0.48736284549087922 1.7937150202339154 -0.13886501521453645 -0.37279579818220571 -1.3040580260562999 -1.0171643092753777 -0.28851263163607271 -0.93925947762565654 0.60597689190173953 0.51812902049177367 -0.35822971181785973 1.5931225187639095 -1.0583422141548253 0.55096805940956006 0.69210131923211315 -0.40289901520243054 0.30566486716791536 0.93007264721770799 1.4438537899224959 -0.67718036933784842 -0.32138434606310068 1.1240211351825151 0.18243041960039161 0.99567681100044969 -1.613387744092307 0.45817723069671701 -1.3187223553647984 -1.0379617385956648
decision_type=8 10 8 8 8 8 10 8 10 10 10 8 10 8 10 10 8 8 10 8 8 10 10 8 8 8 10 10 10 10
left_child=6 3 8 4 5 19 -1 16 18 -10 20 12 -9 21 -11 -4 -8 -16 -3 29 24 -14 -23 -12 -6 -26 -17 -7 -5 -2
right_child=1 2 15 28 10 27 7 11 9 14 23 -13 13 -15 17 26 -18 -19 -20 -21 -22 22 -24 -25 25 -27 -28 -29 -30 -31
leaf_value=-0.088424269947727008 -0.025103460490205121 0.026046742150978894 -0.017771848989232411 -0.011437607817682615 0.0073291645836321808 -0.060783286084832369 -0.038395479229620284 -0.028388339708388156 0.015517724141838574 0.021532235538871618 -0.039920722761934098 -0.04063656546900668 -0.023426687293438477 -0.046211739237029814 0.084288134510699081 -0.023924266482871836 -0.10332079304824321 0.0454330251648263 -0.036481967718945817 -0.062265133360163552 -0.023584115538348521 0.01627761173387646 0.063633561955314513 0.0065772475629562637 0.048851164583136167 -0.038205834208677625 0.023946370200662953 -0.0064823131207341726 0.049739005789488436 0.009257509242495755
leaf_weight=2720 5315 3837 8137 1484 8016 9815 5980 9054 8549 4757 5611 10102 2030 2535 9504 2439 2114 8059 2566 1843 2815 6297 3605 3945 8134 755 14711 1861 5894 9784
leaf_count=2720 5315 3837 8137 1484 8016 9815 5980 9054 8549 4757 5611 10102 2030 2535 9504 2439 2114 8059 2566 1843 2815 6297 3605 3945 8134 755 14711 1861 5894 9784
internal_value=0.00022194 0.00962344 0.0249233 -0.00503318 -0.0104463 -0.0268185 -0.0268111 -0.0227778 0.0378401 0.0454842 0.00554155 -0.0148984 -0.00382043 0.0115223 0.0569371 0.00586337 -0.0554358 0.0664947 0.000906753 -0.00931069 0.018272 0.0238358 0.0335782 -0.0206753 0.0252733 0.0413937 0.0171073 -0.0521738 0.0373665 -0.00280651
internal_weight=172268 127831 62559 65272 57894 28618 44437 41717 37272 30869 29276 33623 23521 14467 22320 25287 8094 17563 6403 16942 19720 11932 9902 9556 16905 8889 17150 11676 7378 15099
internal_count=172268 127831 62559 65272 57894 28618 44437 41717 37272 30869 29276 33623 23521 14467 22320 25287 8094 17563 6403 16942 19720 11932 9902 9556 16905 8889 17150 11676 7378 15099
is_linear=0
shrinkage=0.1


Tree=22
num_leaves=31
num_cat=0
split_feature=73 49 231 221 78 182 63 184 71 71 246 110 87 108 206 208 181 246 73 81 221 246 194 77 77 72 246 158 68 221
split_gain=3986.76 3006.2 3084.5 1610.29 1244.1 1005.35 888.323 789.608 706.586 684.166 650.8 641.374 610.003 566.608 562.969 542.294 531.718 506.444 489.348 469.431 469.38 465.936 479.986 410.144 395.822 390.714 390.023 370.503 345.937 342.696
threshold=-0.98773546739340712 -0.60712870482548087 0.068607937892096391 -0.40348674849869864 0.24645597549023349 2.6481650631462164 -0.11231965138866772 0.74547512232965829 -0.23431238099217019 -0.028864506204176864 -1.0472437754053758 -0.6359639894431538 0.098260410784473035 0.72712291181499522 1.7220058195201593 -1.520840481332485 -0.061087165932091479 -0.95155114742927671 -1.542057831338411 0.8179057216594775 -0.3474838807293526 0.48306891995279838 -0.50724436346456081 -0.15249777781759877 0.96440430520033293 -1.3783950847365782 0.97884934923727196 0.37455846976780632 -0.017261604188899122 -0.18897228990019266
decision_type=8 8 10 10 8 8 10 8 8 8 10 10 10 10 10 10 10 10 10 10 10 8 10 10 8 8 10 8 10 10
left_child=10 5 4 12 6 9 8 15 -3 24 -1 25 27 18 23 -5 -10 -8 -12 -6 -19 22 -17 -14 29 -11 -20 -4 -23 -2
right_child=1 2 3 7 19 -7 17 -9 16 11 13 -13 14 -15 -16 21 -18 20 26 -21 -22 28 -24 -25 -26 -27 -28 -29 -30 -31
leaf_value=-0.0079797763822832702 -0.045472699408134296 -0.017332142438743921 -0.041061282775993566 -0.004580518983092279 0.00068687008244495138 -0.065549196760967432 -0.032187793227379781 0.0016377295863789017 -0.09080655189928645 -0.089607410583214794 0.052513526038470384 -0.077014104696440114 0.0033953769711670898 0.073815534445583433 -0.055107101975026385 -0.0051857764890659722 -0.041480086007564233 -0.020116007114520985 0.010931266651860727 0.042905570396273116 0.015966042447036671 0.0858671498684387 0.045355051380897064 0.041152341223497785 0.031060856329010934 -0.019773773050237919 0.052798263592397955 -0.0019255573258752526 0.047115307142117729 -0.0091466612305285931
leaf_weight=3133 3204 8414 4225 2088 10687 6730 6669 5536 3154 894 8111 3571 6269 4202 1060 2343 7383 6161 9506 3504 8681 4383 9141 5366 1992 8118 2924 5723 5074 14022
leaf_count=3133 3204 8414 4225 2088 10687 6730 6669 5536 3154 894 8111 3571 6269 4202 1060 2343 7383 6161 9506 3504 8681 4383 9141 5366 1992 8118 2924 5723 5074 14022
internal_value=0.000197661 -0.00648377 0.00221707 0.0198552 -0.0143003 -0.0304005 -0.0232392 0.0356426 -0.0390325 -0.0229427 0.034822 -0.0410825 -4.0425e-05 0.0402621 0.014466 0.0437945 -0.0563067 -0.0092998 0.0333673 0.0111512 0.000953799 0.0486418 0.0350009 0.0208557 -0.0110366 -0.0267752 0.0208271 -0.018602 0.0651427 -0.0159367
internal_weight=172268 144392 105861 51208 54653 38531 40462 28565 18951 31801 27876 12583 22643 24743 12695 23029 10537 21511 20541 14191 14842 20941 11484 11635 19218 9012 12430 9948 9457 17226
internal_count=172268 144392 105861 51208 54653 38531 40462 28565 18951 31801 27876 12583 22643 24743 12695 23029 10537 21511 20541 14191 14842 20941 11484 11635 19218 9012 12430 9948 9457 17226
is_linear=0
shrinkage=0.1


Tree=23
num_leaves=31
num_cat=0
split_feature=77 246 62 67 67 57 70 71 69 67 56 56 71 69 69 67 69 239 71 232 125 67 49 67 69 67 69 68 246 84
split_gain=3483.56 2429.54 1522.98 1332.71 1267.55 1131.56 1045.24 1014.77 986.101 1255.36 885.184 830.311 815.494 745.63 678.351 680.644 676.141 666.736 615.209 571.634 555.695 506.956 476.26 449.879 443.533 419.669 413.289 407.948 377.322 361.272
threshold=0.49059879549405755 0.47219543002474468 0.20012658300892014 -0.7290767655910847 -0.52856541001919899 0.68961524785125161 0.36065024856395517 -0.2161649597457328 -0.51526896120904697 0.34207001707700352 -1.1336416726410807 -0.66416592892382265 -0.81151466915961656 -0.96378469364596786 -0.60166050392603287 0.21733853809348752 0.3483398223509106 -0.26677439812633225 0.85832687030195964 -0.42701834451704673 -0.65609828203207654 2.3203625564166463 -0.5770702145982527 -1.1819941204395701 0.46815859631266421 0.79742774613965228 0.046920238892976703 0.49981425911119731 1.2811856036961544 -0.56204430524762627
decision_type=10 10 10 8 8 8 8 8 8 10 10 8 8 8 8 8 10 10 10 8 8 8 8 10 10 10 10 8 10 10
left_child=1 2 3 12 13 10 7 -4 -5 16 -3 -7 -1 23 -6 19 22 -13 -8 -16 28 -20 -10 -2 -11 -26 -21 -17 -12 -15
right_child=4 5 6 8 14 11 18 -9 9 24 20 17 -14 29 15 27 -18 -19 21 26 -22 -23 -24 -25 25 -27 -28 -29 -30 -31
leaf_value=-0.0057684519333030008 -0.013103859970462576 -0.020538405821530721 -0.021657911755397975 0.032396713375573614 0.078703002291758972 -0.061524479097679066 0.007114494424252874 -0.063947485454620104 -0.039058504269745289 0.050829232464740942 0.0032735163163947756 -0.028255535532762013 -0.049365932289383366 -0.050218204372169596 0.046129234448797247 0.069964643275800847 -0.057773077554793377 0.017399790751348867 -0.047682085026543641 0.014677663515031403 0.050140893435292405 0.026514544846240669 0.00041175089212034695 0.049947603759195873 -0.028779063174786464 0.025170182710084699 -0.037471519271977297 0.033838199323220908 0.047006678263702729 -0.00034240290090199158
leaf_weight=8124 1774 3328 10315 9537 3627 2374 8262 12743 4209 3762 6408 4779 9160 3033 3154 4763 3772 9653 5143 3829 11075 1111 11067 3069 2124 4454 2511 9417 2867 2824
leaf_count=8124 1774 3328 10315 9537 3627 2374 8262 12743 4209 3762 6408 4779 9160 3033 3154 4763 3772 9653 5143 3829 11075 1111 11067 3069 2124 4454 2511 9417 2867 2824
internal_value=0.000176596 -0.00738577 -0.0162261 -0.00579586 0.0269084 0.0130807 -0.0318149 -0.0450544 0.00445383 -0.00459878 0.0271691 -0.00673946 -0.0289058 -0.00222045 0.0383425 0.0321318 -0.0198401 0.00224506 -0.0107466 0.0113361 0.0349969 -0.0344171 -0.0104345 0.0267527 0.0234283 0.00767083 -0.00590284 0.0460163 0.016853 -0.0262638
internal_weight=172268 134267 93783 56209 38001 40484 37574 23058 38925 29388 23678 16806 17284 10700 27301 23674 19048 14432 14516 9494 20350 6254 15276 4843 10340 6578 6340 14180 9275 5857
internal_count=172268 134267 93783 56209 38001 40484 37574 23058 38925 29388 23678 16806 17284 10700 27301 23674 19048 14432 14516 9494 20350 6254 15276 4843 10340 6578 6340 14180 9275 5857
is_linear=0
shrinkage=0.1


Tree=24
num_leaves=31
num_cat=0
split_feature=73 67 68 67 68 67 66 68 79 67 67 68 78 162 80 67 68 66 68 70 70 70 0 71 67 76 81 81 68 81
split_gain=3384.62 2687.47 1841.19 2291.1 1524.59 1503.38 1162.68 1134.84 991.61 828.314 784.01 633.854 599.343 596.614 594.914 588.208 575.844 557.726 497.526 488.897 485.561 483.919 473.129 455.273 442.161 434.941 428.796 416.625 405.564 398.174
threshold=0.67478009208597334 -0.5366920426323798 -0.37513306510140831 0.26074838857899363 -0.81491723810047711 -1.0181080334893189 0.11461360904633235 0.40039258988841114 -0.36791011903803955 -0.14469108305381645 0.92310384330620066 -1.3859770102104314 0.14380080129155734 -0.80794035873213532 0.20758971227530792 -0.22868715876277054 -1.2058466087830382 -0.15570177732717291 1.0744056947380349 -0.80211835189394176 -0.54620421395131025 -0.8386359069470809 -1.5540720347472583 -0.76904972890443257 0.35449812929103625 -0.97493175971320556 0.19962447087420279 0.19039936179981024 1.0744056947380349 -0.67664296924525524
decision_type=10 8 8 8 8 10 10 8 8 10 8 10 8 10 10 8 10 10 10 10 10 10 10 8 8 8 10 8 8 10
left_child=1 4 13 6 5 11 9 29 25 27 18 20 23 -3 28 -10 -7 -17 -9 -15 -1 -18 -19 -6 -24 -2 -11 -4 -12 -5
right_child=8 2 3 7 12 16 -8 10 15 26 14 -13 -14 19 -16 17 21 22 -20 -21 -22 -23 24 -25 -26 -27 -28 -29 -30 -31
leaf_value=-0.011265977857251031 -0.11414692091102957 0.0065478403610895689 -0.031869995165842012 0.020408202848072057 -0.015233040447816934 0.072677409947700222 -0.035283316624045984 0.0050485889619140854 -0.030923583177093775 0.009373525518983147 0.045662930517870876 -0.036361688654410522 -0.0060449356934935859 0.02436937337235786 0.044551865353583603 0.054701506105332712 -0.016769760894055366 -0.087142884587628366 -0.052811788971703889 0.069253602907478215 0.050839494076517104 0.037607253288493778 -0.026707858691009435 -0.057309918310368128 0.012257620455270863 -0.038844750974658809 0.054554250987736023 0.008559250095425219 -0.0021824645259504961 0.066915460169101937
leaf_weight=4295 810 2753 5707 2470 3585 2756 11154 9589 9397 5136 2379 7672 5403 3285 11078 1709 2487 679 1755 9758 1775 4725 4511 9443 8200 17065 3593 4576 6855 7668
leaf_count=4295 810 2753 5707 2470 3585 2756 11154 9589 9397 5136 2379 7672 5403 3285 11078 1709 2487 679 1755 9758 1775 4725 4511 9443 8200 17065 3593 4576 6855 7668
internal_value=0.000158969 0.00816736 0.0181371 0.0113409 -0.0125819 0.00416946 -0.00964925 0.0265029 -0.0243798 0.00536563 0.0171528 -0.0172517 -0.0341565 0.0490604 0.0289157 -0.0112824 0.0337486 0.000910828 -0.0038665 0.0579929 0.00682343 0.018787 -0.00592442 -0.0457738 -0.00153351 -0.0422974 0.0280362 -0.0138319 0.0100973 0.0556401
internal_weight=172268 129897 87756 71960 42141 23710 30166 41794 42371 19012 31656 13742 18431 15796 20312 24496 9968 15099 11344 13043 6070 7212 13390 13028 12711 17875 8729 10283 9234 10138
internal_count=172268 129897 87756 71960 42141 23710 30166 41794 42371 19012 31656 13742 18431 15796 20312 24496 9968 15099 11344 13043 6070 7212 13390 13028 12711 17875 8729 10283 9234 10138
is_linear=0
shrinkage=0.1


Tree=25
num_leaves=31
num_cat=0
split_feature=1 67 71 70 70 70 181 1 69 67 81 81 68 67 71 68 72 64 239 67 71 67 209 68 1 239 81 72 246 70
split_gain=2844.1 2834.02 1863.73 1669.95 1314.55 1077.12 1061.65 951.625 936.422 1257.23 816.273 736.901 703.529 736.047 623.355 587.988 473.385 472.914 463.907 448.561 545.662 439.489 423.921 415.81 408.401 375.748 374.187 369.309 355.745 343.601
threshold=-0.62613520532365696 0.50074050001486314 0.2945337503946695 -0.63639537944131197 -1.0539141629904927 0.5367502774182088 0.74373003935464033 1.0312294562648663 0.056735534326429381 -0.68307044073927459 -0.1389761766387321 -0.37008188259497438 -0.69124264025930449 -0.25334963505885433 -0.70544165869784303 0.61355081597032135 -0.87596286076302632 -0.79885509679823585 0.26583779905538513 2.0602282360744595 0.93459851377800518 1.0418726184951503 0.0095821180508363756 -1.2663052221908957 -1.8433183031865312 0.54446851726501511 0.17249140942057317 -0.9803311686324524 -1.6343300031273105 0.5367502774182088
decision_type=8 8 10 10 8 8 8 8 8 10 10 10 10 10 8 10 8 8 10 8 8 8 10 10 10 10 10 10 8 10
left_child=4 2 3 14 24 17 10 11 9 23 18 -3 -11 -14 -2 -13 -7 -4 -6 20 -9 -17 29 -5 -1 -19 -15 -22 -12 -10
right_child=1 7 5 8 6 16 -8 19 22 12 28 15 13 26 -16 21 -18 25 -20 -21 27 -23 -24 -25 -26 -27 -28 -29 -30 -31
leaf_value=0.043785772538401282 -0.0119951368690056 0.0025006745480949683 -0.018650567476452402 0.025810669834605806 0.0035303991973081568 -0.06862116028313707 -0.0076850157467268886 0.0021207968118961236 -0.015567720192340343 0.07262025681477835 -0.016764392034571259 0.070732456092565177 -0.0037670568315891391 0.021725038259395344 -0.045815248129081332 0.0015887454895416654 -0.0011191145238895884 -0.07330046636730829 0.037398926465324243 0.020511732203271377 -0.13429404232856723 0.041095099671332139 -0.038147971114905387 -0.024002894940144445 -0.019796618057137002 -0.036218860400320831 0.065704516038175564 -0.037156179197508299 0.056617843610588837 0.038240612169194665
leaf_weight=1142 10048 8703 2953 2090 7829 1219 6435 4669 4236 3169 680 4231 6708 4445 12040 4332 7078 9981 8444 3853 449 8190 6086 8283 8426 3859 3495 3319 14706 1646
leaf_count=1142 10048 8703 2953 2090 7829 1219 6435 4669 4236 3169 680 4231 6708 4445 12040 4332 7078 9981 8444 3853 449 8190 6086 8283 8426 3859 3495 3319 14706 1646
internal_value=0.000161867 -0.00775586 -0.017654 -0.00836886 0.0209507 -0.0406672 0.0292774 0.0151328 0.00376776 0.0137278 0.0368062 0.0261692 0.0298491 0.0205531 -0.0304553 0.0384331 -0.0111109 -0.0552374 0.0211378 -0.00768657 -0.0206252 0.0274702 -0.0196491 -0.013915 -0.0121479 -0.0630039 0.0411584 -0.048929 0.0533404 -0.000417313
internal_weight=172744 125082 87336 62246 47662 25090 38094 37746 40158 28190 31659 25456 17817 14648 22088 16753 8297 16793 16273 12290 8437 12522 11968 10373 9568 13840 7940 3768 15386 5882
internal_count=172744 125082 87336 62246 47662 25090 38094 37746 40158 28190 31659 25456 17817 14648 22088 16753 8297 16793 16273 12290 8437 12522 11968 10373 9568 13840 7940 3768 15386 5882
is_linear=0
shrinkage=0.1


Tree=26
num_leaves=31
num_cat=0
split_feature=73 49 239 249 158 184 110 249 67 69 67 69 67 249 222 239 49 239 249 69 67 138 138 246 0 70 68 57 67 57
split_gain=2589.76 2362.14 1758.47 1183.56 1385.23 975.98 887.756 835.678 729.816 696.359 681.011 668.62 633.991 610.331 605.99 538.572 526.674 516.682 460.116 399.077 584.004 396.25 354.039 350.345 349.838 339.162 339.094 331.864 293.325 292.546
threshold=-1.0383209985284982 -0.29411984418338799 -0.42345854874683031 0.23031129951891546 0.41876029022817313 2.4199438265819935 -0.23305702560701616 -0.4448298642518656 -0.71953081012903919 -0.57314630125667498 0.72501434920900676 -1.2592991370414917 -1.1486750883103878 0.92471172893533982 1.0977494425774255 0.23908230834572422 -0.74422452551634233 0.33127185037973944 -0.29834905583142263 -0.76255765447531132 0.10372819420632373 -0.33246337096545636 -0.019269011470321468 0.35288074018202181 -1.8039822606578395 -0.65685517583913688 -1.3344757452778944 0.31659638830223241 -1.1168949398678698 0.7748799175871367
decision_type=8 8 10 8 10 8 10 10 8 10 10 10 8 10 10 10 10 10 10 10 8 10 10 10 8 8 8 10 10 8
left_child=12 5 7 14 13 6 8 10 11 -10 -3 28 26 15 17 -5 21 18 -4 -14 23 -11 -18 -21 -7 -6 -1 -26 -2 -19
right_child=1 2 3 4 25 24 -8 -9 9 16 -12 -13 19 -15 -16 -17 22 29 -20 20 -22 -23 -24 -25 27 -27 -28 -29 -30 -31
leaf_value=0.012972877620254272 -0.017714976298937018 -0.01600725992947492 0.037680922485840762 -0.033670067977865432 -0.0025315195025927932 -0.15198594152064224 -0.046016069796904993 -0.044188261940969073 0.027841567298966242 -0.017779438139108875 0.029876567706249288 -0.045876505139471765 0.059253027856239461 -0.050333272136216828 -0.012319144656699928 0.0088720664259172646 0.016928588323882679 0.072064865302989695 0.0079817285067386775 -0.0062071410857737529 0.045067650093379055 -0.089109913037756477 -0.042068659342491148 0.03613372711578982 -0.036044257573915703 0.031434715053218883 -0.057852407467213623 -0.082033960371645356 0.034516741759962541 0.029139796346216981
leaf_weight=1662 2864 13398 12066 4839 3947 326 7703 7836 6860 10766 4258 8157 5216 4551 3349 7694 7809 4384 9278 5514 9249 843 1164 3013 7329 11220 1128 2033 1717 2571
leaf_count=1662 2864 13398 12066 4839 3947 326 7703 7836 6860 10766 4258 8157 5216 4551 3349 7694 7809 4384 9278 5514 9249 843 1164 3013 7329 11220 1128 2033 1717 2571
internal_value=0.000145045 -0.00498058 0.00518926 0.0140523 0.000554325 -0.0207797 -0.0149069 -0.0170068 -0.00892848 0.000236085 -0.00491126 -0.0287083 0.0293795 -0.0189561 0.0277907 -0.00751634 -0.00894237 0.0325556 0.0247964 0.0348486 0.0276536 -0.0230167 0.00921194 0.00870027 -0.0497452 0.0225633 -0.0155037 -0.0460999 0.00175936 0.0562819
internal_weight=172744 146962 89391 63899 32251 57571 47883 25492 40180 27442 17656 12738 25782 17084 31648 12533 20582 28299 21344 22992 17776 11609 8973 8527 9688 15167 2790 9362 4581 6955
internal_count=172744 146962 89391 63899 32251 57571 47883 25492 40180 27442 17656 12738 25782 17084 31648 12533 20582 28299 21344 22992 17776 11609 8973 8527 9688 15167 2790 9362 4581 6955
is_linear=0
shrinkage=0.1


Tree=27
num_leaves=31
num_cat=0
split_feature=78 67 69 67 69 68 68 67 68 79 67 122 232 1 56 221 221 78 80 209 67 68 64 87 66 78 16 196 67 184
split_gain=2341.69 1853.39 1841.1 2259.57 1187.6 1151.43 1140.83 982.48 844.701 817.104 692.036 656.988 648.114 631.007 550.508 695.068 493.086 465.588 452.137 435.293 433 410.051 409.795 409.668 407.891 379.552 374.276 354.807 348.962 341.918
